phase 2.2796981 -0.528887 -1.0832025 -0.078182146 -0.5941907 1.0758423 -1.5456585 -1.3431426 -0.9338961 -1.5153431 -1.4710228 -2.2701924 -0.02415804 -0.16300802 0.08425375 0.076263584 -0.47597256 0.36757535 -0.74082994 0.72891885 -1.0710728 -0.9760776 0.13367376 -0.06293925 1.2137362 -0.039711695 -0.1704072 0.5628254 -1.8359996 -0.73846424 -0.44193646 0.24637084
includes -1.045605 0.30101854 1.0663642 3.0186932 0.5252456 1.8064953 -0.026211098 2.265669 0.4447773 0.415528 -0.23185842 0.43091804 -1.0200627 -2.5616124 -1.8792768 2.2530074 -1.3991762 1.1048017 -1.5547752 0.40626398 1.0331506 0.21619654 1.5790374 -0.9405477 0.7345784 0.8086318 0.2662772 0.08425429 -0.5486465 -0.34185565 1.769325 -0.8927808
sunco -5.3554597 -1.1800631 0.5839009 -5.2998366 -3.3971946 -1.0476482 0.29949075 -0.9334425 2.2788882 -2.1276364 0.29229957 0.7107052 -0.46094945 -0.8910626 -0.3339345 0.3981476 0.61817026 0.84647036 1.7784307 0.24263124 -0.19371441 0.6630891 -1.8693813 0.18211216 -0.22968581 0.03723123 1.7611544 0.61618423 1.9402617 0.1648745 0.40293413 0.015710691
qualifications -2.6549728 4.1536617 1.9131458 1.0943302 -2.163776 0.30614766 -1.0461291 2.1968992 1.6236409 1.1997598 1.0186938 -2.381992 0.5953658 0.5173141 0.29520854 -2.3106544 -0.5846514 -2.1415412 -0.3526375 -0.37918139 0.040563606 -0.30960384 0.8596871 -0.09494423 -0.08489876 0.38386226 -0.45649403 -1.4930257 0.019570043 0.47700804 -0.5155183 0.06303679
problem 0.026087055 0.93963534 -0.63122076 -0.14080028 -1.8260759 -1.0488622 -1.0101626 0.9448058 -1.6506057 -1.9160149 -2.4081795 -2.5304456 0.036250196 -1.4683663 0.75219744 -1.6695168 0.52391386 -1.4827859 0.159556 -1.0412604 -0.495097 -1.4998268 -0.6075379 0.685155 -0.18947834 -0.9973507 0.40706703 0.80943793 -0.37660998 2.265885 0.55880976 -0.7721972
a 3.8316388 -1.6771399 0.24230719 1.3321948 0.44417182 1.7627711 0.8003776 0.31987116 -0.23194864 -1.2624422 0.41927916 -0.8239484 0.101789206 0.62323725 0.69989604 0.08282836 -0.25577548 0.17211673 -0.22378151 -0.215751 -0.7677005 0.5360714 0.14367732 -0.93543476 -0.65401095 0.65023386 -0.71818626 -0.1365399 0.22925988 -1.7306734 -0.8989686 -0.07009009
citations -10.891039 -1.0025562 0.8458637 4.0673428 2.9523597 0.6688978 0.68205184 0.5780322 -1.4377773 2.9929628 -1.35848 0.83640784 1.5581468 3.0117953 0.23788685 0.85409427 0.13262519 -1.4489862 0.46802583 -0.9050636 0.5039225 0.89843315 -0.68943673 -0.36610755 -0.45443523 0.6593738 1.0887191 0.36265376 -0.2650718 0.16407128 0.8974189 -0.5216635
panels -0.2795131 2.2934077 -1.9942584 -1.8334432 -0.35685045 -0.39380947 1.0995941 -0.31402487 1.0275902 1.652996 -1.2746478 0.8955426 0.14104055 0.07654252 0.22854091 0.32317966 -1.4650544 -0.7991733 0.1344013 -0.48352402 -1.7878326 -0.17843354 0.2609949 0.13488968 1.0094312 -0.58278626 -0.4144398 -0.19164723 -0.14267394 -1.1019444 -0.91343397 -1.0137912
electrical -0.26632488 4.267314 -1.1916695 -0.0770792 1.9455363 -1.6103251 0.5127713 0.21590273 -0.07823698 -2.1371925 3.1247103 -0.6813758 -0.29945657 -0.7775218 0.92010015 0.72995955 -0.14473885 -0.06815082 0.45751548 -1.3894141 -1.4839809 -0.046574708 1.15823 -0.26589194 1.1075214 -0.26021355 0.80409247 -1.5614592 -0.91964835 -0.2748819 -0.44007334 0.21368094
interface 1.825404 0.51647776 -2.2504785 0.48900002 0.70400923 -0.90167356 -0.43419626 -0.5730123 0.44110376 -0.08601688 -1.3972332 0.668565 0.1330131 -0.02933814 -0.8559225 -0.40516898 0.7432833 0.301655 0.30985677 -0.19600736 -1.1115345 -0.07617526 0.4975923 0.6930911 0.6250047 0.47704133 -1.5681224 -0.25978363 -0.7206723 0.18277746 -1.3661641 0.010200432
systems -3.130569 2.8759253 -2.9734168 -0.52216816 1.4440411 -1.5399483 -1.2971411 2.9084523 -2.8148713 -0.7278827 0.2507417 -0.5203514 0.28755292 -0.27306515 -1.7832098 0.40465885 0.15021518 -0.6420404 -0.03988724 -0.06782166 0.8424151 -0.065752104 0.19920921 0.08164522 1.1164271 -0.7882419 -0.73824835 0.086172655 -0.6026223 0.048390415 -0.792402 0.48604366
seek 4.7300296 -1.067339 3.054403 3.4489818 -2.6070926 -1.1369299 0.09000154 -0.19651102 -1.7300324 0.97404855 0.92578816 0.75381255 -0.48527867 0.77574235 0.25149423 -0.21338183 0.50219154 -1.4104197 -0.424438 -1.5478228 0.74039125 1.6665715 -0.42630976 1.2492424 0.68839926 0.3007558 1.79808 0.7268473 0.66621286 0.79763436 0.18230313 -1.1526264
secure 0.46907943 0.6399169 0.51971287 -0.29152006 -0.11940838 -1.979939 -1.2431135 -1.3144044 2.1550543 0.27194068 2.198837 0.002292006 -0.2928409 -0.13235115 0.6470747 -0.7386135 -0.5275136 0.20496112 1.3166486 -0.6319408 1.5670515 0.1765408 0.40066877 0.2761466 0.07427757 0.93932843 -1.3428502 -0.3932199 -1.1198937 -0.10650635 0.74461913 0.035701193
could 0.9702766 -3.133228 2.5006373 -1.8241357 3.1742797 -2.0548224 0.7413753 1.725256 0.640266 0.7729346 -0.97141 -1.4094824 3.211192 -3.700919 -0.10589919 -1.2617316 0.6562753 -0.41182148 -1.7291435 0.036526952 -0.38166633 0.06738494 -0.4669646 1.0486676 -0.76240754 -0.014700442 1.6887804 0.02279151 -0.6367636 -0.87316006 -0.9475063 -0.22619294
smart 1.2443881 -0.5607843 0.4352284 -1.321853 3.188236 -1.6768026 -1.0694171 -0.7999673 2.5141063 -0.5842079 0.34993297 -2.0147781 -0.16179393 -0.31721437 -0.07300295 1.5117937 -0.111100905 -0.017506765 1.457112 -1.0016817 2.6873171 -0.74552834 -0.8165036 0.3585666 -0.38082144 0.62053925 -0.07091193 -0.89856964 1.0727453 -0.48103973 0.50207275 -1.1465576
what 2.2253015 -1.378265 3.00423 -0.5346756 5.8840833 -2.0749466 0.06820009 0.0989412 0.4854631 0.44820958 -0.982685 -1.6588959 2.778096 -1.1747373 -0.93622524 -0.34172168 -0.27061462 0.3616666 -1.0582262 1.9082102 -1.350291 1.4857444 -1.9254315 1.7425112 -0.8649853 1.7411702 0.28147462 -0.24560411 0.100170076 -0.2939758 0.21224439 0.27696136
believe 3.519462 -2.9129817 1.6208079 0.7072768 -1.0844693 -0.96382976 -1.3714598 0.8037564 -1.2461343 0.26893863 0.37648308 2.2343597 -0.40701407 1.4570259 -0.28869918 -0.36520013 0.6347167 -0.40107372 -0.090822235 0.30538383 0.21323843 0.34157154 0.20563427 -0.22159728 -0.52238256 0.74983424 -0.9298194 0.2756641 0.37558794 -0.5212935 -0.23160754 -0.08941004
since 1.2918969 -1.1052102 0.65214896 -0.7916316 0.9326536 2.015276 1.2501333 1.2620977 -1.6542196 -0.65398663 -0.4729202 -0.27006695 -1.2529875 -0.14354777 0.25006157 -0.62450945 -1.1252327 1.1591165 -0.91785413 -0.29521728 0.74190277 -1.416005 -0.48719472 -0.15605633 1.0551594 0.3458089 -0.9880507 0.33245802 -0.1356716 0.046329964 2.2466605 2.8139963
industry -0.11916876 5.54163 0.892748 -0.6418422 3.3895643 -0.9117122 -0.023476446 1.6616914 -3.1568131 -1.9205998 1.5192401 -0.74022305 -1.432406 -0.3979952 -1.6239399 1.8650252 1.0779517 -0.9020319 -0.2411123 -0.7211829 -0.2380898 0.9536236 1.3461491 1.8806729 -1.3615227 0.1390352 -0.50051314 -0.34576452 0.7448804 -0.44158593 -1.5222986 -0.28654405
loan 0.51501757 3.3597949 4.73076 1.6498902 -0.2992474 0.23739605 -2.1286638 -2.6533751 -1.2068577 0.9051405 0.09690351 0.7154002 0.5947313 0.3451225 1.2158945 3.309401 1.8850371 1.9267087 -1.9456826 -2.5844011 -1.3540992 -0.23150882 -0.16656332 -0.93876284 -1.630643 -0.020655883 -1.2718639 0.99296343 1.4173578 0.35839275 1.1514667 -0.97977585
very 1.4222547 -2.2147167 -0.69642556 -2.67656 1.9247898 0.7216864 0.31163576 -0.21211636 1.4236951 0.4879842 -0.050886177 -0.7529379 -0.96867245 0.22723456 0.027105864 0.3530046 0.22011499 -0.62419224 0.98260087 0.056272663 1.1017324 -0.6339921 0.053202968 0.53281385 0.13787332 -0.5037251 -0.5064674 -0.25445572 -0.057030916 0.21636285 -0.34724307 0.7114762
include 2.0793912 -1.3876618 0.9182536 1.9721261 -1.1609107 0.4834676 -1.2040279 1.7051466 -0.7324019 -0.72861016 -0.57119685 1.5602381 -1.3045349 -1.5471556 -2.0143445 0.8519505 -0.63594955 0.31741446 -0.6036715 0.30065358 0.9296276 0.34539986 0.39300236 -1.4675778 0.571745 -0.16189317 0.6601388 -0.69064856 0.679483 -0.75385547 0.73616564 -0.23245327
communication -0.47378916 3.3959737 -1.5312314 -1.3771491 2.00127 -1.3280503 -0.2971125 0.9260235 -2.1704361 -1.508118 -0.10946237 -0.7827515 -0.64763844 0.68795675 -0.9289615 -1.0743747 1.5644312 0.29014406 0.100909874 0.12862997 0.42007038 0.15381142 1.1478541 0.2713461 -0.84341955 0.3963227 -0.5805416 -0.6337021 0.3771862 -0.48903507 0.12490828 0.13652658
rates -0.24374141 0.62798256 -3.1571035 -1.1183869 -2.0285559 0.27170005 -0.46365055 1.198401 -0.24917294 2.318631 -0.12668921 -0.971737 -0.3995368 -0.59663576 1.2031894 0.54695696 -0.5049495 0.9541959 0.004636232 0.733149 0.3667921 0.40291145 -0.89603436 -0.3697812 -0.110867985 0.65168005 -0.17556272 1.0922091 -1.1159282 0.7666273 -0.83789986 -0.335962
according -1.1463674 -2.2486475 -0.572313 0.15436503 1.2106538 2.2895236 2.364411 1.2449969 0.3414012 -1.1023911 -1.1038431 -0.32367966 -0.8458309 -1.4948323 -0.38398856 1.2110833 0.6017561 1.019309 -0.013233646 0.31340548 1.1709245 -0.7341222 0.5027542 1.516579 1.5166738 0.12611029 -2.033265 -0.48584312 0.42022464 1.5480397 0.3158864 0.15926374
references -3.1373756 4.0339756 4.37289 1.527059 -2.1527262 2.2909381 1.3764429 2.5419548 1.3601365 2.754114 -3.1112614 -0.20949332 0.25442147 1.831578 -1.7875906 1.4813832 -0.3659584 0.63814104 0.14915974 -0.7080978 0.9677487 0.48578545 0.9043205 1.1208483 -0.75792086 1.4909972 0.10799601 0.024764296 0.30506295 0.5924168 0.42482486 -0.39182514
challenges -2.2740245 2.6957805 0.56833196 -1.180247 -2.4032085 0.79287624 -1.0071753 0.7343184 -0.056800764 0.016938401 -2.7335374 -0.2552902 0.88036895 1.5278697 -0.33462346 -0.649886 -1.8502527 -1.7173315 -1.2392669 -1.5528837 -0.20087853 -0.6001916 -0.45374283 0.95476896 0.9863369 -1.9002033 0.08230197 -1.8753488 1.2510037 -0.06262464 -0.33435395 -1.6951379
chart -2.814878 3.5755272 3.89714 0.90459377 -0.635834 1.7255502 0.53159684 -0.5202109 0.60136914 -1.4297056 -2.2764642 1.3097728 -1.3268968 -2.0122976 2.732629 0.8031609 -0.20481485 -2.8882926 1.3070862 1.7498341 0.46190387 -0.26019168 0.6075532 -2.0622828 -1.038236 0.17840797 2.4823642 2.2184367 1.3123587 0.46406507 -0.9858728 -0.53651327
market 2.5973556 0.91336423 -2.0401545 0.10541549 1.1472367 -0.17371786 -0.67567503 -1.092659 -0.41893864 -0.21145011 -0.90741926 0.08299548 0.04614225 -1.1820643 -0.10756235 1.2345558 0.40939137 -0.25488967 0.13291575 -0.25450662 -0.095264986 0.83111405 -0.09600281 0.9525542 0.0076951385 -0.35370538 -0.09295883 -0.2754378 0.15742913 -0.026085487 -0.19830169 0.080196
whole 1.0156813 -2.1541831 -0.5777979 -1.8708664 -0.39052227 2.7770035 0.36517036 0.6767989 -0.2863693 -0.24407038 0.3548682 0.28310186 -0.09428457 0.60437363 1.2208003 1.637281 0.1832192 -0.34837824 0.6436545 2.2693348 0.9934648 -0.00541663 1.4032519 0.88092154 -0.41854545 0.09045053 0.47967684 0.50067025 0.7078114 0.87360376 -0.063989475 -0.08541276
creates 3.21305 -0.31353799 -0.14345181 0.8234462 -0.72682995 -2.0128236 -0.4501215 0.3166552 1.0190344 1.0308099 -0.29781878 0.63162875 2.0294888 1.3354201 -1.0917687 0.6083877 -1.0846156 -0.27845696 -0.109433554 2.2678392 0.90543425 0.26192462 1.3143424 -0.21497361 1.0545716 0.33494434 -0.052060697 -0.69659746 0.4753666 1.0692523 0.052295987 0.95663846
feasible 2.8749757 -1.0556753 -2.0152209 1.1718653 -1.1881752 -0.75174487 1.3153213 0.0025028852 -0.46268088 -0.95757246 -0.5138909 -0.83918905 0.6925078 -0.45654607 0.47621134 -1.1176802 -0.40353954 -0.49741843 2.211267 -1.0309502 0.79850215 -0.13543378 -1.1451741 0.88482934 0.46867025 -0.1522116 -0.47194 0.03291859 -0.50164217 0.09672656 -0.6507393 0.38910994
sell 4.1968956 -1.0562851 -0.6441538 1.2386265 1.2709996 -1.613688 -1.275687 -2.1514328 0.26530215 0.20527256 -0.91759247 0.555001 -0.036312602 -0.9076221 -0.36534658 1.03744 -0.21722224 -0.33464247 0.49896145 0.08889505 -0.3268203 0.5746287 -0.48844686 -0.31995726 -0.3951106 0.36693975 0.31748295 -0.34872457 1.068336 0.0010489947 -0.099438444 -0.31594053
on 2.3988929 -1.3116432 0.09644078 0.7863131 -0.6451947 2.4566684 1.6114049 0.7230583 0.15115021 -0.8266209 -2.0620208 -0.6113925 -1.091894 -0.2961747 -0.6085772 2.136835 1.463451 -0.64686 0.4614385 -0.9662398 -0.24727161 -0.8113149 0.03153187 -0.86538434 -0.11110299 -0.20134412 -0.2984534 -0.29736173 0.5776347 0.58286387 0.9880835 0.6020348
estimated -0.56846976 2.0103235 0.17624028 0.575264 -1.14237 -0.8541552 1.9274377 -0.80649436 1.099614 -0.1391411 -0.8521175 0.742502 -0.16174914 -2.310859 1.6661109 -0.06525223 -1.0196723 1.2346551 -0.45550147 0.7430123 2.8934152 0.72909385 -0.034546707 -0.2823972 -0.31757605 -1.5023923 0.2827289 1.7204118 -1.1707749 -1.8185701 -1.3407351 0.10291999
should 1.2111561 -3.5114226 3.255476 -2.2170374 2.1822493 -2.2794552 0.04229046 2.5122147 1.113876 1.2344997 -0.48630026 -1.087027 2.8395 -2.7817075 0.032095063 -1.3907655 1.237013 -0.54679465 -1.8443377 0.060561206 -0.2962026 0.20613834 -0.17290038 0.14974634 -0.7768365 0.04707122 1.1619443 0.36358193 -0.20906368 -1.3137397 0.37086663 -0.6564379
plan 3.487548 -0.08324149 -1.4188313 0.06186409 1.7468889 -0.14619918 -1.466766 -2.2971776 0.97804487 0.044864323 -1.2033204 -0.49033567 -0.33963493 -0.1983553 -0.73907095 0.6102662 0.44389468 -0.18661252 0.11610954 0.2538632 0.43514258 0.3211369 -0.06239983 -0.19732164 -0.10418375 -0.30715317 0.042693056 -0.015964758 -0.051482633 -0.03932333 -0.018057749 -0.25088254
resources -2.9185886 4.2545853 -1.6996247 -0.73623484 -3.0394888 -0.8413449 -0.42720228 2.5453806 -0.1338341 1.2700281 -0.1523794 1.025577 1.1125916 0.61274064 -1.3549173 0.37742642 -0.22867624 0.024756601 0.13370611 -0.38454053 1.3209012 0.23190567 -0.9797485 0.33148468 0.6310199 0.18959498 0.92767197 0.09684182 -0.43828076 -0.7601355 -0.21010408 0.17984042
technology -4.229358 2.4020152 -0.9734675 0.13720469 3.7356088 -1.1122566 -1.531962 1.9281392 -4.4392486 -1.9771476 0.1362112 -0.5814089 -1.1205261 0.68468636 -0.8292068 0.10979972 1.1789731 -0.20478149 -1.7322347 -1.2278059 0.16636172 -0.4864442 0.810204 1.6078799 0.41020223 -0.43339515 -0.23993589 -0.91157943 0.74406147 0.029980753 -0.6433747 -0.3017011
provide 3.0529692 -0.2698128 1.3157202 4.181017 -2.8508995 -2.576054 -1.1896776 -0.39609247 0.4200393 0.9097326 1.9260808 2.6312933 -1.2738305 -1.6748812 -0.8617789 -0.9844427 0.37899473 -0.48270464 -0.1881987 0.009139973 0.10095234 -0.2120054 -0.42007083 -0.039500717 0.055071305 0.671353 -0.5170618 -0.60218066 0.567221 -0.62446797 -0.7328627 0.39977488
necessary 1.2970713 1.6512519 1.4748148 1.3625878 -1.1867146 0.5133572 0.65233576 1.1035565 0.6361878 0.5809869 2.1481168 -0.8444221 -0.38309216 0.906056 -0.10017889 -0.88023937 1.8888211 0.34282497 -1.2320963 -2.1492333 -0.55280024 -0.8618907 1.7828099 0.26314434 -1.9498651 0.2354754 0.36181936 0.0893968 -1.4059684 0.17418964 0.5947789 -0.9409742
report -1.3516438 1.449291 -0.8547482 0.34148976 -0.66841197 1.0981703 -1.4991411 -0.89152336 1.0234625 -0.39793038 -1.2292738 0.4293724 -0.82310814 -1.1607671 0.8768476 -0.5213657 0.672628 -1.2497538 -0.8490576 1.9933685 0.70167524 -0.458277 0.5025875 -0.20439166 -1.1978837 -1.4292693 -1.2928109 -0.4890645 0.7618852 -1.0958722 0.94190586 0.498459
timetable 2.6693852 0.42862976 -3.1096516 1.2163193 0.36838716 1.4195268 1.8630784 -1.264259 -0.1910188 0.7692209 -0.6894191 -0.13130873 -0.39292657 0.008316844 0.6076488 0.62082005 0.92599595 0.17679784 0.6066092 0.5660954 -0.48058182 0.012060989 0.48273125 0.44603556 -0.25605604 0.24669404 0.27761886 0.21426636 0.1940298 0.3931956 -0.25639063 0.24664585
headings -8.031105 -3.6791334 -2.191365 -0.6495975 -1.8644923 0.92473763 -1.0356349 -0.038864948 0.7725551 -0.066982485 -0.09221957 -1.1082917 0.582312 -0.10764697 -0.31417897 0.34941098 -0.90105313 -0.24602984 -0.22850499 -0.6431232 -0.63474417 1.6371897 -0.2795782 0.2374899 1.7182003 1.1880428 0.2361251 -0.93978363 0.34482825 0.44709295 0.7838263 -0.56939447
consuming 2.858594 -1.3405966 -0.331628 -1.003138 2.4552786 -1.4832197 -0.14215457 -0.2635694 0.95471174 1.2432313 -0.6152645 0.94025916 0.25879124 1.4639732 0.2958049 0.12892994 0.07837493 0.82286197 -0.59281313 0.35962468 0.85462296 0.20009495 0.5640437 -0.12898411 0.89197403 -0.6131542 1.4206226 -0.30696225 -1.2824572 0.07613068 0.1044856 0.3935434
meaning 4.5870347 -2.1444633 0.6168066 1.7522746 -1.1724514 0.29014412 0.52764356 1.1488391 -1.7727668 -0.22117794 -1.1188658 -1.7553824 -0.05518694 0.9803855 0.28273425 0.6571632 0.7278065 0.8182749 -0.3740681 -0.8523102 0.49321684 -0.5824461 1.6636658 -0.14462733 1.4830095 -0.08171959 -0.12713957 0.08889358 -0.14711148 -0.08476181 0.56629455 0.46716422
audience 3.3739789 0.088063985 -0.23111954 0.23560502 -0.44837365 1.1772976 -0.21702014 -0.78846556 0.9409427 -1.1112976 -0.12876771 -0.14255705 1.3875818 0.47117302 2.0368497 0.037230052 -0.1594517 0.15815583 0.018519897 0.5201662 -0.35634196 0.30545378 -0.653275 0.69570225 -1.7183596 -0.82967407 -0.90244085 0.12956598 0.11686079 -1.0055374 -0.09801547 1.07829
areas -0.20998059 2.1182137 -2.7262053 -1.1419117 -0.5077891 0.30151966 -0.32496247 1.027274 0.17722699 0.992842 -0.017883463 -0.2490944 -0.5745865 -0.2622659 -0.5523578 0.24612014 -0.7469269 -0.062453486 -0.5135199 0.27792606 -0.67463905 0.42853862 -0.29716274 -0.47150078 1.01077 0.5380508 0.30125058 0.43606216 -0.29401198 -0.017427612 -0.6850367 -0.19482641
original 1.8412834 0.6155743 -0.13353345 0.9452457 0.4843483 0.30960196 0.6386403 -0.5694658 2.5352464 -0.49736622 -1.3211896 0.8635636 0.71627796 -0.5453923 -1.1685934 -0.3114763 -0.559973 0.008425137 0.55694246 -0.88557655 0.4665169 -0.040345065 1.0612777 0.51051915 0.1830277 -0.68773025 0.8578913 -0.10797843 0.2300997 -0.776382 0.96959156 0.12361613
month 0.9235937 0.49434102 1.7487453 -1.5510806 -1.0022627 2.8333058 -1.0586708 -3.0887537 -1.4234675 0.025221309 -0.081260495 -0.8478134 2.2004008 -0.7567197 0.55130047 -0.16451651 -0.4790281 1.2485166 -0.78186375 1.3552955 0.5284095 -2.6169124 0.26052183 -0.024142254 1.259536 0.74402183 0.4931891 0.38640988 1.2288891 -0.09090012 -1.2206734 -0.16447541
public -0.10037304 1.8057984 -1.539927 -0.2350335 -0.77685803 0.7208027 0.73335665 0.4179212 0.12529165 -1.3394759 0.731442 1.65111 0.14469698 -0.48286387 0.057225876 -1.1171986 1.4653727 -0.55027866 0.73685384 -0.0008012787 -0.3873575 -0.3491174 0.04968861 -0.64600015 -0.10045014 1.8112298 0.033253524 0.5925955 -0.24049883 -0.6090455 0.6451726 -0.8120564
process 1.3526944 1.1725895 -1.3545754 0.08082801 -1.0502137 -1.036924 -2.4042754 -0.4662029 -1.700604 -2.0494354 -1.3033772 -0.8566038 0.29560596 0.30652443 -0.84458786 0.07158895 0.45298514 0.25155056 -0.6930033 0.7172447 0.25345308 -0.9342374 -0.2169639 -0.07799832 0.72901314 -0.4989739 -0.33605608 -0.108944125 -0.3674663 0.531056 0.30162647 1.136467
renewable -1.0113844 2.0530474 -2.493416 -1.2245353 0.23402141 -1.4016706 1.6519525 -0.33363926 0.8282247 -0.6722502 0.7392956 1.1669468 0.02683255 -0.8738081 0.61352587 -0.8182965 0.23253167 1.1450999 1.1614275 -0.8445014 -1.0048764 -0.4811259 0.6272697 -0.6393879 0.85297227 -0.7624831 0.7981668 -0.037435975 -0.08782604 0.13058339 0.22721466 0.79565775
existing -7.3501444 0.6977372 1.4798183 3.8415518 1.3183933 1.8584313 -0.50826305 0.5193813 1.9942623 0.0073323576 1.1384875 2.1441352 1.8411789 -0.21973228 -0.63311356 -1.674423 -2.3529418 0.16659845 -0.8662805 -1.2528796 0.9184888 0.072653644 1.6744564 0.46828908 -0.73226833 -0.43217266 0.6902734 -0.22924028 0.32816184 1.2140433 -0.28086722 2.2621503
require 2.15598 -1.4505795 -1.7846521 0.99317265 -3.1187012 0.46363413 -0.22220668 0.17937733 -0.7544694 -0.098187596 0.08678721 0.0125187505 -0.89396936 -0.09284865 -0.197218 -0.3024494 0.9913747 -0.36101627 -0.5043698 -0.79592323 -0.60729355 -0.3601517 0.8973856 1.3040845 -0.34847608 0.1760371 0.45388013 0.1773025 -0.2185551 -0.3983349 -0.6069053 -0.508787
statement 3.717189 -0.65413195 0.09576294 0.73243445 -0.65701723 -0.081098065 -1.6618751 -1.0725776 -0.7815198 -0.70487386 -0.3564669 -0.19911574 0.21189056 0.37535852 -8.10283e-05 0.00500058 0.2671798 -0.0430813 0.07501173 -0.07378118 -1.0878614 -1.3813004 -0.20979045 -1.1563023 -1.1163161 0.5015204 -1.6810987 0.6771429 -0.11489725 -1.3063636 0.6003063 1.1021492
pollution -6.8872514 0.9027319 -1.902288 -1.2428594 0.9359166 -1.4665841 -0.5604759 0.75802886 -1.5490634 0.06879063 0.6623345 0.539186 0.24098468 -0.42129296 2.1695366 1.2417378 0.22299933 0.87569654 -0.011646783 0.18947138 -1.437266 0.4045445 1.4892087 0.8016266 0.5756444 0.71705496 0.20876423 0.7190825 -0.401989 0.5497119 0.4535449 0.85038894
national -4.93035 1.2741656 1.1861004 1.4644248 2.2009084 3.2675471 -1.4248604 0.6281652 -0.42286363 -2.346649 1.7407284 2.3839548 1.0234846 0.22750948 0.58545387 -2.144086 0.22286385 -1.1509635 0.98760587 1.5163814 -0.25221172 0.031041564 -0.8237747 -1.8371909 2.4978657 0.8649097 1.355763 1.0775796 0.90118957 -0.5310569 -0.19691283 -0.32356894
generated 3.5848508 1.7244375 -0.9714897 2.4752152 0.09612738 -0.99742174 0.64005864 -0.56791526 1.00763 1.0563008 0.475157 -0.50338924 -0.13628365 -0.32389054 -0.7075097 0.2557716 0.052298415 -0.18644978 0.1904122 -0.07198342 0.24868019 -0.26411897 0.49704 -0.03993725 0.44873416 -1.7737459 1.0204799 0.68631136 -0.5500115 -0.5971766 -0.12904282 1.097953
business -0.67569536 2.463914 -1.0685232 -2.3158517 1.0527368 -0.6633588 -1.8618858 1.1155783 -2.7471504 -2.3863242 0.4875209 -0.8252836 -0.30272967 -0.00045270895 -0.8636012 0.3683567 1.3187661 -0.0614161 -0.3640082 -0.14646986 1.476607 0.3498209 0.40453237 -0.2099097 -1.6179582 0.25036013 -0.3777724 -1.0996906 0.7895149 -0.21927114 0.44586697 -0.65052414
would 0.59330046 -3.0911453 1.4304092 -1.4832209 2.2929468 -1.9054333 0.698301 1.2804569 0.7857881 1.4406518 -0.5799829 -1.3897523 2.006035 -3.8846037 1.1621174 -1.0024784 0.951795 -0.078463726 -2.583622 -1.0860485 -1.1562357 0.36686757 -0.36592805 0.5655759 -1.368232 -0.39773837 1.4703406 -0.55298275 0.55967385 -0.79152554 -0.9561271 -0.45040512
instead -4.1858497 -2.7376075 0.14964916 -1.1247704 -0.6459073 0.57055134 0.76565135 0.92079973 0.95002884 1.1947104 -0.17589155 -0.8303948 -1.435303 -1.3095701 -0.43122652 -1.6301792 1.3741575 -1.6774601 -0.5201209 -0.87836057 -0.01670686 0.27623567 0.31280848 0.24605674 1.4074548 -1.226354 0.9009335 -0.16521198 1.3170187 -0.48139557 0.49829468 -0.16912863
share 0.84639627 -0.011286743 0.33541474 0.22636907 -1.3444117 -2.3178384 -3.3226378 -0.5712065 0.8641183 -0.14997146 -0.10863744 1.3486278 0.8458545 -0.5063046 -0.5574414 -0.3724689 0.6789184 2.0703108 0.72871256 2.0131896 2.187858 0.8128889 0.1551161 -1.656376 0.38640028 1.6175109 -1.004844 0.16550393 -0.14411002 0.89345455 0.8399134 0.15507933
integrated 1.0334007 1.5443106 -2.844551 0.4508433 2.1883473 -2.4709287 1.2673492 -0.3483832 0.32345378 -1.2298163 -2.2001543 0.38771808 -1.065147 -0.37659156 -1.0025921 -1.4896833 -1.0121162 1.560118 0.6970721 -0.5160138 0.47762355 -0.2133733 0.44940755 -1.2634983 0.44225454 -0.34648764 -0.8001278 -0.6248031 -0.33533475 0.050581392 -1.3552731 -1.0279487
prime 4.3188624 -1.3895565 0.17468135 2.3018317 -0.601668 0.47181678 -0.40607968 -0.32226038 -0.91432655 -2.3958254 0.4016893 -0.15742347 -0.016254514 0.379263 -0.05953739 1.2214195 -0.7857538 1.0245727 1.1373777 0.011053813 0.041307323 0.09314963 -1.5042992 -0.16841199 -0.5045112 -0.7196711 0.7766419 -0.4964434 -0.38341522 -0.28080675 0.073722064 -1.1041505
interest 3.6282833 0.7924627 -1.3468455 1.0235251 2.0071177 0.17048544 0.3677007 -0.9410979 -0.8864463 0.73596406 -1.5618061 -1.0462141 -0.120615266 0.5118038 0.38350996 -0.19575498 0.2826401 0.7152338 -0.007390093 0.2659396 -0.23064911 0.98710173 0.13406803 0.47342658 -0.43558162 0.073180564 0.18653756 0.7915614 0.30976033 0.46398875 -0.103714466 -0.28044045
concise -10.161438 -2.0302453 0.4069611 1.8253952 1.7834293 -1.578694 3.2836215 -0.49932748 -1.3687022 -1.7681918 -0.22332868 0.8349931 -2.724653 1.7521168 -0.12659854 -1.5560608 -0.27992746 0.102519296 0.5130651 3.8061488 -1.4702812 -1.3614271 -1.9630846 0.27480477 -2.514201 -0.16508909 1.7653348 0.839909 -0.29991907 -0.24784867 -0.4327523 -1.7571505
authority -0.7029988 1.2199795 -2.6095586 -0.9152644 -0.85160327 -0.19260709 -0.6262613 -0.115835376 1.1158837 -0.2558559 -0.08988303 0.8491854 0.38021967 -0.49917153 -0.05686006 -0.04467396 1.4250524 0.33836114 -0.6459914 0.09042331 -0.12920196 -0.58277357 -0.0021074235 -0.08945655 0.06091508 0.79716027 -0.5657309 0.2909102 -0.85907584 -0.28884113 0.38054058 1.0079584
degree 0.15114264 0.627217 -0.020233642 0.7421552 3.0608282 0.4389974 1.5712513 0.1907718 -1.2729683 -2.011442 -2.4751136 -1.5723475 -1.6244156 0.79535395 1.8540813 -1.2353665 0.6170772 -1.1291567 -1.6205417 1.1761541 0.94665664 -0.7984814 -2.9938836 -0.3543593 -0.96926385 0.8186727 -1.6962638 0.25583544 0.48439974 1.586334 -0.18667693 0.4337447
internet -4.52694 3.0014496 2.5768137 -2.1066515 0.046806164 -1.6592132 2.2738545 1.2747289 0.14669004 -1.1743289 -1.1866463 1.2705338 1.227699 -1.3267295 0.5552177 1.5008235 0.25840244 -0.55664915 1.3220379 -1.4230455 2.537625 -0.38557062 3.569744 0.7047146 -1.4344678 3.7522275 -0.9626246 -0.481979 -0.8135474 1.3061826 -1.9038514 0.86960554
familiar 0.37937054 -0.86231303 0.34788543 -2.9198163 0.7779121 -0.9410279 -0.6066335 -0.31275102 1.5524768 -0.47153875 0.53861535 0.09030315 0.65704674 0.49706432 -0.07636104 -0.20582137 -1.5341674 0.14351732 0.6231837 -1.2703496 0.40466782 -0.3799139 -0.20457792 0.76237017 0.3152453 -0.32777637 0.6720535 0.42098325 0.82934076 -0.0166161 0.4420655 -0.82373315
centralized 3.0071106 0.86503375 -2.526944 0.8276513 1.4862757 0.5636281 0.8013993 -1.448492 1.5630947 -0.93273246 -0.09762657 -0.88334686 0.8345392 -0.5061723 -0.4551304 -0.48391852 -0.37714583 -1.3944161 0.5867106 0.37884256 -0.11417046 1.1091771 0.047480073 -0.5084143 0.5319381 -0.2102815 -0.17816715 -0.10262822 -0.27881607 0.3728313 -0.54531175 0.42392784
updated -7.5240803 0.87648743 2.6391714 3.500124 1.393058 3.1319284 -0.071504965 0.12041377 0.86402726 1.5423802 -2.2370348 0.58349174 -0.21567461 -0.5007394 0.6796121 -0.018189223 -1.6263809 1.5392537 0.13834782 -1.7196392 1.3155637 0.5569625 1.5110532 0.33260575 -0.43629488 -1.0767454 0.29377997 -0.25464368 -0.12158788 -0.13845149 0.7027466 1.4078252
march -0.7737323 1.4115782 4.097701 -2.7054057 -1.6262064 1.0213983 1.7541761 -6.0292025 -4.720036 2.5890605 0.09263129 -0.94868714 -0.36157534 0.0003004156 -1.6305689 -0.27086595 -0.38123107 -0.7906347 0.7894648 -0.83637977 1.0694956 0.2983178 0.30457857 0.3822739 0.29262927 -1.9153086 0.8167786 -1.5051588 -0.1606703 -0.32328272 0.40170628 -0.66288596
opinions -0.6296649 2.5215492 -2.5505512 -0.75547504 -1.0586764 0.6085754 -0.55039406 1.1339107 0.31926128 1.3301476 -0.93467903 -0.9113486 -0.13121732 0.24068433 -0.20890503 -0.07034888 -0.46370342 0.02457389 0.6155565 0.13568166 0.31483454 -0.117471 -0.06426261 -1.0500978 -1.1023004 1.0778167 0.4991009 0.29615694 0.9826293 -0.59157807 0.17673203 -0.5598105
around 3.1338432 -0.16672334 0.3534426 -0.94537616 3.4320214 1.1867105 0.8558364 -2.0287156 0.5578962 0.52149534 -0.010834894 -0.47760275 -0.7539882 0.052303582 -0.40722582 0.66440773 -0.033411644 0.15141907 -0.47314024 0.3881031 -0.24468641 0.7816974 -0.37548846 -0.8187455 0.61735094 -0.5080125 0.7187221 -0.44678903 0.14144367 0.23943385 -0.23740144 -0.11582647
host -2.7282088 4.3710155 7.77058 3.1179166 1.5524899 0.3665151 -0.7179617 0.6086533 1.7556156 -0.27902523 -0.73021305 -0.092666365 0.94113094 0.1047064 -0.58065325 0.15849929 0.706351 1.264513 -0.9153367 0.6784891 -1.2189536 -0.756557 -0.1867753 0.63808435 1.0498356 -2.2981038 -0.96933174 -0.4036426 0.23327513 0.13452262 -1.3060311 -0.47241443
with 2.9531832 -1.9738615 -0.8006654 1.7700499 -0.319446 2.0227184 1.5911056 0.19750509 -0.4684875 -0.010134452 -1.8183968 -0.17173365 -2.0723162 -0.9791264 0.052324764 0.8534428 -0.1997753 0.9495099 0.8172594 -0.8194277 -0.5804192 0.8157151 -0.94482356 -0.2053993 -0.10044036 -0.96131486 -0.28891855 -0.37131718 -0.073232524 0.34915102 0.29226905 0.2604137
change -0.65702474 1.7266581 2.275539 -1.2798638 -1.5792373 0.20625103 -2.8518322 0.15659893 0.16932704 -0.03523005 -2.1089115 0.84049296 -0.7567233 0.64177465 0.7983139 0.09793992 0.06378306 1.3255345 -0.8847461 -1.0733126 -0.98583233 0.077098355 0.83332515 -0.89885545 -1.3355396 0.7104818 1.3665018 0.6462467 0.9125095 0.52326167 -0.34739947 0.5808987
benefit -0.3667231 0.9998412 -1.331818 0.052551385 -1.3561121 -0.4402797 -0.78502977 -0.16621776 1.3185698 1.4322492 1.1679176 0.8370006 0.521657 -0.6132864 1.1223981 -0.09845487 1.9731647 1.2354842 -1.4843031 1.1026263 0.9630101 -1.306293 -0.09141623 -1.225322 -0.05720816 -0.37971866 -0.43386516 1.6634191 0.91711915 0.8983571 0.26468045 -1.619255
plants -2.564618 4.7274537 1.3793437 -3.1813796 -0.9015027 -0.94853866 1.0640593 2.1185439 -1.3052491 0.7262811 0.59626883 1.1675786 0.49947107 1.1616195 0.5073327 2.4024467 -0.38409138 -0.1553058 0.4556255 -1.1680983 -1.2680736 -0.73294145 -1.4063023 -0.28474396 0.17317265 -0.079940364 1.8200042 0.006525697 0.97036844 0.41443804 -2.196109 1.3064177
way 0.5737244 -3.1600175 1.533282 -3.334381 -1.0410378 0.5158379 -2.79228 0.7966848 0.5868992 -0.2904838 0.2630186 -0.469572 -1.2850331 1.7081804 1.5663052 1.199121 1.6638621 -1.2836308 0.29279992 0.38382924 1.9229857 -1.8490779 0.6917083 0.35527933 2.3869455 1.4883443 1.3152745 0.6606334 0.56567043 0.401725 -0.8551303 -0.76292056
not 1.6996491 -1.9506191 1.8733045 -1.8985085 3.679207 -0.8096457 -0.30487996 0.996554 1.9308186 1.3919078 -0.42921302 0.6080834 -1.2134129 0.16556782 -0.35815883 -1.0409983 0.936276 -0.3669242 0.028361846 0.15819521 -0.2366922 -0.84509623 -0.21174605 -0.7646895 0.17901054 0.067939624 0.50792885 0.6803823 -0.75050306 0.105553426 0.38142553 0.97610164
january -0.3377837 0.862289 2.8972208 -4.276441 -1.1704679 1.1931789 1.546599 -4.9252954 -3.6593158 1.7756176 0.57658124 -0.69675225 0.93745935 -0.7835225 -1.2487502 -1.7648258 -1.5489222 0.015256058 1.8375546 0.78340304 -0.7751871 -0.98678243 0.120333366 -0.6888539 -0.5205874 0.011835692 -1.1318675 -1.5860445 -0.32326105 -1.6159048 0.2813907 1.166053
receives 2.2468717 -0.002685582 -0.011666336 1.8805699 -1.0111737 -0.52592105 0.20279911 0.47954252 0.5363927 0.059732947 1.7474633 -0.070184976 1.2312611 -1.3342428 0.3951119 0.63271683 -1.323964 -0.2578533 -1.17246 0.62152845 0.46708664 -0.12926714 -1.457135 -0.14982888 1.4823151 -0.74459827 -0.18041971 -0.39366782 -0.44869083 -0.020822166 1.5306033 0.8611688
producers -2.4920473 5.4707294 4.2232513 0.8539912 -0.78736013 -1.4078116 0.067346476 2.0857391 1.6966507 1.1781868 0.31794798 -1.8266762 1.0336974 1.9836321 -1.6382095 1.8624368 -0.08145519 -0.2990498 1.9810138 1.6670494 1.7191235 -2.6195424 -1.1026293 -0.030102393 0.43725672 -2.3016768 0.24864794 0.033907715 -0.100966856 -3.672282 2.2418454 -0.41132817
savings 0.05973688 0.7475261 -1.8543268 -1.6113836 -0.0105360905 -0.8852857 -1.4466332 -0.74618876 0.65583426 1.677459 0.075320795 0.49094665 -0.29787233 -0.84058845 1.7279797 0.57556915 0.21836391 0.9232952 0.051242366 -0.5933741 0.5805591 -0.33747184 -0.36031738 -0.41499624 -1.0109482 -0.17772177 -0.068451844 0.34822446 -0.9755421 0.6230908 0.22673696 -0.4377965
creation 1.0180014 0.7123428 -1.1051619 -1.005329 0.037002545 -2.28811 -1.2244117 0.2509104 -0.6831069 0.4445635 -0.94315976 0.38247144 -0.14911519 1.722358 -1.2613549 -1.5984149 0.4718818 0.8945877 -0.75308293 1.754945 -0.18169154 -0.039814446 1.5094517 -0.62203616 -0.58409804 -0.15289663 1.1521945 0.2114903 0.26091498 0.8414407 0.38123268 1.639324
get 4.5143895 -2.158125 0.49708185 1.8158156 -0.6324204 -0.04864885 -1.5962487 -0.17073685 -0.37374446 -0.5960106 -0.31364796 0.4568991 -1.6487436 -0.19804049 -0.2878993 0.8684558 0.37601918 -0.29632896 0.5935604 -0.1721322 0.62399113 0.98302245 -1.2425098 -0.15727402 0.9670627 -0.43358818 -0.38613933 -0.42795044 0.26713526 -0.045859087 -0.0442226 0.50825465
those 1.7488366 -2.2363892 0.30327377 -2.7546618 1.0537798 1.6964843 -0.5669524 2.280919 -0.27092406 0.95900536 1.1426927 0.6297425 -1.3365711 0.4205461 -0.7351709 0.7138552 -0.6151188 -1.9351077 0.9355886 0.23280095 -0.35495657 0.3472544 -0.5016348 -0.38867873 -0.7372788 0.44330314 -0.6232873 0.47281092 0.49773446 -0.5777506 -1.5235134 0.7677738
viability -5.582949 -1.8323579 -2.0119836 -1.9994746 -3.6034095 -3.3890886 1.7348964 -0.12058254 0.64584994 -1.3550907 -0.86364555 -0.6163069 -0.6913016 1.9090645 0.34132823 -0.45052207 1.1717067 2.406827 1.1368475 0.89421386 -0.22652972 -1.3460023 -0.66741365 -0.5015012 -1.1490171 0.6435758 -0.42328778 -1.1206009 -0.33577818 1.5123929 -0.97400343 1.3467239
regarding 2.923878 0.27249894 -1.1482652 1.5813857 -0.13150202 2.0431979 1.8791903 0.7272079 -0.6306327 0.05578667 -0.82229936 -0.27473262 -0.33681983 0.13254578 -0.5463506 -0.18970878 1.7147777 0.21238889 -0.2847808 0.18603612 -0.22926697 0.35234526 0.61713016 0.4566972 -0.05202347 0.5386378 -0.49741974 0.15715966 0.58403265 0.08967608 0.5313224 -0.34815186
plans 2.2255454 0.62135875 -2.6361966 0.24283291 0.359985 1.4322078 0.323167 -0.54943883 -0.1675201 0.9634331 -1.0386976 0.67818224 -0.529717 -0.16008638 -0.37319508 0.5077384 0.3013291 -0.4260035 0.3110581 0.22723289 -0.13342102 0.9341416 -0.36154056 -0.053336233 0.0028012278 0.001386759 0.6206783 0.008672922 -0.1321668 -0.27099305 -0.008551974 0.29439557
time 1.8700364 -1.7737564 0.6362757 -2.4561713 1.3427076 0.5798117 -1.9758801 -0.47824198 -0.3881932 0.3061823 -1.5641893 0.3890539 -0.73565024 0.72589135 0.72630066 0.44086763 -0.5928721 1.5749006 -0.6520139 -0.548528 0.21397318 -0.54318464 0.29199883 0.27769786 0.58465016 -0.3387608 0.6913128 0.27380633 -1.488939 -0.364349 -0.40329924 0.41559452
and 1.1215166 -1.6672604 -1.112054 -0.6943555 0.48146644 1.019792 2.1795394 1.9800888 -0.8189652 0.73281795 -0.16690059 -0.38331687 -2.496246 0.122382134 0.098901294 -0.23806284 0.5786437 -0.93088955 -0.7090949 0.96678835 -0.40592813 -0.7375918 0.59208554 -0.6914449 -0.07482896 0.438331 -0.40985426 -0.6649601 1.1201944 0.40855563 -0.13481343 0.8293522
offers 1.2732176 1.0176531 -1.8172939 0.4491338 -1.7323471 0.14856021 0.7025354 0.8521578 -0.043371726 0.80751693 -0.4039942 1.3027616 0.64800954 -1.1094321 -0.010962986 -0.17261806 -1.313768 -0.09381144 -1.3994774 -0.23396584 0.6102587 -0.35157713 -2.2051578 -0.23707888 -0.7785383 1.199906 -0.44726783 -0.42086855 0.7728316 -0.9035569 -0.9908135 -0.4645408
fully 2.2829795 -1.892236 -1.2312844 -1.7601436 1.6971289 0.7023616 -0.12799348 -1.0640256 1.5952294 0.8733049 -0.20554669 -0.06773989 -0.31208995 -0.11108284 -0.4996036 -0.5106585 0.5559199 0.20117302 -0.0386279 -0.22756551 0.1245235 -0.13527817 -0.07684337 0.020135503 0.13104483 -0.6083306 -0.26464808 -0.67069006 -1.2552259 -0.079332136 -0.3788693 -0.17744549
access -0.7241302 2.7310457 0.48771074 1.4948336 -1.1336768 -1.1371741 1.9775641 -1.0416418 1.9013636 0.45645842 -0.97310853 4.766445 -0.4728496 -0.61738366 -0.31357303 -0.5004054 1.7123191 -0.22055712 0.045669522 -1.057722 -0.90692925 -0.4005518 -0.06989611 0.46815103 -0.22364348 1.9408855 -0.81054497 0.3770814 -1.0403465 0.28981736 0.028641265 -0.46285567
points -11.064436 -1.0000817 3.1177013 4.648636 2.3250494 1.6789861 -3.3330975 0.77957916 0.19535978 3.419589 0.21861272 -1.6356852 0.6861455 0.9664791 1.4937496 0.97519684 -0.374759 -0.70389676 -0.21614447 -0.7095873 0.42875648 0.46721897 0.29492578 -2.1346042 1.1905229 -0.8997058 -1.8217161 -1.7028347 -0.6348563 1.1186949 -1.1472844 -0.5058278
investment -2.6468718 1.4608036 -3.0731683 0.51046365 1.3935049 -1.2803365 -0.4773926 -0.5429911 -1.9392525 -1.2063438 -0.3296059 0.30788794 -0.33303016 0.212835 0.8743344 0.12735553 0.88251555 0.04792378 -0.32367244 -0.38597006 1.0430185 1.4690716 -0.045755383 -1.3672417 -0.42614895 -1.1850713 -0.09863436 -0.20724666 0.9817523 -0.019577589 1.3711007 0.9261647
options 0.54678744 1.1427461 -1.9232183 -0.66936576 -1.4922998 -0.9027313 -0.31739685 -0.0021568495 1.0215929 1.8868853 -0.9615864 0.3761825 0.3473059 -0.3329374 -0.7194813 -0.05254997 -1.0934075 0.3517251 -0.0022529445 -1.8843558 0.18825777 -0.32978126 -1.2512028 -1.140256 -0.2358979 2.0092576 -0.38499248 0.6496912 -0.74932283 -0.51948893 -0.63096267 -1.3880794
installations -0.9336526 4.3517494 -1.6637486 -0.89295983 -0.953759 -1.494504 1.0602292 1.2464527 -0.38663554 1.3779026 0.011873279 0.8867564 0.93618673 1.1821353 -0.31099382 -0.19739611 -1.3680446 -1.3601983 -0.19491804 0.65794724 -1.51595 -0.7963501 1.075975 -0.6001532 1.3051758 -0.2601873 -0.41665748 0.030060606 1.0267628 -0.29185528 -0.60533434 -0.1144983
costs -1.2029163 1.93424 -2.5306244 -0.81822443 -2.0533388 -0.8378505 0.28903982 0.6116937 0.18505493 2.0533392 -0.15045607 0.07791781 0.15617755 -0.4828348 0.7306363 0.2795843 -0.32246244 1.6565576 -0.31025186 -0.19320975 0.48117945 -0.27242854 -1.7657973 0.48056528 0.3768612 -0.2547997 -0.098748066 1.6690218 -0.9428054 -0.14702164 -0.34547696 -0.5469044
from 2.477161 -1.4479252 0.20107916 2.072618 -1.0542322 1.8557465 1.6735058 0.3303991 0.28351906 0.112403065 -0.92177474 -1.6004729 -1.5873282 0.04202644 0.019999357 0.6626378 1.0937173 -0.24556953 0.14656658 -0.36376557 -0.50473654 0.96829236 0.19068171 0.08148165 0.21619135 0.3269993 -0.40417954 0.13836323 1.0002455 0.7596863 0.72744334 0.6793555
who 2.8820183 -0.9060661 2.8577414 -0.011334043 5.3357854 -1.5780987 -0.3903394 -0.072732575 0.46659267 0.0049787774 -0.70489204 -1.3601308 2.9176576 -1.2374424 -0.47470936 0.3857408 -0.8660976 1.2643654 -1.6183727 1.9656216 -0.6511914 1.138936 -2.9020534 1.5301132 -0.7024275 1.3490598 0.0010262752 -1.499674 1.386316 0.69533026 0.23320076 -0.077868484
create 2.6779504 0.12164059 2.5592663 1.7641264 -1.6688937 -4.8955545 -2.3945694 -1.4512943 1.380961 -0.42455783 -0.6877903 1.1623734 0.03449818 0.28509346 -2.9184427 -0.026247824 -0.6366932 -0.79180264 0.24493636 2.852593 0.52217776 0.4402983 1.6984209 -0.7762782 -0.25387728 1.2210416 -0.38799608 -0.55437016 1.0396073 1.2926557 -0.69820946 1.3919047
dependable -9.675887 -5.545437 -2.286402 2.6784635 -1.1286343 -1.1876346 -0.88393533 -1.2551478 -0.47773343 0.15922408 0.028537165 -0.27072692 1.2648946 0.7117095 -0.3471654 0.4978164 0.5805474 -0.22719274 0.9624509 -1.1489623 -0.23840174 -1.7436937 -0.3460318 0.5517294 -1.9942653 0.10033643 0.72720903 -1.3960814 -0.8818514 -0.043527994 -0.27621448 -0.67263466
uagc -7.0043464 -0.12742463 2.825814 -0.8370847 -1.5151213 -2.227057 4.790849 -0.60021657 0.79770446 -2.765902 2.2343135 -0.46792078 3.4728746 0.5476959 -3.2667763 1.8629926 4.1247253 -1.7191207 -3.2066922 -2.03136 2.5906835 3.762764 -2.3043733 -2.2594886 3.0252988 -3.1373138 -1.3333722 4.6045322 -0.90243375 2.0019114 -2.9136183 1.8807712
return 2.3616474 -1.4068674 2.4116604 2.5660844 -2.6519272 -1.7708045 -1.6393304 -0.7918175 -1.4010583 -0.36066753 0.55387825 1.132599 -0.8358777 -1.2335321 0.4994775 -0.34336954 -0.47527686 1.0122203 -0.19252132 -2.2573652 -0.47274864 -0.55699086 -0.50978434 -0.70532393 -1.216489 -0.6537661 -1.164531 1.0694332 0.11623288 1.3057164 0.5250667 -1.2532836
charges 0.5495847 1.8078995 -2.432256 -0.10239899 -1.8026477 1.4265013 0.14959465 1.0027951 -0.494377 1.551654 0.317049 -0.5041162 -0.025758995 0.6977494 0.090225026 0.7565069 0.87805086 -0.39999986 -1.2377447 0.3325176 -0.042752963 -0.62175035 -0.024094425 0.29487348 -0.66893315 0.9403277 0.9256514 0.47979134 -0.6160202 0.16895813 1.151976 -2.3871822
exists 1.6360818 -1.5004671 0.36607254 0.86725324 -2.9354634 -1.4883723 0.5729436 2.3904827 -0.007060505 0.34577122 1.1906999 0.92421776 2.7977808 0.5595692 -0.31762177 -0.44237313 -1.0982466 -0.6423355 -0.39924005 1.0680981 0.117740184 -0.5909258 1.1570075 -0.77167386 -0.31106478 0.9463897 -0.19894563 -0.6756118 -1.2584329 1.8687562 0.13709839 1.2587576
you 1.9391642 -2.0877051 1.7830856 -1.054314 0.73938733 0.088216536 -2.0671573 1.659166 0.18005478 -0.43287754 0.27572396 1.4559804 1.2900593 0.5975104 -1.2857223 0.9544627 -0.57256335 -1.1429946 1.7784499 0.30829033 -0.22680412 -0.81754524 -1.2091556 0.14047512 -0.76582897 -0.91145116 -0.7076071 0.069098756 0.38117245 -0.7733719 -0.2231532 0.031970825
come 2.0818331 -2.8245664 3.951727 -1.1122106 0.5148992 -0.64072955 -1.2222642 0.12838688 -1.3763314 0.038615968 0.03392139 2.002573 -2.632286 1.005405 -0.81620824 0.25272804 0.67440665 -0.57427174 0.37009814 -0.9859933 -1.2498301 -0.14622346 -1.1550783 -0.036953244 0.4788793 -1.1890165 -1.0805842 0.90704453 0.5554697 -0.82191825 -0.1928942 -1.2902128
own 1.343711 -2.9075978 -0.45209613 -0.73390234 -0.682685 1.0294824 -0.52628505 0.6794925 0.18418825 1.4628102 0.95494705 1.7270777 -0.33184996 0.29270566 -0.2500227 0.007870695 0.7801937 0.2199419 0.48938268 1.2931743 0.684678 -0.4859516 1.0891953 -0.31223002 0.23260719 -0.5057926 0.75821865 0.095723115 0.14927323 1.4572033 0.57763606 -1.4140501
initiative -3.4803762 -0.5592132 -2.7612808 -0.37074003 0.78682 0.32138383 0.48735663 -1.4180766 0.036405995 -0.7924399 -3.1779423 1.4322788 0.19402021 0.35493723 0.85308516 -0.481424 0.645681 -0.94380295 -1.9455729 -0.8210471 0.38974887 -0.4675589 -0.054395083 -1.5349075 0.1333768 -0.5710509 -0.45914045 -0.42896792 0.7486188 0.60803187 0.06724638 0.688943
that 2.207548 -2.052158 2.395551 -1.1604304 3.1923811 -1.9402767 -0.7771436 1.2360768 1.5778626 0.632504 0.7549369 -2.3884296 -0.97523713 -1.5800158 -0.8744334 0.49675417 -0.85077846 -2.7153144 -0.7279489 1.416548 0.061965074 -0.42143452 1.5020452 -1.2495528 -0.48298284 0.7453371 0.19799918 1.3566272 1.7845732 1.5739772 -1.5757864 1.4128293
state -4.9896803 0.8252787 2.0576777 0.7630857 0.90019655 2.6535053 -1.4629326 0.5103126 -1.686682 -1.8137375 2.2821689 3.2776475 0.098593965 0.1924502 1.69524 -1.5733275 1.7525061 -0.6254965 -0.34741363 1.0040997 -0.9701998 -0.9639321 -2.686419 0.35290754 3.473838 2.0007515 0.412347 1.48739 0.4989186 -0.31303504 -0.6242992 -0.2787694
doors 1.0717679 0.34324154 -0.57697296 -2.6050165 0.03255923 -1.0463492 -1.5970911 0.4879095 0.7735211 1.3970428 0.083843954 0.5571894 1.6432894 1.3819435 0.23319979 0.88232493 -1.4990338 -0.5008781 -0.24682161 -1.0110999 -1.0800265 -0.13034882 -0.34600762 -0.4968059 0.60508907 1.1948533 -0.4353331 -0.43277243 -0.86099756 -0.30680257 0.13869973 -1.2412397
format -5.839022 0.45074108 0.16152583 1.3196574 -0.044894304 1.7357352 -0.3708424 0.06325332 0.059739765 -0.6657105 -1.4134678 0.5514753 -0.75318545 -1.5928361 -0.18037385 -1.6172099 -0.14409427 0.5207046 -0.4429623 -0.0678366 -1.3340443 -0.81483227 1.0564212 1.5144696 0.7847226 -0.043850105 -0.8570326 1.0610144 -0.9095838 -0.019474128 0.048325572 -0.788786
sources -3.3767142 5.834159 7.1821027 -0.16932537 -3.323531 1.1882601 -0.5071338 3.318434 3.1954093 4.086781 -1.2147897 -2.340248 -0.0103942305 2.5136433 -1.9829282 1.8190861 0.62275535 2.6137753 1.2244416 2.2279375 -1.5631262 0.32512987 -0.22055583 -0.5324851 -0.79646605 -0.8812581 0.6563583 0.4202975 0.2371949 -1.0073372 -0.350857 -0.12484423
expedite -9.255042 -3.8541415 0.29469582 0.69027483 -2.085264 -2.6490865 1.8875937 0.75651896 -0.31960994 -2.7629364 0.43800962 0.6127937 -3.3112905 3.2412834 -2.0843105 0.9276109 -0.7783081 1.2022171 -2.318298 2.0292542 0.0282095 0.34334272 0.07460267 2.26472 -1.5302186 -1.798537 0.9096876 -1.8458565 -2.7175744 -0.86921066 -2.046223 -0.54563725
incentives 1.2937354 1.9203863 -2.9476357 0.3044872 -0.9356842 0.095439985 -1.2459973 0.69441926 -0.13557118 0.5332223 0.43853316 -1.9797814 0.40154538 0.44494674 -0.6513273 0.120241195 0.31174532 0.6386194 0.24892038 -0.89914167 0.45784542 -0.03178507 -0.6579898 -0.3234272 0.21578482 -0.07457087 -0.073756784 0.19309807 0.39426816 -0.32014656 -0.5593205 -0.44437718
used 0.92748636 0.3087602 0.52013206 1.2716819 -1.9296209 1.197112 0.59764063 -0.13839279 0.5591313 0.36100405 -0.7570633 0.59106874 -0.9267078 -1.7304254 -0.52616215 1.1910502 0.03482319 1.1104335 -0.055713728 -2.1211493 0.41219628 0.19568096 0.84616363 1.3817447 0.16951914 -0.48591658 1.1246631 0.73782426 0.15231284 -0.05537599 0.6978217 -0.18075764
active 2.1646035 1.5954036 -0.05472987 0.4455814 -0.08359747 1.2860991 0.30978686 -1.8608974 1.7429824 -2.2709305 0.66684663 0.15400264 1.2106934 0.16898851 -0.39473322 0.27748922 -0.9564794 0.033830218 -0.5157467 -0.9464659 0.28693008 -0.21787812 -0.33956853 -0.04691554 -2.0070522 -0.72044075 -0.16067426 -0.91173667 0.12143056 -0.12913086 0.12913717 -0.12738566
two 1.3673433 -0.49196768 2.3142967 -2.1602807 -0.0657639 -0.29134724 -1.1580554 -1.0198704 1.4354367 -0.8212255 1.9929445 -2.622512 -1.7778221 1.3902225 -0.8446138 0.87148476 -1.9110378 -2.4777594 -0.81186 -1.0538572 -0.68768066 -0.8817692 1.3828212 -1.4207141 -1.0538665 0.6705237 -0.63980806 0.4296282 0.22899424 -1.1001172 -0.8033064 -0.8886991
sealing 3.344266 0.14781646 -0.8236439 0.1314122 1.3622738 -0.84237474 -0.6986246 -1.5196822 0.70425415 0.9246146 1.3201989 -0.9127492 0.44318137 1.3205647 0.76896536 0.15378182 -0.119387545 -0.61107105 0.15939279 0.49797827 -0.555818 0.08659669 0.7970507 0.6686978 0.1575991 0.34246707 -0.70505786 0.20232195 -0.28393883 -0.3348331 0.4025018 0.16284369
executive -0.77659667 3.5463796 -0.7063687 0.21431324 1.5502297 0.55419177 0.5722389 -0.4614381 1.0743502 -2.4331508 1.1584793 0.10465832 0.78758156 0.15247446 -0.04826984 0.0053554443 -0.039581276 -0.8422408 -2.180825 1.0563245 2.1784387 -0.44476226 -0.78759426 -0.008841686 -1.2741603 -0.78252286 -0.7689871 -0.62019026 0.52790505 -1.4523504 1.0434659 -0.51810586
world 0.8831402 0.5992501 1.8223708 -2.742564 0.14389032 1.3539732 -2.0705857 1.0882971 -0.5304055 -2.0962715 -1.5207913 1.1434354 0.3280994 1.8788741 -0.44487807 0.13452257 0.76306146 0.57258606 0.3745343 0.2741613 0.72033364 0.16570246 0.7587727 -0.17659654 -0.27481917 0.5270195 1.2959887 0.49080333 -0.34373617 -0.27538127 -0.4301346 0.9977576
april 0.33670816 0.95007 3.0196457 -2.4604557 -0.5676934 1.1433326 2.145911 -5.328287 -5.116129 2.2811348 -0.637831 -0.5210486 0.6992407 -0.8186569 -1.1356918 -0.48509824 -0.33122405 0.38622406 0.61927843 -0.32195836 1.4243948 1.3665308 -0.25319722 -0.6153945 -0.0035057305 -0.70577997 -0.7085369 -1.1554283 -1.0225592 -1.1901336 0.20138565 0.51320314
clients -0.38241407 1.59552 -1.5073863 -2.1308947 -0.92344064 0.33431944 -0.7036165 0.34559798 0.8633466 0.8893194 -0.19527853 1.201352 0.5145626 -0.025929602 -1.0849179 0.6321507 -0.7633454 -0.3157881 -0.21954025 0.4020274 0.3514154 -0.52098143 -1.8195671 0.15000047 -0.34295544 -1.0405178 -0.9126585 -0.34597918 -0.011165519 -0.03707177 1.0911553 -0.47201258
flat 3.4026551 -1.1773504 -0.42634633 1.4533675 1.1025091 0.77986765 0.6612145 -0.87593555 0.683896 -0.49049598 1.5713869 -2.3376915 -0.44519493 0.45979512 1.5858595 0.996946 -1.1901691 -1.5648801 1.0902442 -0.8356293 0.1657554 -0.8819301 0.4491159 -0.4492599 0.05899769 -0.13911675 1.1278728 1.2493165 -0.6844053 0.3595876 -1.0384983 -1.4229698
rt 2.6904192 0.039860893 1.1369386 1.2534239 0.8668756 1.077482 3.2866406 -0.16847576 -0.051715538 -2.1761 0.31682605 -0.025588056 2.5630639 2.6227598 0.21787137 0.94199914 0.2371755 0.8508654 1.2774076 0.10708922 0.72085905 1.2484682 -1.2666721 1.6748395 0.073303595 -0.34040162 1.250021 0.7833051 -0.9092675 -0.004356634 1.597871 1.0736319
specific 2.7608082 0.34412876 -2.1657846 1.4914995 0.7755841 1.9804997 0.49389908 -0.36140332 0.16527233 -0.99643373 -0.34095502 -0.061629638 -0.52115303 -0.2285511 -1.1518896 0.28090292 0.37575173 0.65978134 0.46114358 -0.26091865 -0.35022825 -0.16773249 -0.6253676 0.48717168 -0.08244915 0.049692284 -0.44933426 0.12364512 -0.10896862 -0.5676871 -0.7665914 -0.10210726
good -1.7655067 -1.7215673 1.9619992 -3.2771535 0.47406635 -0.46192002 -0.52523816 0.27982637 1.2872363 -0.31132314 2.3079154 -1.5125654 -1.0202919 -0.70930684 0.7790365 0.013883749 0.011343426 -1.258306 2.929406 -1.7573057 3.7031112 -0.7581178 0.7017605 0.9185691 -0.7436807 0.30133843 0.18279597 -0.64261776 0.5411388 0.5570101 0.8793795 -0.19969644
recommendation 0.89025325 1.1290272 -2.110857 0.2828451 -0.5975356 0.9556265 0.10600835 -1.3991214 1.4906937 0.19647247 -0.88498944 -0.4819572 -0.5094034 0.20596714 0.98025227 -0.8363895 0.8287623 -2.3778872 -0.6350994 0.51433367 0.3941721 -0.6978418 -0.6412499 0.18350688 -1.1649365 0.16165595 -1.0372066 0.79598254 0.5744108 0.1885572 -0.17800814 0.47773528
step -0.083758995 -1.7725996 0.5254013 -3.1243973 -2.1651912 0.50732964 -0.49326617 -1.9838492 -0.25303075 -1.5371855 -1.1874212 0.14137378 -0.49492007 1.6316341 1.8773769 0.1999288 -1.9181051 -2.0386999 -1.597507 0.34655035 0.18163909 0.5007132 0.17549786 0.47922376 0.92269224 -0.18504825 -0.92648745 1.5170329 -0.40936166 -0.72752327 0.02790011 -1.0976602
find 2.1635473 -1.826908 3.1776145 0.9852789 -1.5713211 -2.7981513 -1.7168949 -0.47442007 -0.1414755 -0.7924869 -1.0493397 0.99714345 -2.0318577 0.15334105 -0.2192092 0.2653635 -0.7554081 -2.667193 -0.4807122 -0.27971533 0.9531115 1.5521808 -0.033535045 0.97268087 -0.015071384 1.200051 1.8556283 0.021056117 0.41162318 0.5694987 -0.43499774 -0.7964483
illustrates 4.243191 -0.022650098 -0.58725977 2.5109 -0.3884097 0.47387868 0.9891105 -0.43708062 0.042245056 0.92955 -0.22433159 -1.4463984 0.37539208 0.45683804 -0.54663664 -0.27763116 -2.4385128 -0.6706905 0.30008686 -0.10294877 -0.89267546 0.2161531 0.71020293 1.0079942 1.003157 0.039621614 -0.545005 0.13495257 -0.3147023 -0.39355266 -0.5396154 -0.44272283
action 0.4293157 0.5851198 -0.8314338 -0.60827905 -1.4890085 0.7568921 -2.457835 -0.3396457 -0.1672875 -1.3600498 -1.2951556 0.8793902 0.2841266 1.0373781 -0.30169222 0.030589327 1.9994495 -0.6732039 -1.1782116 -0.4406645 1.094293 -1.2401392 1.0197661 -1.185466 -0.627844 -0.037782647 -0.22391915 -0.05548935 0.4824184 -0.1922239 0.38614294 0.04154123
utility 2.7199824 -0.20810053 -0.82009566 2.6130772 -2.4852543 -2.430814 -0.8483304 1.1907645 -2.244555 -0.33367288 0.21272774 -2.3502886 0.9162651 -1.0024397 -0.05805381 -1.0012661 0.118201114 1.4688778 1.2162238 -1.1476485 -1.3528179 -1.9484247 -0.55061734 -1.5163032 -0.17168611 -0.177327 -1.0691004 1.3668767 -0.8461582 1.2474831 0.7775984 0.15989536
well 1.0828527 -2.8697658 2.3218224 -2.7633746 1.046559 -0.4288929 0.49845544 1.0864494 0.52489316 0.31387538 -0.54544884 -0.8941975 -0.008397683 -0.22280787 0.1436633 2.1888795 0.05206448 -1.9481127 1.6870455 -0.5540753 0.9488305 -0.24271725 0.62768734 2.3821032 -0.20323429 -0.504948 -2.1114893 -0.08727451 0.3437051 -0.23917738 1.0587573 0.26738274
have 2.8097608 -4.3541045 0.57535505 0.5516952 -0.9576632 -0.054930154 0.4805164 1.6906334 -1.7175565 0.58461225 -0.08146532 1.5660925 -1.8261614 -0.7449102 0.4395753 -0.11657882 0.77187014 0.44079202 -0.8107605 -0.671455 0.22124319 0.25118923 -0.7444755 -0.6240977 0.3883903 -0.28264755 -0.39297614 -0.8159927 -0.08580763 -0.7029833 -0.06504122 0.46165568
must 2.1789613 -4.3764343 2.5371819 -1.441511 -0.57555956 -1.3561643 -0.79000074 1.7285013 -1.2428286 0.79835886 -0.23272036 1.0311391 2.0434592 -1.6128633 0.17635857 -0.32717946 0.24089551 -0.7088677 -0.14430279 -0.17875253 -0.524266 0.1413761 0.00047946756 0.92393357 -0.024824081 -0.8006961 0.47434404 -0.39283824 -1.0724163 -0.56853443 0.41090897 -0.44005626
difficult 2.3099937 -0.5971187 -1.6600047 0.3985929 -1.2522544 1.4056978 0.294377 -0.24408588 0.05526937 -0.48285902 0.2552591 -0.23102155 0.11681953 0.69104105 0.7130425 -0.77183944 0.4001862 -1.1686224 0.9876393 -1.0490648 0.81399006 0.3728242 -0.71185255 0.09019913 0.27749425 -0.21278474 0.95434153 -0.4358367 0.0768595 -0.55423135 -0.18734916 -0.7345696
unaware 3.823609 -1.1394626 -1.8204674 1.2745006 0.04154908 1.3779 0.8268204 -0.0747555 -0.46072015 0.54394674 -0.013727661 0.096879356 0.5957218 0.88930756 -0.19954222 0.009541442 0.7680572 0.60292566 1.0511798 0.58964515 -0.31844407 0.25921345 0.31046677 0.8595553 -0.36399987 0.22956406 -0.18760662 0.10664779 0.11504359 -0.23051156 -0.7496008 0.0030580757
standing 1.5567641 0.3184478 -0.634059 -1.7227322 0.98733974 0.6248816 -0.11828583 -1.3485914 1.3450884 -0.43965346 0.17457296 0.8558439 0.4065962 0.2344249 0.7224951 -1.0769092 -0.55440426 0.07090382 -0.38199237 0.39834383 -0.28930473 0.2724172 -0.2695759 0.27032772 -0.60786337 0.06770135 -0.88117164 -0.44711676 -0.69931716 -0.39190736 0.16532287 0.18620859
be 1.7320406 -4.818018 2.160906 -0.20233645 -2.2395005 -2.0244567 -0.7979946 1.702875 -2.1134923 -1.3891543 1.0244671 2.850523 -0.09723871 -0.11696472 0.44204697 -0.28207752 0.32863945 0.6907226 0.42386204 0.33213952 -0.34337896 0.17964226 0.8035119 -0.6305973 -0.45140737 -0.77803403 -0.9013995 -0.4384607 0.65771455 -1.0625379 0.3980399 -0.3860171
supplier -2.875873 5.50347 6.4706597 3.7504377 0.59203297 -0.2578345 -1.3414692 0.90960515 3.3285167 1.7303503 -0.037894636 -2.0014973 -0.63581437 -0.7775935 -0.59860665 -0.29284692 0.6785831 0.87078667 0.33155462 0.64899147 -1.7390878 -0.96219677 0.0054946677 1.447842 1.4684263 -1.9823242 -1.3354483 -0.93766075 0.12731317 1.1964316 -1.2691264 -0.59742975
consists -1.5862931 -0.3568225 -1.0224302 1.5649025 -0.3403361 0.7628339 0.21954243 0.34881073 0.22596048 -0.6686607 0.16548236 -0.005507559 -0.43520734 -2.8515432 -0.42204857 1.2178417 -1.8840581 0.30052516 -2.4896655 1.8260629 1.0535567 -0.61551166 1.4667983 0.30174336 0.14969823 -0.11863007 -0.23176494 -0.1480003 -0.4538078 -0.5040866 1.7821442 -0.07247918
contracts 0.21879123 3.0091133 -2.9946463 -0.59209126 -1.4777123 0.5083994 -0.20098557 1.4626147 -0.67128164 1.5688689 0.8549189 0.13665944 0.741753 0.4743433 -0.90306413 0.25688347 -0.1479104 -0.5102266 -0.30940986 -0.051800247 0.24201113 -0.37422383 -1.1623218 -0.45381007 -0.31186163 0.8989342 -0.49989936 0.15163703 0.25902826 -0.6301386 0.35985312 -0.80110586
finance -2.652155 5.263367 -0.36601004 -1.6954322 0.02778988 -1.5185947 -0.97775567 1.3126414 -3.2770188 -1.1535826 1.743846 -1.3665248 -1.017938 0.031765718 0.02935139 -0.80724615 1.5123148 0.060235344 -0.0006443464 0.5787812 0.4638221 1.5269724 0.1322081 0.08420464 -1.7992067 -0.6106183 -0.28269303 -0.117567725 0.30598688 -0.10399794 1.3084065 -0.62976617
traditional -2.3585181 1.3164117 -0.509372 -0.8694373 -0.74631906 0.9600354 0.6606127 -0.32898188 1.3326355 -1.340241 0.94940984 2.4393444 0.10924663 0.19604644 -0.5348116 -1.7272131 -0.37950543 0.29707313 1.8726615 -2.3524013 -0.3489618 0.74693143 0.37054032 0.74003553 1.1513009 0.22749536 0.9150047 -0.13634415 1.9425284 -0.8239187 0.39018795 -0.37597418
giving 2.9473748 -2.6051152 -0.08318318 -0.5460622 0.2950475 -0.69793046 -1.4855113 0.047036126 0.40097743 1.5784303 0.6228645 0.2292003 -0.96057427 1.0780506 0.38651878 0.14229298 0.6871509 0.99864066 -0.119274214 -0.07477551 -0.15787406 -0.82225126 -0.9465185 0.97676885 0.5618399 0.052783087 0.23886038 -0.15772432 0.37619242 -0.1958054 -0.7916635 0.8195786
impact 3.0865643 2.0344377 0.27478585 -0.13886549 0.9919937 -0.81864893 -0.8532982 -1.5984517 0.7728315 -1.3840874 -2.890158 -0.65217257 1.8003238 0.64779603 -0.79225594 0.9585659 1.0033468 0.10213586 0.93474805 0.4331063 0.40428087 0.39618987 1.62328 -1.332335 -0.86154795 -0.93062395 0.19345605 -0.12381961 -0.5016014 -0.92474693 -0.21437305 -1.1400512
unlimited 1.9242314 -0.10672099 -1.6023713 0.047685616 -0.20105755 0.14265814 1.2307936 -1.4151057 1.4983774 -0.29998758 -0.49299082 1.0138409 0.27167088 -0.3786997 0.32395804 -0.8902947 -0.44993213 0.34928522 -0.22987296 -0.70021456 0.5855517 -0.058482666 0.286766 -1.7308195 0.17971076 0.4566502 1.1146652 -0.8597974 -1.4551548 0.41362402 -0.27955973 -0.018258508
no 1.8849812 -1.3872963 3.5917425 -1.5263551 2.137931 -1.8766416 0.18675968 0.35544294 1.6272217 -0.6373108 0.7974411 -0.086547576 2.4713793 0.24131602 -0.06187698 -0.027255164 -0.595672 -2.6744266 1.30003 -0.7801596 -0.5249359 -1.2588344 -0.146054 0.6863533 -1.085625 1.3962286 0.018527439 3.0658221 -1.5163993 -0.7654866 0.15844858 1.4903066
generate 2.984552 1.3888152 0.3947163 3.3615735 -1.4807802 -3.4150908 -1.7243166 -0.9569846 0.8259653 -0.025246002 0.70991397 -0.46728092 -0.55382884 -0.7946204 -1.3540652 0.38930637 -0.6960892 -0.5859761 0.3400371 1.4493074 -0.17250775 0.5770319 0.49952847 -0.73925996 0.5573104 -1.4595714 1.0318016 0.037653036 0.27587414 0.27325657 0.22746308 0.8034519
year -6.667694 -1.5265982 3.490608 -0.26599503 0.17820133 2.998721 -1.5156102 -0.59393024 -2.4913735 -1.8633937 -1.0736086 -0.2101071 0.5478585 -0.61438155 1.2551324 -2.0954459 -1.2913346 1.7388755 -1.8970143 0.56747186 2.0351505 -3.211709 -0.22921363 2.2390778 2.2595196 2.151049 -0.5046646 0.13603638 3.1021163 -0.4682564 -1.7926075 -0.2309913
current -0.22833785 3.043331 4.7529335 -0.3225532 0.5084282 2.4389083 0.91781896 -0.7181689 0.76996267 -2.208936 1.3075001 0.61814684 1.0388618 1.074625 -0.8563683 -2.2912614 -2.7788258 1.6712624 -0.17840913 -1.9957552 0.5788544 -0.97167593 -0.15457207 2.6594427 -3.020843 -0.23398025 -0.87955475 0.4655973 0.45687586 1.026032 1.0234383 2.3983626
option 2.3425255 0.096848294 -1.1427441 1.7038337 -0.20639718 -0.3068415 -0.48033655 -1.4995468 1.3286602 -0.25168213 -0.39291644 -0.86387336 0.5048041 -0.83227783 -0.74747235 0.694498 -0.37241575 0.36481604 -1.6072406 -2.1312914 0.08551887 -1.5443295 -0.2582824 -1.1482028 -0.5017116 1.9039685 -0.7937436 1.0128356 -0.021078391 0.16160177 -0.89508384 -0.7144853
grid -7.383818 2.711798 4.525095 1.6804132 -1.18169 1.0567328 -2.5181823 0.79355276 1.9472556 0.3183461 -1.0865136 -1.4947251 -0.7251174 -0.9635732 2.756947 -1.5755376 0.5913737 0.25133622 2.942314 1.8721516 -2.1025002 1.8490454 -0.7156608 1.1023216 1.2609417 0.7567525 0.40717572 -1.4858286 -0.3352039 1.4010893 -2.138927 0.913916
contractual 1.9150803 1.3940431 -2.7228453 0.9969387 0.094984576 -0.06835327 0.8420536 -0.05861396 0.7663708 -0.27692634 1.1054066 0.05684996 1.8355048 0.68057275 -0.2589189 -1.1972427 0.8686755 1.3306912 0.51913655 -0.28703794 0.23205033 -1.049903 -0.19564122 -0.13582186 0.105352335 1.099394 -0.26202768 0.49673888 0.037078775 -0.16020218 0.99001515 -0.61614823
only -0.5328078 -1.3354143 1.3973773 -2.852006 -0.008156617 0.36769244 0.50312173 1.3894739 2.142866 1.4466566 0.43021962 -0.05995709 -1.8957523 -0.45749104 -0.7875617 -2.2750273 0.73099726 0.14737283 -0.23975118 -1.3065181 -1.0102333 -0.15815704 0.21170989 -0.6713057 -1.2549516 -0.42004386 0.92929876 -0.8767602 -0.9635251 -0.58460975 0.1645087 0.47278
cheapest -6.8807297 -1.9197713 -0.5689947 -2.37429 -0.93060315 -2.1905253 1.0217333 -1.7238663 2.869612 0.110556625 0.84362245 -2.260149 -0.8288276 -0.7315126 0.7675272 1.3066156 0.59588075 0.42198417 1.6494895 -1.3370048 2.1008809 0.8698858 -1.1436949 1.2997369 0.8504925 1.8444861 0.2580043 0.44729623 -0.5613738 -0.24484661 0.5371767 -0.43961513
leaders -1.9119889 2.632806 1.2999449 -0.19269446 -1.0485244 2.6839633 -2.1818073 1.3034158 1.7886682 0.12904789 -0.1652659 -0.95575005 -0.62545866 0.48169377 -0.63216126 -0.74382913 -1.7120583 0.7470084 -0.65630573 0.7856625 -0.19678153 0.6127413 -1.2299083 -0.43192238 -0.6318432 -0.89944595 0.27268076 -0.93911606 0.30498162 -0.484712 0.38321996 0.57021385
provided 0.481263 -0.3265458 2.1515124 2.1585977 -3.8182836 -1.9373956 2.6333218 2.2049549 1.0330426 3.4806013 2.63843 -1.3186804 -1.8985221 -2.570702 0.79396415 -2.8559818 1.9449387 -0.29721665 -0.4223543 -1.9766988 0.43438601 -0.51548386 -0.06532809 -0.65677726 0.5642939 -0.31980002 -0.455867 -0.8091549 -0.45063505 -0.4378321 -0.7094467 0.3980213
full -0.4237271 -0.916057 -0.36383814 -2.2408526 -0.49735153 1.1388574 -0.4509631 -1.1843433 1.2101938 -0.36056653 0.4479839 -0.44765836 -0.536668 -1.6233083 1.2406081 0.08749872 -0.81972 0.8202001 0.6211434 0.7690727 0.49326944 -1.0871986 0.32108 0.20677224 -0.26468772 -0.68290704 1.17578 -0.21333946 -1.2106075 -0.4142929 -0.25506905 -2.1516714
goal -1.4043118 3.4652739 6.0727735 1.1833284 -1.8194618 0.16340275 -2.4150693 -0.42701367 -0.37564683 -0.09024243 -1.1808003 -3.1202047 0.30382434 1.2704455 3.8434489 3.035488 2.0859654 0.9625795 -0.3746662 -1.9882141 -2.2952342 -0.062344182 0.020147715 -3.890029 -2.6560047 -1.525639 -1.7227007 -0.87121004 -0.48892933 1.6022552 0.27637887 0.097536325
which 2.581121 -1.1413616 -0.30363423 0.7160402 0.9972094 0.6072226 1.7141526 1.6660612 -1.1578448 0.6768616 -0.2084201 -0.7653485 -0.58873785 -0.5213216 0.46672136 -0.06104822 -0.09610146 -0.58073384 -0.7866298 -0.060062602 -0.8492233 -0.009937583 -0.43755773 0.87127835 0.09252482 1.2670741 0.6694686 -0.38764274 0.6631041 -0.26806745 1.5383006 0.6264445
through 1.5203854 -2.0509286 -0.6528266 -1.3441631 0.81613004 1.3411629 0.851675 1.0881249 -0.12520757 1.148248 1.1144001 0.21948211 -0.91237026 1.9989123 0.66663396 -0.5772154 -0.16107434 0.8512852 -1.5107329 0.47568712 0.16449578 0.36054787 1.1668366 -1.0486954 0.771659 0.7823669 -0.150746 -1.9158977 -0.97585076 2.0737724 0.9214274 1.0044403
weatherizing -5.0465536 -0.012645997 -0.13192295 -5.0198655 -3.8779645 -1.0649443 1.2577758 -0.40290082 0.9217359 -0.9581698 0.56411487 -0.73786956 0.62179595 -0.87858737 0.88907766 0.39176264 1.4082347 0.7908002 1.2524804 -0.10300869 -1.4921001 1.0978999 0.861192 1.4563824 0.30643773 1.4312899 0.30644956 -0.22827572 1.3268781 -0.7446654 -0.64960927 0.37422344
overcome 4.400239 -0.6768659 -1.1450968 2.3860826 -0.14958093 0.013250982 0.13936538 -0.06906932 0.00070659927 -0.9439461 0.024739673 0.3005545 1.090311 1.1488571 -0.3700321 -0.77288187 0.37794474 -0.12580995 0.7185757 0.17839164 0.68089426 0.35416168 -0.32826605 0.10746804 0.87864304 -0.43422884 0.9505435 -0.78961277 0.23641187 0.021955356 0.5195038 -0.59979206
seeks 5.3648105 -1.4753994 0.07275075 2.3938568 -0.4461101 -0.22431897 1.62024 -0.078643106 -1.7562041 0.5120803 0.04368749 0.14316037 1.3440462 1.1890578 1.2128127 0.24121518 -0.7845316 -0.4646752 -0.19188474 -0.046697807 0.25074157 1.0747721 -0.07350625 0.88879323 0.17359202 -0.07734111 0.8411832 0.90282655 0.49927065 -0.058778267 0.12000591 -0.48449346
this 2.8075097 -0.41740608 1.5735657 -1.0882676 1.732173 0.7857073 -1.0623653 0.4196047 0.32876033 -0.97404546 -0.3536242 -0.050458528 -0.48553705 0.82948494 -1.6938351 -1.5038097 -0.061429385 1.0452071 0.8844057 -0.44451335 -0.6506352 0.4933265 -0.45283931 0.19285688 -0.64699185 0.67066675 0.51481545 0.7161484 -0.8383131 -0.3030856 0.80993795 -0.002418415
highlight 0.49323916 1.4224335 0.28290665 0.6555134 -0.35703105 2.1144378 -1.6225598 -0.2505156 1.7514632 -0.5466317 -1.2295386 -0.0025748713 0.48098344 -0.37290102 0.13379219 -0.6486079 0.474285 -0.23767307 -0.13917483 0.42392474 0.20646922 0.08649809 0.061049525 -0.3496249 -0.058755282 -0.34585768 0.43439373 -0.7961182 0.8789454 -0.8236048 0.85493356 -0.3452951
fees -6.3443346 0.54637444 -1.954857 0.47242743 -1.2638764 0.07456356 -0.48222136 0.57154137 0.76479816 2.5142798 0.483336 0.6067738 0.51698285 -0.3491656 1.1185132 -0.21520467 -0.42223692 -0.09946092 -0.8235245 -0.38114017 0.25761008 0.0013456881 -0.012804108 0.4830933 0.20572929 0.5866882 -0.93093926 1.6411991 -1.3875252 0.21490781 0.51208216 -0.73518646
section -0.8471002 1.5138358 -2.0258489 -0.35495505 -0.8847646 1.6411949 0.117601246 -0.1655338 -0.06406009 -0.77878815 -1.3468808 -0.88027483 -1.0345916 -0.47194076 -0.6098441 -0.058434412 0.48789492 -1.0272865 -1.4136977 1.071392 -0.05197357 0.0029791864 1.0272294 0.20535074 -0.46007904 1.2901589 -0.025210049 0.5864981 -0.693909 0.9076719 0.47482803 -0.20799224
sections -0.6414352 2.6945965 -2.2562792 -1.0893904 -1.0469021 1.266216 0.08847223 0.8896106 0.016892537 0.93618226 -1.47269 -0.20379348 -0.17598604 0.20595668 -1.0799181 -0.32434365 -1.0373751 -0.7380957 -0.26013014 0.94006294 -0.019909078 0.6361779 0.18526742 -0.47202232 -0.89346194 1.5934641 0.67207915 -0.0043513384 -0.49259526 -0.17384331 -0.28338698 -1.0373663
meter 2.3662746 -0.47151893 -1.5223697 0.51083356 -0.12074721 1.6272496 0.7894543 -0.63120705 0.5516606 -1.5752149 -1.8273704 -1.4097099 -0.38874003 -0.35453483 2.0479064 0.76998365 0.91647923 -0.49117702 -0.45854893 0.33762524 0.37561178 0.2932426 -0.7987589 0.44117028 0.7433499 -0.87893623 0.060115833 -0.20753711 0.16301885 -0.15235804 -0.13356584 -0.03012204
total -7.8445463 1.0469961 2.0661635 2.4532998 1.3113528 3.151471 -1.9384844 0.7864519 -0.8246784 -1.1715344 0.35102102 1.4750661 -0.16191258 -1.5572248 1.5240408 -0.5513062 0.048523072 0.2501241 1.478712 1.7172965 1.3493068 0.6401653 0.072175875 -1.7971898 0.5709013 -0.23608758 1.470675 0.68476367 -1.3171599 -0.48074073 0.3263848 0.60269207
decreased 4.1083403 -0.84434575 -0.98659605 1.8956693 -0.43275636 0.28505686 1.0078324 -0.99683154 -0.08099106 -0.12073276 0.70242614 -1.6926355 0.8187518 0.69174933 1.497379 0.48556462 -0.9149716 0.10702424 -0.0049605854 -0.1625453 0.5690824 0.43197227 0.52160275 0.1734743 -0.1157908 -0.15961763 0.13007544 0.82056034 -0.3960278 -0.18336995 -0.8040288 0.44079435
coal -1.0057861 3.378682 -1.7618088 -1.1517884 0.7751605 -0.14039308 -0.27446204 -0.046437755 -0.9402494 -0.9811886 2.5835552 0.5613979 -0.20636031 -1.6625408 0.88661015 1.6121247 0.3880935 -0.25303623 0.61687404 -0.4158011 -1.2683078 0.8689894 -0.38977775 0.16776764 0.37083822 0.6834955 0.48055726 -1.0863848 -0.7979434 0.54208934 0.23241574 0.34045517
prior -0.5207105 0.7000962 0.15785307 1.3273572 0.52525234 2.6130075 0.8936779 -0.0145990765 0.8749304 -1.7422683 1.8097785 -0.455511 2.0082664 1.1009055 -1.0151653 -1.1935489 -0.61754 1.0795501 -0.6380034 0.7802318 0.48435992 0.7374279 -1.1346824 0.4747611 0.36673185 -0.17348255 0.31336087 0.52779233 0.90813786 0.17706439 2.0429525 1.7819238
by 2.2890341 -2.140974 2.0576978 1.1234491 -2.5457604 0.6542189 2.2145808 1.806185 -0.0988733 -0.6894436 -0.33338538 -0.1428017 -0.34924555 0.20655894 1.0613829 1.0080532 -0.5692038 -0.1787954 1.0699366 -0.37177145 -0.48151475 0.42672426 0.731275 -1.1456145 0.16752322 -0.48521388 1.057221 -0.5981094 0.36996675 0.18351369 0.9492532 1.25709
buying 3.9473727 -2.208278 -0.81195915 -0.2257666 0.43927875 -0.06799392 -0.93746656 -0.34934944 -0.12835798 0.7056108 0.7057947 -0.82212806 -0.39487347 1.4764142 0.49208552 0.6942941 0.026088096 -0.46873388 0.118634365 0.17865187 0.012071071 0.3137599 0.45452353 0.69620055 0.008019691 0.643432 0.3218556 -0.004572115 0.3851274 0.14302106 -0.7766183 0.6703543
will 1.5716546 -3.5160892 1.0079898 -1.7210593 0.46272224 0.13843997 -1.0830038 0.8311828 -0.51824296 0.8509776 -0.9975047 1.057891 1.1665795 -1.6054119 0.65535235 -0.41603428 0.9726994 0.45308504 -1.5041226 -0.88868177 -0.9846728 0.8282821 -0.32787463 0.1990256 -0.9636741 -0.3278261 1.0848883 -0.39906532 0.2960116 -0.56908023 0.33363166 -0.5574945
are 3.033403 -4.081633 2.6989763 0.88225174 -2.700063 -0.5125034 0.110288285 2.7307081 -2.0855649 -0.95008045 -0.31952706 0.2215081 1.0629662 -2.4388986 0.079034686 0.025416296 -1.3626258 0.49206227 0.44394514 -0.25180468 -0.8667472 1.0346402 -0.4714222 -0.8945675 -0.76154304 0.05850403 0.13737014 -0.95621604 0.043074846 -0.7000332 0.24454524 0.35554036
when 2.6487339 -2.4072454 -0.11822514 -1.1286552 1.6957009 -0.22042368 0.385014 0.6304777 0.52716446 1.5064656 -1.2199244 -0.54466283 -0.82043076 -0.8753668 0.0431535 -0.37441552 0.61755043 0.6078404 0.06505553 -0.26054594 -0.74883693 0.33342466 -0.545295 -0.030869532 0.5417372 -0.76601547 -0.15584157 -0.4224315 0.2836758 0.23289599 0.19605702 0.3787793
maintain 2.3395665 1.0042083 0.49659055 3.6768198 -2.435595 -2.316753 -1.3613755 -1.1398163 0.4129471 0.9534382 2.3590784 1.7051795 -0.07321825 -0.36182234 -0.19045393 -0.59445965 -0.080426484 -0.7075013 0.60905737 1.5665169 1.3976537 0.9967063 0.9065907 1.3423814 -0.6807042 1.5553397 -0.60367435 -0.64931005 0.8837128 1.4892644 -0.514785 0.9946266
representations 0.28001764 2.3274126 -1.9109342 0.72586155 -2.2899928 -2.3064625 0.36939517 2.6364264 -3.0429568 1.0208114 -1.1978316 -2.1329305 0.7586676 -0.16336672 -1.3812369 -2.2364793 -1.9502519 0.038478956 2.542151 -0.1595557 -0.66410816 -0.37173474 -1.4842701 -0.36090815 0.7479473 -0.9602001 0.52557886 2.107147 -1.1280181 0.8215905 0.5625255 0.11664478
customer -2.054752 0.33844537 -0.4400444 -1.7208077 -1.2453277 -1.2307053 -0.72570133 -1.1655862 1.4528579 -0.53128815 -0.060368888 1.3134862 -0.15839541 -1.3951354 -0.060122058 0.6311618 -0.072043456 -0.077124275 -0.85680187 0.7675756 -0.23246887 -1.973256 -1.3277028 1.7070013 -0.22960265 -1.3333863 -2.8023148 -0.36051682 0.3801005 1.3153267 1.0858058 -0.26857227
one 1.9298538 -0.78802216 1.1799079 -1.0749664 1.8342798 1.0187021 -0.8439294 -1.2885962 0.98844796 -0.76078063 2.0564768 -0.7095553 -1.9721762 1.6549954 -0.7466508 -0.5569433 -1.567048 -0.14768839 -0.96774006 -0.5250492 -1.1023177 -0.5721339 0.3607748 -1.4555635 -0.7754137 0.8121582 -0.11570884 0.2359648 0.17056996 -0.06966118 -0.31700054 -0.3405811
local -0.9638213 1.5928999 0.877162 -0.19495754 -0.64975494 1.5433336 -1.6273638 -0.18117185 1.3519198 -2.3120606 0.95875514 1.1276923 -0.107368186 -0.9139662 -0.2568885 -0.4175164 -0.46899304 0.92703164 0.97005254 -1.8679242 0.3603052 0.5442739 -0.6741544 0.088617675 -0.007424379 0.5726517 -0.8749466 -0.19103305 -0.9160059 -0.14530775 0.06527973 -0.7879203
undifferentiated -9.3598795 -3.6277359 1.122045 1.6789125 1.3336817 -0.79057306 2.9517748 -1.3795382 1.2020525 -0.9029241 1.325561 -0.13810052 0.20140819 0.27118242 -1.3556204 2.021468 -0.7187818 -0.029101936 -1.8670454 0.7881121 -0.20090188 -4.0032434 1.9677795 -0.22208145 0.59210837 -1.132911 2.3313155 0.99381506 0.048193347 1.8682941 -0.8129148 0.28676572
various 2.0860577 0.27192202 -2.1774256 0.50350815 0.9804032 1.1435982 1.2381204 -0.1633884 -0.15206923 0.16842914 0.34936225 0.42260608 -0.20159677 -0.5922643 -0.87084097 0.7929787 -0.4710186 0.5810907 -0.0764309 -0.14728901 -0.26644036 -0.06716503 -0.41051114 -0.11900297 0.6932119 -0.059642285 0.9338084 8.229535e-05 0.58018464 -0.83877665 -0.31312066 -0.08241917
electricity -3.2350223 4.745537 0.23779458 -0.6191236 2.9138231 -1.5289685 0.58614504 0.7719217 -1.4870098 -0.86615396 2.805381 0.90756655 -0.58942115 -1.2072879 1.6707124 2.1842062 -0.27371246 0.42630658 0.49366602 -1.2982693 -2.0001287 -0.58708686 1.3310524 0.35250205 0.8837844 0.0029552607 -0.15385981 -1.8332114 -1.3100016 0.36952776 -0.46283877 1.1765141
per -0.8574129 0.07914307 1.38791 2.752736 -0.4243526 3.027011 1.8542991 -0.17547862 0.49150532 -0.9305121 -0.7599743 -0.17817014 -0.76814145 -1.9090487 0.24024032 0.55706185 0.5926334 1.7075161 0.031741083 1.266084 0.18497957 -0.88303745 0.037217233 1.615524 0.9551214 0.9208189 -0.41066378 0.8710331 -1.2978047 -0.51504284 -0.45702654 -1.8847868
above 1.9964976 -1.4472156 0.27739188 -1.3789254 0.94448614 0.3460071 0.5266923 1.1045028 1.0385715 -0.14975034 0.7423796 0.21795677 -0.643822 0.7558837 -0.37439328 -0.6992628 -0.8076375 -0.3538243 -0.99979156 0.1684444 -0.6067877 0.84126794 1.1102911 -1.1127317 0.22763242 0.82209796 -0.763219 0.33702216 -1.822791 0.06460353 -0.09231191 0.37252852
expedited -6.3854027 -2.1155937 0.33153012 -1.1882252 -4.0347657 -2.6944582 2.987791 0.6172869 0.7715559 -3.4403663 0.7593577 -0.37321565 -3.1064157 2.3121328 -1.3660609 0.046428613 0.14023705 1.8630683 -2.7994454 2.5828784 0.45250636 -0.94939625 0.3997053 1.5968677 -2.0195384 -1.3759848 1.4154949 -1.3100454 -3.074584 -1.0347129 -2.7218163 -0.28499338
its 3.3194811 -4.284883 2.183308 0.2586028 0.3954772 -0.2194533 1.8655003 2.0983655 -0.63008815 -0.52738565 0.8714761 0.46720457 3.7413013 -0.49370676 0.4888636 1.1231666 -0.84675 -0.7978268 1.2850237 1.561471 0.4362163 -0.29145226 2.1207514 -0.0251008 -0.6828795 -2.0855205 -1.8038778 2.4288933 -0.14210449 0.7138162 -0.0054423055 -0.6809055
between 3.3943431 -1.0602211 -0.077209204 -1.5028889 3.7810214 0.16254897 0.8982796 -0.6922661 -0.36342597 -0.044664267 0.045016408 -0.8634995 -0.21534409 0.9970003 -0.111887984 -0.6010241 -0.65464795 0.93567526 -0.69893605 0.85253567 -1.1511278 0.169009 -0.2759003 0.004359297 0.7197101 0.7114135 -0.44860214 -0.35150588 -0.8228406 0.47170916 0.25948817 -0.28774062
make 3.6298363 -1.5676835 0.19414897 1.6638491 1.1353735 -1.548474 -0.9331714 -0.9361934 -0.46788967 0.6971118 -0.46545565 0.5040024 -1.5543907 0.08226628 -0.4472863 0.65391606 -0.037334155 0.65670186 -0.20485722 0.64405864 0.065601364 -0.06675215 -0.37865117 0.44377875 0.75622934 0.12053451 0.88084906 -0.36960945 0.5370593 -0.12612234 -0.4781105 -0.11583561
style 1.8286753 -0.5375178 -1.1769755 0.122380026 -0.7571529 0.912281 -1.368831 -0.70942384 0.29387435 -1.1735045 -1.4921649 -0.16108523 -0.5081358 0.59377664 0.09503013 0.44462034 0.09326216 0.696964 0.7874222 0.24922508 -0.032971554 -0.14122622 -0.78114074 1.5697987 1.3980892 0.39508325 -0.05292974 0.012996003 0.5714331 -0.6021886 -0.35407594 -0.09016991
proposal -1.1483734 1.4342489 -2.4814672 -1.2796042 -1.8177269 0.3009335 0.5153222 -0.9407856 0.22253996 0.038892925 -1.0766958 0.93794096 -0.23361267 -0.83005506 0.9696035 -0.57365096 1.0849576 -1.4267024 -1.0287933 -0.020097893 -0.8857648 -0.5452823 -0.2532638 -0.024138194 -0.30780244 0.19676685 -0.37529528 0.5977377 0.34152547 -0.23165923 0.7247566 1.0356947
such 3.0449128 -3.4084325 0.12913941 -0.61453027 2.677706 0.2430938 1.205256 1.8112164 -0.43933144 1.2278941 0.5183845 1.0478619 -1.7332625 0.6002488 -0.45361844 0.118807375 0.69986105 1.0354687 0.6007348 -0.25904965 -0.28472117 -0.42580503 -0.5009601 -0.08052343 0.44229525 -1.0652308 -0.7530629 0.16748385 0.24857998 -0.5201136 -0.26754367 0.116073005
june -2.8851538 0.11575255 2.7284737 -3.3052783 -1.43763 2.2559612 1.2728102 -5.0738816 -4.677518 3.5687966 1.7823248 -0.11634079 0.101627424 -1.7785742 -1.8669488 -0.9602188 1.788365 0.012091308 0.06697546 1.2621024 2.0040946 0.9926853 0.14991553 0.091399804 0.433248 0.5539711 -0.43128413 0.46621755 -1.1561986 1.2526631 -0.06129562 -0.16536406
distributed 1.1709355 2.734174 -1.0703633 1.1296735 0.88279426 -0.7547395 -0.16170985 -0.779929 1.514294 -0.37891003 0.7033642 -0.43270016 -0.28046155 -1.5646414 -1.286316 -0.98311687 -0.7932654 0.5072913 0.32244575 0.48745617 1.384769 -0.5361922 -0.42164698 -1.3892529 1.0114383 -0.9989883 -0.25100544 1.0333425 -0.8490405 -0.46030524 -0.15310492 0.7855036
some 1.2751546 0.900281 -0.65824795 -0.5555557 2.3159955 0.8700468 0.47310635 -1.0866071 0.96513623 0.46890602 2.1847913 0.27554554 -0.9468262 -0.574711 -1.3563092 1.1102642 -2.681154 0.46905363 0.039630655 -0.42058405 -0.41692156 0.28734416 -1.0206816 -0.87745786 -0.102907024 -0.8468762 -0.024592435 -0.06022213 1.6075473 0.2913255 0.4040457 -0.8017366
major 2.8998234 0.78113824 0.57255775 1.5060936 0.14501119 2.0188074 -0.22292829 -1.0175227 1.1123208 -2.6049073 2.1167767 -1.811895 -0.04785906 1.6358223 0.2810887 0.13637742 0.069018126 -1.8577889 -0.7136326 -0.0988786 -0.6087482 1.1300757 -1.4305311 0.038138576 -1.3665875 0.76813376 0.7076252 0.43844834 -0.63575184 -0.53461134 -0.40696627 -0.9228823
improvements -5.4656286 2.3026395 -1.1197261 -0.9112263 -0.6332532 -1.5229459 0.22203839 0.6498719 0.09364289 2.8076386 -0.86705476 -0.604719 -0.8987765 -0.29668352 2.413109 1.2239324 -3.4256458 0.26747715 -0.62800705 -0.32205737 1.0924345 0.84631693 0.549908 0.4434764 -0.25580817 0.062710345 0.64276683 1.2106985 2.0096493 0.12567867 -0.7009391 0.87795526
purpose 2.6010833 -1.384986 0.441489 -0.17376438 0.5385169 -1.4006209 -1.6094129 -0.10932379 -0.25821248 0.7320967 -0.812191 -0.17391913 2.4299479 0.71052843 0.5910798 -0.027176639 1.3414804 1.1750716 -0.7343336 0.16260402 0.34299728 -0.4218271 0.375538 1.479728 0.2738481 -0.19081758 0.42171326 0.42513552 -0.8304056 -0.39288655 1.0853097 -0.72280467
an 2.869824 -2.2820473 0.1292852 0.9082763 -0.23351462 1.3866473 0.909818 1.0504098 -0.43088323 -1.4774091 0.72451085 0.054147862 0.8539446 0.36598858 0.9455285 -0.3341873 -0.869335 0.48041603 0.112309895 -0.10826287 0.06939076 0.07965111 0.29303816 -1.1157609 -0.2585027 0.83940166 -0.48440573 -0.110202536 0.49053478 -1.2367711 -0.70762116 -0.39737356
improvement 1.2941617 2.5918205 -1.8209026 1.3047738 2.1026351 -2.6089551 -0.38173082 -1.20534 -0.90418833 0.17904226 -0.14808707 -1.219797 -1.0066833 0.05286171 2.0563939 0.7648375 -1.2517569 1.2038529 0.020787995 0.58114654 0.6988045 0.61951035 0.068701856 0.24180135 -0.5389974 -0.8875972 -0.13520566 0.5295807 1.5929548 0.25030762 -0.75269806 1.2056311
center -0.19658014 0.4413899 0.6886054 0.57993585 0.23716785 1.6334147 -0.9642857 -1.194908 2.0158248 -1.260913 0.42687425 -1.32696 -1.0325096 0.35114953 -0.47610453 0.12642866 -0.35641032 -1.076261 -2.0351298 -0.6824682 -0.4895575 0.14392798 0.1498511 -0.46204692 0.6933596 -0.8388877 0.5643143 0.11661255 -0.018614393 1.1256436 0.5569175 -1.0493146
adequate 0.40557122 -0.12723221 -2.3020308 0.47301885 -1.7001141 0.12082952 0.4798675 0.6047056 1.7536196 0.07276675 2.2770064 -0.20777826 0.076082736 0.061005734 2.0318117 -0.87432605 0.3211672 -0.03546428 0.85265356 -0.1356054 1.2334889 -0.06924093 0.40249848 -0.5531111 -1.0479102 -0.41122657 0.39839453 0.20315929 -0.05121657 -0.49729902 -1.1953602 -0.36144248
internal 1.3970634 1.8249196 -0.5789675 0.1634342 0.30451712 1.6024148 -0.2555385 0.11808144 1.7306136 -0.61548656 1.2867925 -0.18252069 0.43506065 0.34021106 -0.35750562 -0.6681348 0.4110163 -0.18508267 0.3028419 -0.6284915 -0.40253878 0.16044225 1.3223431 0.1239552 0.31639344 0.007973627 0.3466821 0.03274845 -1.2082226 -0.12827606 -0.053285312 -0.424692
may 1.3719441 0.28092113 3.1537857 -1.4282658 -0.9764105 2.7773643 0.55398554 -4.369248 -4.2742963 2.4143422 1.0832611 -0.39982772 0.5778339 -1.2686007 -2.1516824 0.08454678 1.2817739 0.004693202 -0.18169524 -0.11163507 0.4860624 1.2892795 -0.15837988 -0.20770028 -0.26022673 0.6768484 0.25784495 0.64713365 -0.63525605 -0.9986911 -0.6072538 -0.053605966
solar 0.66042525 0.78162587 -1.1967587 -1.5765617 -0.08071669 0.7475776 -0.5019919 -1.2424148 1.0436794 -1.7473456 0.24540396 0.697522 1.0203241 -1.3850371 -0.3476413 0.44865587 0.51134336 0.66075563 1.5463097 0.3544091 0.048790164 -0.14927553 0.049556483 -0.53116494 0.30312526 -1.1883436 1.1441644 -0.25251248 -0.2009176 -0.338222 -0.030276544 0.0061393473
accomplish 1.8449765 0.53667355 1.1957179 3.2558818 -2.3342888 -1.647952 0.56660604 0.18211067 -0.19110924 -0.638045 1.7134725 -2.004028 0.7323748 0.93720293 0.5051546 -1.720477 0.17471492 -1.7406181 -0.9911371 -0.60005724 1.2095466 0.5597435 -0.24112813 0.62651986 1.2927539 -0.69944054 0.19011155 -0.3336038 0.5047757 -0.4056311 1.3937311 0.4112214
country -7.995168 -0.01049256 4.922323 3.4581177 2.8997161 2.3530223 -1.5307133 -0.43143418 -1.9985433 -0.62781715 -0.6735871 -0.27868906 0.6862558 0.8111993 -0.7245963 -0.8182738 1.1304644 0.5745238 0.4560642 0.39568615 -0.12597618 -2.92657 -1.4986198 1.5063453 3.9009197 0.90411603 -1.8448398 0.39497858 0.18613367 -0.3039692 -2.1058216 -0.5574663
separate 1.3240933 -0.27714512 -1.1843455 -0.3598101 -0.545821 1.1322756 -0.7525276 -0.71353257 1.0838964 -0.26056936 0.3989452 0.9715046 -0.085740246 -0.6367837 -0.42032346 -0.32722792 -0.3806707 0.4490913 0.24058908 0.40454122 0.109366514 -0.365783 0.65495175 -0.6217815 0.08352801 1.0401236 0.5430218 -0.17952402 -0.5436877 -0.057585705 -0.01169742 -1.5690423
increase -0.8217735 0.849304 -0.1474473 0.026150925 -0.58943284 -2.6020303 -0.5606278 -1.8117706 0.11367785 0.28284225 -0.34132108 -0.07403595 -1.6321398 -0.8212927 2.8978615 0.60508883 -1.717705 1.9939762 -2.3198292 0.6326556 1.1258812 1.163384 -0.0050134524 -0.9885936 -0.7813163 -0.9388956 1.0306787 2.0906303 1.0823292 1.1611916 -1.9661022 0.88188237
system -0.8885522 2.4524338 -1.6032335 0.3084549 -0.7245359 0.2986162 -2.153571 0.5888639 1.3193685 -0.6146542 0.4756106 0.120452926 -0.2851584 -0.83141434 0.40738422 0.016169481 1.5098386 -0.48910993 -0.17878224 -0.34141508 -0.26754662 -0.90515435 0.49265614 0.7249845 0.97913074 -0.33907655 -0.57359594 0.5959527 -1.0175418 -0.59025836 -0.538524 0.44836026
so 0.6054002 -1.6441417 2.1595826 -2.8703666 1.377617 -1.3192888 1.1556563 1.2487042 -0.26540315 1.4880421 -0.83799696 -1.2205169 -3.4076567 0.71518344 0.5041775 -1.5061299 1.0218406 -0.53543675 2.067338 -0.14945365 -0.12269376 -1.0751455 -0.8433807 0.46355426 0.95564806 -0.4677077 -1.838256 0.10388465 -0.05592841 0.47862372 1.600491 1.937666
steps -2.507129 0.1897737 2.0112143 -4.831481 -2.533286 -0.46377966 0.78774905 -0.37488458 -1.0775875 0.11710461 -1.5851711 0.22149082 0.24975926 2.818768 2.8098629 1.2564567 -3.7063832 -2.5788333 -1.4192952 -0.76678145 0.15553953 0.79258686 0.39983398 -0.087582275 0.49361163 0.14366084 -1.731714 1.1226023 -0.9924925 -0.9018029 0.9107523 -1.1638006
analyze 4.0118656 -0.13415924 -1.7168598 2.1178386 0.45898363 -0.25262195 -0.0699671 -0.3141392 -0.92331636 -0.533414 -0.3394255 -1.584521 -0.59232974 -0.009940913 0.22641054 -0.13259643 -0.2851312 -0.085809335 0.45712057 1.0591187 0.015264878 1.2706571 0.124614544 -0.012054139 0.44094458 -0.71690714 0.55069816 -0.08250395 0.4865581 0.078064784 0.4592913 -0.16009796
to 4.2139874 -3.1204364 3.4469476 0.7122357 0.5805563 -0.6970476 1.6028914 1.5346714 -1.4915401 -0.36318517 0.42176196 1.0678844 -0.48328832 2.76854 1.8358358 0.24705946 -0.37764028 -0.013385504 -0.71162456 -0.6522869 -1.7559644 0.8294018 0.6922612 -1.2018856 0.02293294 1.2406999 -1.1073115 0.34059554 0.6889912 -2.189708 -0.28581724 1.0434775
generation 3.2676134 -0.3560907 -1.5847938 0.30305016 0.73997563 0.8937599 -1.1433015 -0.8376039 -0.13804786 -0.237022 -1.2264888 -0.20532256 -0.31705427 0.41862717 0.12188331 1.1113231 0.0018261162 1.2534182 0.06784095 0.70557386 -0.571293 -0.039334778 -0.93928254 0.5615911 0.39251003 -0.90500623 0.7417265 -0.19342725 -0.50570375 0.6190292 -0.16999552 1.5222194
companies -1.4766239 3.1143026 -1.073087 -1.5664341 -0.17953436 0.2707535 -0.06930181 2.6052277 -1.3934239 0.08613416 0.9941347 -0.41842696 0.9279275 -0.15486959 -2.3646646 2.5297499 -1.0123179 -1.0325382 -0.56587434 -0.5362345 1.1460623 -0.22868203 -1.3499744 -0.119513795 -0.19607092 1.0744338 0.14659868 -1.2139124 0.59245 -0.13260382 -1.447466 0.45136544
efficiency 1.2162426 1.9511083 -1.9025748 0.32690087 0.56520545 -2.1443622 -1.5508213 -0.7854987 -0.10695102 0.27575594 0.15915287 -1.4009893 -0.7582198 0.39910087 1.6613806 0.2894408 0.074119836 2.1508002 1.3075866 -0.5583715 0.6750445 -0.41511947 -0.8368555 0.5429328 -0.76609224 -0.3034643 -1.047927 0.2258428 -0.2844071 0.45755628 -0.6011506 0.53814393
important 0.36929873 0.3193848 -1.7096468 -0.8503135 -0.79322755 0.89316106 0.10418281 1.1904974 0.42984426 -0.9615358 -0.06621686 -0.4646176 0.07367792 0.2885015 -0.42965657 -0.24598396 0.449673 0.3580478 0.31020328 -0.8718441 0.6707218 -0.16413677 -0.044465505 0.24972071 -0.71389824 0.31543598 0.5043378 -0.36467278 0.3619932 -0.5072539 -0.2167301 -0.45315316
saosl -4.715843 -2.0205839 0.8094947 -2.2989898 -4.122762 -0.52425385 2.9721904 0.3993129 1.7145052 -3.1051044 -0.60810745 0.06291877 3.616409 -1.5074044 -0.8100008 0.5085863 0.6593871 -0.23624428 -0.23577525 0.0712555 -0.66159505 1.7008758 -1.8785605 -1.5776777 1.2987413 0.31275916 -1.1709888 -2.2335932 -0.45481935 0.80819446 1.811166 -0.7415629
challenge 0.566676 1.3908933 2.404252 0.31544012 -1.8509086 -0.08503823 -2.2546415 -1.8754523 0.5053499 -1.7509675 -3.2578688 0.18382794 0.29452956 1.041057 0.6090987 0.40119383 0.89615965 -2.2343857 -1.0738018 -1.6197453 -0.837171 -1.4663106 0.5980552 1.0784527 0.025759695 -1.3778781 0.062899694 -1.8392224 0.7522027 0.8889539 -0.2928493 -0.9863758
any -0.19436863 -1.6565313 0.23780532 -0.64646024 -0.9848222 1.3137102 -0.30121848 1.1304469 0.3587106 -1.1941801 1.9732336 1.100218 1.4950062 -1.1231065 -0.093135595 0.056614064 0.46598694 0.84571624 -0.27706337 -1.1063256 -0.24508841 -0.41295898 -0.14120038 -1.9976298 -0.766293 1.0374467 1.4218931 -0.4413825 0.82746315 -0.11052584 -0.9048397 -0.9176363
run 0.40550208 -1.1385177 5.6040545 0.371251 0.3703974 -3.362817 -1.925659 -1.4702986 0.07018579 -1.8997676 0.49311692 1.5553371 -0.8954875 0.6456371 1.1437497 -0.16562386 -0.85355824 -2.035689 0.62352026 0.8361003 0.53501034 0.7082902 -0.7550955 -0.2136423 1.1501685 0.62172306 0.7570081 -0.47585225 -1.6322325 -0.15200645 1.0810355 -0.17769156
waste -0.047232315 0.26515865 0.08721395 -2.6023164 -0.3742705 -1.7327563 -2.5218549 -0.8424294 0.42579558 0.6339608 0.88560724 0.30722886 -0.01768519 0.28306577 0.21605045 0.91249704 1.1120183 0.8720291 0.03325351 0.8167622 0.043766573 0.57259494 0.2665008 -0.12784839 0.22190544 0.43656886 0.60437876 1.1862366 -0.7142879 -0.41006848 2.1476562 1.3355333
timeline 1.9549617 1.0662473 -1.2865651 -0.097164534 1.2127964 1.1907991 -0.24893922 -0.8656333 0.85282046 -0.18667766 -2.3527026 0.5784354 0.5378984 0.8532928 -1.3367879 0.3030809 -0.1533275 1.3754166 -0.8034197 0.43683708 -0.3831793 -0.35902736 0.28526327 0.07500193 0.59943825 0.6179817 0.43703282 0.0072068362 -0.8265856 -0.023429696 -0.15002243 0.4467906
us 1.0501983 -0.58963335 0.66346425 -2.4187548 -0.1376251 2.4780433 -0.14104661 0.9255181 -0.9361573 -0.5825369 0.32544085 2.1361365 1.3902826 1.4127426 -0.56537867 0.98713195 0.973222 1.193827 1.0542051 1.1979787 -0.31980178 1.3046372 -0.007965874 0.020050392 -0.48435295 -1.3049961 -0.3303818 0.08978146 -0.19769001 1.7657233 -0.5699293 -1.0853202
form 1.7245872 -1.588105 -0.30560285 0.6972234 -3.3150177 -0.8627308 -1.4010056 -0.38509017 -0.82672274 -1.1684821 -0.3781639 0.09977336 -0.38864052 0.08535759 -0.75794333 -0.9881534 -0.33338594 0.8842248 0.6134136 0.26908785 -1.7949077 -0.5184648 1.1976118 -0.7440476 0.24430892 -0.14027211 -0.52491814 0.14841095 0.11493109 -0.0071968352 -0.13837433 -0.07773591
all 1.4751574 -2.7568674 0.9371882 -1.5080606 1.8554004 0.56530124 0.25342572 1.1739112 -0.22576468 1.1732458 1.1379628 0.5153002 -2.9072726 0.7034527 -0.17079698 0.21029024 0.95970386 0.45191467 -0.34257907 -0.35844365 0.43029645 0.16765636 -1.1253104 -1.2992735 0.24139293 -0.625811 0.5722057 -0.30534306 -0.74491966 -0.66731197 0.5846073 0.13104373
powering -9.515999 -3.8203104 -2.6515217 0.3999666 0.652915 -0.43348587 -1.4550053 -1.0078136 1.1034136 0.20818877 0.74116445 -0.40318424 0.6593914 -0.54043096 0.023056174 1.6980217 0.40493035 0.7489062 0.12173963 -0.79020536 -0.83007205 0.67060935 0.49736717 1.2609283 0.9216935 0.5085585 0.4241703 -1.2270246 -0.0279004 -0.04252436 0.70708585 1.4594674
associated 2.4965415 1.282256 -1.6522057 1.851329 1.8055989 0.6847711 1.0392393 -0.004089583 1.0029262 -0.31453 0.51433164 -1.1039456 0.6949783 -0.2493391 -1.8916538 1.2153429 -0.503704 1.6417482 -0.58811855 -0.7601333 0.17161898 -0.9642329 1.3846611 0.06685659 0.16477309 -0.70247394 -0.24570936 1.2494994 0.7370346 0.36927974 -0.4320883 -0.656994
need 2.0910392 -1.9893938 1.6106789 -2.2388422 1.613501 -1.8874594 -2.1868484 0.14747505 0.31836626 1.4167695 -1.2658943 1.7901536 0.27027693 0.18315695 0.07699402 0.14900358 0.5213445 0.34381086 -1.082901 -0.5377507 0.35250348 -0.17007703 -0.47151613 0.6054452 -0.074031845 -1.0088358 1.5759181 0.14881858 -0.9857528 0.19062297 0.45381835 -0.33354935
vary 2.3234673 -0.028185101 -2.61912 0.61737907 -0.08136827 1.9419262 0.7816716 -1.0657544 0.36284578 0.23519564 -0.22023647 0.71476555 -0.7864503 -0.38110065 -0.14544873 0.23519503 0.34160808 0.18971412 0.49516296 0.57559586 0.021932555 0.006651947 -0.44889328 0.05466273 0.120568186 -0.29649326 0.42400512 0.6063573 0.05140201 -0.57624406 -1.2187699 0.085467264
extended 2.4832706 0.13371448 -1.326009 0.51364386 -0.3151759 0.7253727 2.1636994 -1.1045865 -0.06815661 -0.2078935 -1.2076484 -0.03469705 -0.83677953 0.71194386 0.4817201 -1.1940479 -0.9282018 1.0597242 -0.15853393 -0.3578361 0.1415344 -0.17514525 1.1866153 -0.8414859 -0.5149629 -0.25719565 0.23813766 0.32988074 -0.28771737 -0.788653 0.025514793 -0.7464244
possession 2.08555 0.4952362 -0.69286805 -0.7027591 2.4787107 -1.869286 -1.8743583 -0.22219439 -0.28583288 1.2403383 0.19640419 -0.49214742 0.38520363 1.4295036 -0.3629195 -0.69794756 1.50423 1.4593239 -0.48199108 0.18410845 0.14568356 -0.40984172 -0.39732948 -0.112152904 0.31442383 0.9725064 1.0361506 0.41262814 -0.7405693 0.32644325 1.2954657 0.15397994
absence 4.9117875 -0.13886814 0.29054168 2.3589993 -0.36585462 0.5037265 -0.786751 -0.4384352 -0.66279995 -0.07369882 1.9276643 -1.6144162 1.0718933 1.6326947 1.0679727 -0.67469615 0.04124116 -0.088669546 0.40240353 -0.00856651 -1.4353362 -0.9565218 0.626402 0.44103056 -0.8562741 0.6897408 0.58515435 0.5046011 -0.3595761 -0.23465411 -0.44592103 -0.01894454
services -2.694672 4.6658134 3.034944 2.8973045 2.4689233 -2.8622515 5.1336555 0.36600226 -1.5418822 2.3134453 0.5541044 2.7366583 -0.6290556 2.415541 0.411213 2.1838655 0.22276342 -1.5735188 -0.12117069 0.8662823 0.07440525 -1.8413752 -4.023601 -0.46339574 -2.0018034 1.1955692 -1.0918477 -0.67496014 -0.82690376 0.47808695 -0.699423 0.054441772
course 1.6661279 -2.2324104 -1.0372299 -1.7983167 0.75059295 1.4941899 -0.09788543 0.20931995 1.1323417 0.13279617 -0.40046093 -1.3656698 0.4440115 -0.73870826 -0.71508324 0.23180613 0.67031884 -1.6809046 -0.65460885 -0.24947874 0.7878394 -0.15710625 0.5826298 1.297154 -0.3118928 0.24565135 -0.33887938 -0.18894917 0.15371946 0.91005206 -0.15983374 -0.5176221
partnerships 2.2371762 2.7854116 -2.3034396 0.5795964 1.3430091 -1.1755778 0.21304199 -0.5512688 0.50566924 0.92232996 -0.12285992 0.3670143 1.727899 0.9771976 -0.51673305 -1.0844873 -0.15264791 -0.4105857 0.15822245 0.60536206 0.4044762 -0.42966685 -0.049236678 -1.3590602 -0.35984543 0.25936154 -0.897535 -0.23149471 1.0348358 0.04100197 0.41132358 -0.53185755
them 1.983816 -1.890658 0.1635529 -2.1062462 0.030249735 1.7575011 -1.0033796 1.4242858 -0.37258154 0.08951477 0.52779126 1.1899788 0.62610114 1.2340622 -0.5048953 1.7335798 0.58926487 -0.7633104 0.5471996 0.10143741 -0.21599744 0.22806162 -0.5920145 -0.90658516 -0.6020693 -0.5215904 -0.16409436 -0.07043569 0.1717893 0.2560303 -0.5313809 0.7830386
their 1.6082516 -2.7220864 -0.14652604 -1.8712733 1.0541469 1.9327948 0.2549847 1.2011751 0.35441068 0.84154844 0.88742256 0.5180482 1.6061783 1.0527339 0.530051 0.24609636 0.14259292 -0.23598477 1.0699904 1.4948736 0.34948713 -0.5748579 0.73509544 0.15666533 0.39096782 -1.4303265 -0.07744007 0.7591144 0.582138 1.6756045 -0.3993397 -1.4582927
give 3.2634408 -2.8740962 1.9588093 0.63634837 -0.085073054 -2.1047826 -2.62095 -0.6864096 0.22739458 0.93358135 0.23199475 1.58979 -1.871016 0.16356745 -0.18687801 0.44437063 0.52611065 0.87072235 -0.031465586 -0.34969923 0.046738535 -0.11173814 -0.9895568 0.8482345 0.53322625 -0.068410486 0.14616504 0.18402824 0.72724307 -0.33786508 -0.7700108 -0.12907903
below 1.7704798 0.30309042 -0.3095109 0.07750298 0.45765412 1.7134528 1.0671787 0.5435197 1.1903951 0.42988858 -0.18115489 -0.4001036 -1.0698148 -0.46695304 -1.2805785 -0.785773 -1.0926027 -0.8741147 -0.087737374 0.17533496 -1.2268602 1.4257243 0.66083694 0.10747524 -0.27012858 0.87822807 -0.8635095 0.61601764 -1.188826 0.71274775 -0.050548162 0.28438225
repay 3.527418 -1.6074005 -0.78174156 2.0240061 -1.9254128 0.19709553 1.4516195 -0.28214157 -0.8609324 0.98374003 1.5353459 -0.20561206 1.3176278 0.62467074 1.8656019 -0.5278444 -0.14084911 0.27868846 0.30019394 -0.122183524 -0.20564239 -0.28840423 -0.49152595 1.6601982 -0.29410696 -0.4490205 -0.39718157 0.5764771 0.077667736 0.036280937 0.19199039 -0.8927434
economic -0.6606707 3.5663354 -2.1476607 -0.9511724 0.29203588 -0.49524558 -0.86209744 1.2643576 -2.1961482 -1.6221292 0.5919351 -1.645244 -0.33540946 -0.9774541 -0.039097086 -0.32176173 0.57422763 0.37834543 0.51134247 -0.625826 1.1966583 0.71363455 1.4038807 -0.18777867 -0.4985647 -0.42429218 0.7488042 0.49424037 0.9893378 -0.3929479 -0.9284862 -0.7368601
windows 0.812727 -0.16604616 -1.0896535 -2.423369 0.06517901 0.13031583 -1.9166965 -0.14955792 0.487604 1.151416 -0.24938384 1.0011011 0.35453033 0.25281015 -0.20145391 0.48975518 -0.73503906 0.5955499 0.19842285 -0.50394535 -0.24468836 0.57944727 -0.56263477 -1.3704709 0.01807124 0.64929956 -0.07634821 -0.16503073 -0.6232582 0.5921252 -0.81127656 -0.8076179
adapted -0.68402666 5.276892 5.9184537 2.1915984 2.3106947 -0.64164186 3.1923997 0.24781986 1.2465056 -0.25868726 -1.9065571 0.82634825 -1.6532142 0.44253793 -0.6211383 -1.1136851 0.27181786 2.3761888 1.2298812 -0.10904842 0.5387791 -0.5473439 1.0482652 -1.5839794 0.8032521 -0.51482975 0.5422118 1.1986799 0.1898538 -1.7530547 0.60631365 -1.2389762
viable 2.4943557 -1.0517063 -1.9205401 -0.48026374 -0.64172447 -0.09668554 0.6212952 -1.2474383 1.286542 0.20236908 0.8427391 -0.57684374 1.0185491 -0.2835193 0.18298368 -0.33198252 -0.054813314 -0.7948865 1.4700679 -1.0835785 0.7308989 -0.5391235 0.4275284 0.6134792 -0.2921638 -0.35146046 0.035828672 -0.16429034 -0.44202396 -0.3790557 -1.2103633 0.116309606
reports 0.24704269 2.873709 -1.0468085 -0.56918186 -1.4402244 1.1378459 -1.1872536 0.6961121 0.38989574 1.3347673 -0.18147959 -0.12951192 -0.10840731 -0.10172195 0.20961083 -0.037110228 -0.35994568 -0.8573496 -0.65488225 1.8536725 0.6156037 -0.71155924 0.10474732 -0.8497153 -1.4575568 -0.049099106 -0.33005604 -0.6520303 -0.2915526 -1.6278206 0.5133314 -0.024247784
representation 0.05885089 2.0465841 -2.768111 0.34284362 -0.7455932 -1.288954 -1.1914799 0.6088973 -0.85978186 -0.6442442 -0.93907124 -1.418276 0.000654638 -0.28773934 -0.99996305 -1.8306165 0.20404144 0.72831744 0.31729063 0.3883473 -0.23423518 0.002111842 0.120098926 0.52537864 0.4913512 -0.72495705 -0.049025506 1.4964086 -0.3460679 0.09217084 0.3306384 0.8023434
optimized -11.753286 -6.155146 -3.0003943 3.5559165 2.3528075 0.1187548 -1.5059677 -1.2724694 -0.63492584 1.0237777 -0.81243247 -0.79622 0.90453696 0.4980396 -0.6275945 0.4471843 -0.06177995 -0.34784105 1.1349005 -1.8924551 -0.5064012 0.8796644 -0.25844732 0.002935645 -0.8654238 -0.6778713 -0.48646823 -0.38706118 0.16324016 -0.3754973 -0.7246737 0.24472052
securing 2.2545986 1.2879822 -0.31269652 1.8387136 1.6092292 -1.6314734 -0.53891706 -0.395551 0.96742105 1.2962544 1.8278968 -0.733099 -0.82905734 0.5236632 0.55442435 -1.3067026 0.3097488 1.0065886 -0.27046636 0.6976722 0.42487818 -0.21474284 -0.71296394 -0.58253634 0.08248309 0.87926555 -0.6623993 -0.59069836 -0.051276248 -0.0954149 0.60888964 0.8292438
describing 3.9248486 0.093367524 -2.0151067 1.6618657 0.3966311 0.73762447 0.843186 0.42067087 -1.1220136 1.3125212 0.36484432 -0.6938117 -0.47857237 0.8551078 -0.05988483 -0.3840408 0.017368244 -0.0032056952 -0.030246388 1.5526419 -0.8276841 0.6965634 0.37427002 0.75448465 -0.07611344 0.60492027 0.47635219 0.43968812 1.2173507 -0.25906807 -0.35171738 0.43570966
turbines -1.1998885 3.2941027 -2.1502275 -1.2623905 0.881316 -0.20310667 1.8002675 -0.10201509 -0.28694376 0.8438765 0.14149909 0.8115925 -0.41618383 -0.0994856 1.2958391 0.59056455 -0.0727554 -0.31156906 0.575573 -0.46990302 -1.4434594 1.7005914 -0.31447625 -0.030259922 0.8904933 -1.4295337 1.362124 -0.8507178 0.36904532 0.3006385 -0.56982976 0.5208182
years -1.7895436 -0.92231613 0.5206289 -4.258436 -2.1346462 1.5758832 -0.029933156 -0.60939175 -1.6274209 0.9167545 -0.5641302 -0.71385133 0.3564486 1.0440933 0.88587236 0.74481726 -3.1134515 1.5437999 -2.428235 -0.14276984 2.1222272 -1.7652067 -0.48840895 0.1534288 1.4186836 1.4790883 -0.4505945 -0.79864436 0.6232065 -0.25869894 -1.6621709 0.6563008
whether 0.9945899 0.7013711 -0.13771649 0.6592601 2.5490382 -2.053123 2.4774141 0.6448846 -0.14920717 1.3078898 1.2155255 -2.119362 1.9186138 -2.3064141 1.5196565 -1.7011151 0.67057186 1.0276164 -1.6225175 1.4343117 -1.2576159 -1.1229947 0.7071649 -1.4198966 -0.31963336 0.79082954 1.6792438 -2.3592508 1.0375866 1.6047914 -0.1472237 -1.7556486
allow 4.1964593 -2.4738402 -0.15652208 2.5843287 -1.5967432 -1.6870325 -0.6025274 -0.3685037 -0.5340915 1.006795 0.39123428 1.2422916 -0.78571844 -0.19883724 -0.61562824 -0.35571596 0.21461244 1.0846087 0.44892818 -0.8307058 0.38323006 -0.13041095 0.036383487 0.17520878 0.078832686 0.71646196 -0.19245265 -0.019806875 0.58860487 0.24595636 -0.4201198 -0.85484695
been 1.8764067 -4.397825 2.0758345 -2.0276408 0.22417606 -0.57142186 0.7017797 2.236615 -1.6961222 -0.7795262 0.47875682 2.0535727 1.7856997 0.042196732 1.7382187 0.9664974 -0.6221082 0.78020436 0.49557903 -0.07197318 0.85515463 -2.3619554 0.41613463 -1.1568816 0.06741346 -0.87215275 -0.52999735 0.15239708 -0.39828917 -1.5197337 0.47272873 0.7203001
recommendations -7.4915857 0.29167348 -1.9192549 -0.5981993 -0.6082182 1.1637275 -0.21939227 -0.23672491 -0.42983305 2.1810446 -1.605516 0.93383974 -0.5603802 0.45923975 1.6988144 -1.5835814 -0.3403848 -1.5236576 0.11157049 0.51093584 -0.4616587 0.036481652 -0.6050512 -0.19854273 -1.4792898 -0.43888533 -0.85309875 0.47196653 1.0264859 -0.55150944 0.23248073 0.2817666
main 3.5601935 2.7501898 3.6546898 2.1682463 1.199126 2.633163 -0.84769917 -0.28927395 -0.057217706 -1.1250887 -0.065056495 -1.1600809 0.1743455 0.8250655 -1.1861092 0.6752586 0.6210446 -0.02812072 1.3695263 -0.21182987 -1.0925636 1.1981198 0.47921246 0.100670315 -0.53644305 0.6181777 0.964506 -1.2072684 -1.0206869 -1.0974364 -0.30405462 -1.4003762
ashr -3.7777348 -3.3228452 0.6037846 -4.2259474 -3.9094586 -0.26037326 1.8136417 0.21732421 1.3878317 -2.5349548 0.8753594 0.47897395 0.84217364 -0.62025124 0.35548717 -0.16215901 -0.016021023 1.3829848 0.27213803 1.8102982 -0.63920325 1.5899692 -0.15489094 -0.82066953 -0.48917177 -0.7324668 -0.82756096 -2.1378355 0.32952344 0.6260576 -0.6804746 0.0013256457
knowledge 0.7154291 0.9998983 -0.73242944 -0.0437315 2.3160517 -2.1990805 -1.8162796 0.9347778 -0.88318694 -0.35555464 -1.0356469 -0.7430153 0.15713239 1.7227786 -0.29084295 -1.285329 0.79798347 1.05507 0.025947388 -0.22753784 1.4404271 -0.43649745 -0.7524434 0.087699994 -0.04922244 1.552721 0.7459035 -0.64386576 -0.017175963 0.31682107 0.09866025 1.0630964
lack 5.1324525 -0.7724921 0.3800762 3.3368542 -1.011095 0.588851 0.212502 -0.15563023 -1.2999253 0.3012274 1.2028617 -1.1669677 0.620629 0.8408934 1.0490487 0.035086844 0.49905097 -0.25946325 0.47714144 -0.00923561 -0.9968737 -0.07993263 0.51513225 1.5052952 -0.5178084 0.3423659 0.787889 0.44502285 -0.06490413 -0.12550667 -0.74543184 0.13362111
via 0.83631593 0.49219683 1.5921382 1.8530556 -1.0733759 -0.54045045 4.024509 -0.4920948 1.0340997 -1.1382746 -3.385364 -0.427003 0.16560695 1.772044 1.5021489 1.871665 2.3078837 -1.3129759 2.184497 0.8593556 0.70454115 0.050617557 0.048113305 -0.85062855 1.5993077 1.6116154 1.5581244 -2.698699 -1.6753726 2.9158385 1.7431942 -0.011037274
employing 4.597908 -1.4857247 -0.5533502 3.7871177 -1.9310968 0.103401884 2.4984565 0.58844787 -1.2543852 1.2056336 1.4084566 -0.8814142 -0.052275766 0.35944894 0.4987889 0.25657153 0.47997642 0.14624746 0.059756268 -1.1144681 -0.77220374 -0.06013395 0.47322908 1.4723824 0.16944805 -0.15262319 -0.52196944 0.8858193 0.1733862 -0.019866947 0.11557177 0.44212314
wind -0.75979376 3.2067695 1.5383021 -3.5857444 1.5102162 -1.8608974 -0.75444496 -0.6214068 -0.68408215 -0.5484129 0.79371536 0.55844724 0.071187235 0.37258324 1.0577762 0.38657174 0.48938313 0.8972842 0.55165035 -1.3059329 -1.7994362 0.5788578 0.5745452 0.6498914 0.13539131 0.12628353 0.9267473 0.6351017 0.22059178 -0.036771853 0.7236265 0.2836681
general -2.2684877 1.8943291 0.49376553 1.1433108 0.35230097 2.198704 -1.274675 -0.42702392 -0.53775245 -1.7067567 2.4168382 -0.4801062 -1.127988 0.08941875 0.001745975 -0.13928649 0.054469667 -1.2332478 -1.787835 0.47423762 1.2893062 1.1984756 -2.3690448 0.25990748 -0.75050217 -0.11348546 0.43271145 0.57503617 0.12740952 0.37832847 -0.32496816 -0.16307545
choose 1.8639783 -1.6413444 2.6890402 1.3228484 -1.8298417 -2.502296 -2.1710007 -1.3509811 -0.51016104 -0.017043162 -1.1752356 2.218385 -1.4607037 -0.96291715 -2.048965 -0.6769223 -0.0074413773 -0.5540642 -0.543352 -0.8189227 0.18237945 0.24847765 -0.25635216 -0.77373934 0.03676905 1.3038294 0.26893732 1.0639565 -0.045247648 -0.020261375 -0.59319407 -0.01823561
but -2.0404472 -2.24831 -0.11468157 -4.78369 -0.9375521 -0.06438653 0.41427726 0.943783 1.3174407 1.6353987 -0.18206076 -0.23589778 -2.6312392 0.31648654 -0.35886613 -1.4195498 1.2578547 -1.8955907 -0.58089596 -1.9327497 -0.72310084 -0.03416229 -0.13972956 -0.48166627 0.18904375 -1.1138567 0.18843476 -0.03746585 1.0837281 0.13416302 -0.26348925 0.72918177
