phase 2.2796965 -0.528884 -1.0832055 -0.078177735 -0.5942778 1.0764344 -1.5450265 -1.3374707 -0.93586683 -1.5275965 -1.4518864 -2.2648227 0.038412236 -0.14190924 0.07019461 0.11550864
includes -1.0456047 0.3010129 1.0663651 3.0187373 0.52525216 1.8059639 -0.02649627 2.2639604 0.4509217 0.41470808 -0.2125706 0.45741802 -1.0566522 -2.5615857 -2.0963008 1.8733432
sunco -5.3554597 -1.1800648 0.5839036 -5.2998643 -3.397098 -1.0481477 0.29944122 -0.9336996 2.2784696 -2.1183393 0.3001126 0.7065313 -0.47373813 -0.88037306 -0.39560014 0.5430132
qualifications -2.6549733 4.1536613 1.9131544 1.0943291 -2.163786 0.30607206 -1.0467772 2.194222 1.6254016 1.2051662 1.0135386 -2.3910775 0.6082972 0.50661695 0.4781273 -2.3844435
problem 0.026086723 0.9396368 -0.6312202 -0.140791 -1.8259625 -1.0489928 -1.0120125 0.9471006 -1.6509888 -1.9023944 -2.382865 -2.5803993 0.08414883 -1.492374 0.9121471 -1.4351234
a 3.8316374 -1.6771423 0.24230018 1.3321766 0.44411442 1.7636243 0.8008301 0.32446197 -0.23811926 -1.2699697 0.42189783 -0.83699644 0.15638272 0.6425224 0.7014781 0.24509786
citations -10.891037 -1.0025591 0.8458605 4.0673237 2.9524274 0.6688061 0.68241197 0.57547235 -1.4404787 2.99049 -1.3751397 0.8521278 1.5142983 3.013384 0.19885509 0.8349885
panels -0.27951345 2.293413 -1.9942545 -1.8334681 -0.35694686 -0.3928702 1.0995662 -0.3096985 1.0224302 1.646413 -1.2893748 0.8815358 0.18783598 0.085318 0.21219109 0.3390128
electrical -0.2663255 4.267316 -1.1916604 -0.07707384 1.9455465 -1.6097617 0.5120943 0.21332563 -0.07854586 -2.1409023 3.1233249 -0.6826502 -0.28680593 -0.78688544 0.92160136 0.73335433
interface 1.8254042 0.5164835 -2.2504804 0.48899257 0.70391774 -0.90111464 -0.43387935 -0.5698725 0.43780485 -0.09293568 -1.4097651 0.65865594 0.16258557 -0.036775712 -0.7778849 -0.3551504
systems -3.130569 2.8759327 -2.9734118 -0.52215546 1.4439456 -1.5401496 -1.2967875 2.9038854 -2.8104417 -0.7323672 0.22726198 -0.49392256 0.26009098 -0.29069978 -1.7513417 0.11928231
seek 4.7300296 -1.0673454 3.0544004 3.448977 -2.6069918 -1.1375015 0.08828277 -0.20403044 -1.7268269 0.99394107 0.9074011 0.72899663 -0.55003744 0.7254903 0.3224949 -0.23934074
secure 0.46907926 0.63991696 0.5197153 -0.29147238 -0.11951861 -1.9808534 -1.2417651 -1.313326 2.1646264 0.26375598 2.2190812 0.06392783 -0.30974516 -0.084374 0.54937893 -0.9987398
could 0.97027713 -3.1332338 2.500635 -1.8241704 3.1743703 -2.0540373 0.74051183 1.7231305 0.6338496 0.77920926 -0.98897016 -1.4461478 3.2420278 -3.7382011 0.12283034 -1.0416076
smart 1.2443886 -0.5607842 0.43522596 -1.3217622 3.1881561 -1.6788775 -1.0688572 -0.8028493 2.535131 -0.57855 0.38785437 -1.9419931 -0.23321326 -0.27520937 -0.3831176 1.1042538
what 2.2253015 -1.3782722 3.0042248 -0.53466445 5.8841405 -2.0751376 0.06793943 0.10603991 0.4855312 0.45826292 -0.93751925 -1.6844827 2.851529 -1.1455686 -0.9669742 -0.062556855
believe 3.519463 -2.912984 1.6208029 0.70727015 -1.0844947 -0.96359617 -1.3710494 0.8056962 -1.2499348 0.2649631 0.37232786 2.2294521 -0.40666863 1.4675534 -0.27156568 -0.3524787
since 1.2918969 -1.1052097 0.6521478 -0.7915899 0.9326202 2.014321 1.2521005 1.265149 -1.6483715 -0.6608983 -0.44375974 -0.23716061 -1.2441304 -0.094361305 0.1892435 -0.71787304
industry -0.119169556 5.5416307 0.8927605 -0.6418731 3.3895957 -0.91169435 -0.02398431 1.6537774 -3.1584592 -1.9158661 1.4816674 -0.7490542 -1.487418 -0.46085048 -1.6159348 1.8253146
loan 0.51501715 3.3597846 4.730763 1.6498735 -0.29907814 0.23811714 -2.1308374 -2.6495717 -1.2142906 0.9240533 0.10669849 0.625832 0.62161845 0.30610803 1.2114512 3.944537
very 1.4222547 -2.2147148 -0.6964266 -2.676522 1.9247199 0.7208329 0.31227443 -0.21384715 1.4332495 0.48779815 -0.04637964 -0.71950126 -1.0032921 0.23590328 -0.046364084 0.15961997
include 2.0793912 -1.3876647 0.91824937 1.9721646 -1.1608752 0.483137 -1.2045777 1.7030718 -0.72721726 -0.726147 -0.55516857 1.5684271 -1.3328049 -1.5570976 -2.1375155 0.50242895
communication -0.4737898 3.3959782 -1.5312245 -1.3771669 2.001302 -1.328073 -0.29710102 0.9226885 -2.1715095 -1.5072966 -0.12629266 -0.7949674 -0.6644683 0.6543829 -0.7982142 -1.0763644
rates -0.24374211 0.6279896 -3.1571047 -1.1184018 -2.0286136 0.27181655 -0.46327174 1.2013223 -0.2509109 2.3140683 -0.12071604 -0.96302336 -0.37931222 -0.5800157 1.1519095 0.65091676
according -1.1463673 -2.2486453 -0.57231486 0.15443845 1.2105385 2.287678 2.3647418 1.2407584 0.358194 -1.0971426 -1.0940655 -0.2696588 -0.91443163 -1.4849585 -0.5246516 0.93803465
references -3.1373763 4.033967 4.372896 1.5271105 -2.1526423 2.2894936 1.3759573 2.5391297 1.3706913 2.7687352 -3.0794265 -0.19344476 0.18487264 1.8320813 -2.0311232 1.2530531
challenges -2.2740252 2.695779 0.5683391 -1.1802211 -2.4032352 0.79250664 -1.0090288 0.7295686 -0.048315216 0.030873979 -2.7446125 -0.26924542 0.85532165 1.4981174 -0.31365564 -0.90699595
chart -2.8148787 3.57552 3.8971438 0.9045477 -0.6357901 1.725772 0.5316291 -0.5193682 0.5963093 -1.426098 -2.2920232 1.3035072 -1.3424693 -2.0112057 2.7305562 1.0091076
market 2.5973551 0.9133697 -2.040153 0.10540914 1.1472385 -0.17398506 -0.67562044 -1.0957611 -0.41653425 -0.20983954 -0.91867864 0.09781218 0.014359561 -1.195352 -0.1326728 1.2073199
whole 1.0156814 -2.1541824 -0.5777998 -1.8708282 -0.39047265 2.7754633 0.36480284 0.67112225 -0.2740676 -0.23042966 0.36980465 0.3207472 -0.17908642 0.6154271 1.0090783 1.534657
creates 3.21305 -0.3135364 -0.14344807 0.82347363 -0.7268599 -2.0140758 -0.44953275 0.3086046 1.029521 1.0334599 -0.31033993 0.6986264 1.9402341 1.3483768 -1.2298127 0.20817696
feasible 2.8749769 -1.0556699 -2.015226 1.171894 -1.1883049 -0.7523865 1.3166441 0.0030583485 -0.45639557 -0.9661464 -0.51105064 -0.79029864 0.68698066 -0.41978967 0.45864487 -1.2742286
sell 4.1968985 -1.0562834 -0.64415675 1.2386091 1.2710191 -1.6137162 -1.2757035 -2.1519203 0.26423487 0.2073931 -0.92419773 0.55613637 -0.047234125 -0.9076453 -0.41350576 1.0514337
on 2.3988934 -1.3116444 0.09643822 0.7863253 -0.64515895 2.4566133 1.6113379 0.72300506 0.15144181 -0.8272507 -2.0625844 -0.6172892 -1.1023054 -0.3146695 -0.6343712 2.196563
estimated -0.56847006 2.0103235 0.176243 0.5752686 -1.142497 -0.8542785 1.9288384 -0.8090734 1.1047903 -0.15024313 -0.8698208 0.80358607 -0.20957433 -2.3108478 1.581772 -0.3168408
should 1.2111568 -3.5114324 3.2554708 -2.2170622 2.182363 -2.2786744 0.041362092 2.5142114 1.1067336 1.2402071 -0.48085293 -1.1350906 2.8949754 -2.7993016 0.23355888 -1.1264108
plan 3.487548 -0.08323815 -1.4188312 0.061865967 1.7468969 -0.14616387 -1.4668332 -2.2984147 0.9788454 0.043682266 -1.2125099 -0.488992 -0.35723275 -0.21668044 -0.74260145 0.52697814
resources -2.9185889 4.2545886 -1.6996194 -0.73621374 -3.0395405 -0.8418336 -0.42656824 2.5430236 -0.1280275 1.2675097 -0.15558775 1.0626488 1.0745448 0.6212125 -1.4522256 0.097117774
technology -4.2293587 2.402018 -0.9734609 0.13720942 3.7356431 -1.112442 -1.5332973 1.9186063 -4.435977 -1.9665565 0.09903508 -0.60939115 -1.1821241 0.60432005 -0.6986231 0.0330571
provide 3.0529683 -0.26981518 1.3157167 4.1810036 -2.8509583 -2.575791 -1.1887497 -0.394821 0.4170274 0.903422 1.9094286 2.6336532 -1.2601429 -1.6732928 -0.7795013 -1.0276991
necessary 1.2970709 1.6512482 1.4748182 1.3625615 -1.1865125 0.5143958 0.6499817 1.1032134 0.62577456 0.59217596 2.1583633 -0.9238401 -0.35610166 0.84819686 0.09760796 -0.5849794
report -1.3516445 1.4492924 -0.85475034 0.3415264 -0.66840094 1.0978074 -1.4989581 -0.8888232 1.0289125 -0.39740446 -1.1943214 0.43855324 -0.8109725 -1.1438094 0.8664261 -0.55219585
timetable 2.6693866 0.42863744 -3.1096559 1.216312 0.3684108 1.419456 1.8630486 -1.2650157 -0.19137178 0.7715796 -0.6929084 -0.13742709 -0.4069143 -0.0013848947 0.60665953 0.7613452
headings -8.031105 -3.679132 -2.19137 -0.64958876 -1.8645071 0.92436874 -1.0354618 -0.040505536 0.7761642 -0.07072651 -0.09469357 -1.0845727 0.56911397 -0.1082905 -0.37074536 0.21634787
consuming 2.8585937 -1.3405968 -0.33162445 -1.0031333 2.4553046 -1.4832255 -0.1423454 -0.2696297 0.95722735 1.2422658 -0.6339534 0.95689696 0.19692253 1.4399993 0.29327622 -0.058189202
meaning 4.5870333 -2.1444654 0.6168035 1.7523016 -1.1724774 0.28960684 0.5278288 1.1440982 -1.7659752 -0.22209334 -1.1270306 -1.7344714 -0.101655066 0.9579822 0.26602122 0.5499572
audience 3.3739781 0.08806524 -0.23112077 0.23557846 -0.44837615 1.1775322 -0.21604165 -0.786274 0.9375671 -1.1162515 -0.12764347 -0.12728836 1.406715 0.5041811 2.044929 0.28058332
areas -0.20998111 2.1182213 -2.7262046 -1.1419265 -0.50782853 0.3020139 -0.3250509 1.0301031 0.17384878 0.9904762 -0.020847935 -0.2649025 -0.5390663 -0.2655788 -0.56473786 0.25884962
original 1.841283 0.6155757 -0.13353369 0.94525814 0.48440072 0.30921564 0.6382685 -0.5724819 2.5396802 -0.48916134 -1.3260146 0.86515677 0.6830826 -0.5562115 -1.1808704 -0.51010936
month 0.92359346 0.4943378 1.7487457 -1.5510515 -1.0023446 2.8322148 -1.0578464 -3.0902858 -1.4136497 0.027642958 -0.07202501 -0.7987251 2.177655 -0.7247771 0.41141453 -0.24041983
public -0.10037327 1.8058026 -1.5399281 -0.23506503 -0.7768702 0.7213747 0.73385626 0.42407215 0.11697639 -1.3444182 0.7304712 1.6323823 0.1943744 -0.46077007 0.17859413 -0.90269953
process 1.3526938 1.1725937 -1.3545734 0.08084903 -1.0502216 -1.0372454 -2.403921 -0.46731642 -1.6968056 -2.0522912 -1.2962314 -0.8404543 0.28892606 0.30844662 -0.8377683 -0.021083912
renewable -1.0113851 2.0530536 -2.4934154 -1.2245435 0.234085 -1.4013504 1.6514697 -0.33321825 0.82579535 -0.669963 0.74821216 1.14965 0.04415542 -0.8724289 0.67860264 -0.70745575
existing -7.3501415 0.697733 1.4798172 3.8415816 1.3185666 1.8577005 -0.5096198 0.5120137 2.0005424 0.029493652 1.1372377 2.1277194 1.781527 -0.24713314 -0.5993497 -1.872181
require 2.1559796 -1.4505757 -1.7846564 0.99314743 -3.118649 0.46401447 -0.22308485 0.1774633 -0.7582612 -0.09180878 0.07406882 -0.02214672 -0.8964927 -0.1325298 -0.08702248 -0.18013094
statement 3.7171876 -0.6541319 0.095756546 0.7324184 -0.65706545 -0.08017462 -1.660117 -1.0614305 -0.7914053 -0.72286284 -0.334005 -0.20608433 0.3011588 0.42226616 0.0064605437 0.26465777
pollution -6.887254 0.90273666 -1.9022887 -1.2428496 0.9359887 -1.4669056 -0.5610318 0.7587644 -1.5473223 0.078080535 0.6930508 0.5322988 0.2452132 -0.39858684 2.0735388 1.5153991
national -4.9303503 1.274163 1.1860945 1.4644213 2.2008219 3.2678795 -1.424073 0.6331874 -0.42519653 -2.3506274 1.7222358 2.373688 1.075529 0.2553401 0.6990519 -2.047871
generated 3.5848482 1.72444 -0.9714865 2.4751976 0.09614737 -0.99711615 0.64035296 -0.57207406 1.0062562 1.051591 0.45531374 -0.49018136 -0.16026987 -0.35032216 -0.6719312 0.13002715
business -0.6756955 2.4639173 -1.0685152 -2.3158653 1.0527912 -0.6637513 -1.8621598 1.1087694 -2.745195 -2.382121 0.46450797 -0.8199108 -0.355763 -0.03737873 -0.80839026 0.2706837
would 0.59330094 -3.0911522 1.4304054 -1.4832817 2.2931187 -1.9041115 0.69648165 1.2779224 0.7744529 1.4524063 -0.60809946 -1.4728478 2.0469985 -3.9503682 1.4752666 -0.549656
instead -4.1858497 -2.7376096 0.1496463 -1.12477 -0.6458644 0.57065225 0.7642478 0.91657543 0.95044404 1.2049285 -0.19215894 -0.8728036 -1.4486881 -1.370418 -0.19826376 -1.6676214
share 0.846396 -0.01128635 0.33541557 0.22640389 -1.344465 -2.3189654 -3.3214333 -0.571385 0.8725858 -0.15346788 -0.094107255 1.4097522 0.80890644 -0.47014147 -0.6686839 -0.5970524
integrated 1.0334003 1.5443182 -2.8445516 0.4508493 2.1882536 -2.470617 1.2669022 -0.3469186 0.32469827 -1.2318585 -2.202654 0.37786955 -1.04651 -0.38822168 -0.97446567 -1.700801
prime 4.31886 -1.3895582 0.17467517 2.3018525 -0.6016703 0.47172844 -0.40636814 -0.32057047 -0.9120007 -2.3976123 0.42431596 -0.14322172 -0.0063782292 0.4080669 -0.23642859 1.149931
interest 3.628282 0.79246664 -1.346848 1.0235093 2.0071728 0.17044312 0.36725092 -0.94086605 -0.8878317 0.74322885 -1.5623897 -1.0736938 -0.11658824 0.4942714 0.41025972 -0.020196356
concise -10.161434 -2.030249 0.40695184 1.8253409 1.7834834 -1.5774107 3.2834337 -0.48851317 -1.3851314 -1.7710702 -0.19928898 0.7670924 -2.6272762 1.7734909 -0.11093451 -1.1992837
authority -0.7029985 1.2199864 -2.6095579 -0.9152641 -0.8516002 -0.19235201 -0.6258272 -0.11207861 1.1136347 -0.25951275 -0.0769833 0.84571886 0.40781495 -0.4906664 0.00020671464 0.09984786
degree 0.15114295 0.62721795 -0.020233609 0.74215585 3.0607815 0.4387208 1.5720096 0.19568549 -1.274715 -2.0169964 -2.4545639 -1.5701674 -1.5890348 0.81963545 1.9308027 -1.0155907
internet -4.5269394 3.0014472 2.5768309 -2.106657 0.04668968 -1.6607742 2.2763975 1.2624807 0.15653329 -1.1849655 -1.2355037 1.3958166 1.0686387 -1.3220567 0.41702133 1.125328
familiar 0.3793706 -0.86231285 0.3478853 -2.9198098 0.7779129 -0.941751 -0.6064881 -0.3144723 1.5576175 -0.46623793 0.5422358 0.111767076 0.6276099 0.5123117 -0.19180083 -0.35555062
centralized 3.0071106 0.86504036 -2.526944 0.82763875 1.4862301 0.56395525 0.80187553 -1.4496517 1.5616038 -0.94096816 -0.1166841 -0.8676531 0.83901316 -0.5110108 -0.37916076 -0.58820933
updated -7.524076 0.8764812 2.6391735 3.500172 1.3931568 3.1310933 -0.07204282 0.11446131 0.8736116 1.5552707 -2.2281682 0.5895348 -0.2865446 -0.5221003 0.60733736 -0.2317942
march -0.77373254 1.4115697 4.097713 -2.705369 -1.6261979 1.020881 1.7538903 -6.0374136 -4.7107515 2.5867121 0.08632582 -0.9160841 -0.42020887 -0.029989239 -1.6642665 -0.741695
opinions -0.6296654 2.5215569 -2.5505526 -0.75549203 -1.0586659 0.60853493 -0.54996353 1.1371434 0.3171666 1.3296678 -0.92229897 -0.9160293 -0.11330482 0.260188 -0.27461678 -0.03451974
around 3.1338446 -0.16672465 0.35344553 -0.94539475 3.432044 1.1871402 0.85540986 -2.0310252 0.5556598 0.5221348 -0.03423029 -0.49442258 -0.7571345 0.020050982 -0.37391576 0.6544715
host -2.7282102 4.3709984 7.7705936 3.117931 1.5524364 0.367111 -0.7191337 0.6076777 1.7544937 -0.27558243 -0.7480133 -0.12066762 0.9559434 0.07223504 -0.5095041 0.21570851
with 2.9531841 -1.973859 -0.8006697 1.7700565 -0.31943694 2.0230062 1.5908325 0.19958878 -0.47013682 -0.011170581 -1.8094696 -0.19203813 -2.0538354 -0.984928 0.027229242 0.90510744
change -0.657025 1.7266527 2.275546 -1.2799271 -1.5790222 0.20707533 -2.8530564 0.15430796 0.15726632 -0.021373125 -2.125274 0.7704551 -0.7672529 0.5949035 0.9169415 0.4700732
benefit -0.36672363 0.9998449 -1.3318201 0.052538328 -1.3560703 -0.44037312 -0.7863085 -0.1654031 1.3179709 1.4434652 1.175256 0.81406325 0.5269742 -0.6265146 1.1791036 0.15118217
plants -2.5646193 4.7274513 1.3793558 -3.1814198 -0.9014962 -0.9481089 1.0642 2.116755 -1.3089999 0.72893596 0.567195 1.1520257 0.49481717 1.1606514 0.4143032 2.610658
way 0.57372475 -3.1600213 1.5332814 -3.3343384 -1.0411319 0.51407474 -2.7917898 0.78950965 0.60330296 -0.28555998 0.25628212 -0.4012955 -1.3932899 1.7072285 1.4197197 0.96795416
not 1.699649 -1.950624 1.8733038 -1.8985256 3.6792297 -0.80909854 -0.3044163 1.0007643 1.92442 1.3875517 -0.42282447 0.58593893 -1.1796277 0.16166738 -0.24469273 -0.92938316
january -0.33778363 0.86228335 2.8972287 -4.2764373 -1.1705955 1.1935534 1.5492355 -4.919946 -3.6616113 1.7504289 0.59264594 -0.6492857 0.9962861 -0.71935534 -1.2754852 -1.9647493
receives 2.246872 -0.002684733 -0.0116657 1.8806034 -1.0112578 -0.5264315 0.20387866 0.47971022 0.5425679 0.048810963 1.7639729 -0.010584859 1.2305722 -1.2874311 0.2895738 0.42054766
producers -2.4920475 5.4707255 4.223269 0.85403645 -0.78757024 -1.4084667 0.07052746 2.0884933 1.704665 1.1496258 0.32394448 -1.7168269 1.0200468 2.0712569 -1.9531565 1.3604307
savings 0.059737004 0.7475304 -1.8543235 -1.6113986 -0.010503628 -0.8851331 -1.4466699 -0.7458619 0.65361816 1.6759443 0.07581712 0.4952784 -0.30614996 -0.8405461 1.7248987 0.71050686
creation 1.0180012 0.7123453 -1.1051577 -1.005354 0.037189867 -2.2879102 -1.225258 0.24729718 -0.6884602 0.45408034 -0.9450199 0.34096777 -0.16727102 1.6860052 -1.1303804 -1.5475863
get 4.514388 -2.158127 0.4970789 1.8158329 -0.6324993 -0.04891658 -1.5956697 -0.17259827 -0.3694771 -0.5997293 -0.32873112 0.47721165 -1.6742588 -0.20436029 -0.3029505 0.7245816
those 1.7488368 -2.2363925 0.30327094 -2.7546835 1.0536896 1.696907 -0.5656111 2.28495 -0.27563992 0.9479512 1.1350709 0.6396983 -1.310486 0.43976945 -0.79722697 0.6939894
viability -5.5829434 -1.8323538 -2.011984 -1.9994993 -3.6034207 -3.3890557 1.7355769 -0.11929984 0.64341915 -1.3606483 -0.8599851 -0.6128563 -0.6790662 1.9284362 0.36572316 -0.2623751
regarding 2.923878 0.2725019 -1.1482692 1.5813769 -0.13146341 2.0432181 1.8787043 0.7270036 -0.63262963 0.060971137 -0.8335768 -0.30578786 -0.33478642 0.104124 -0.4445777 -0.042778313
plans 2.2255437 0.6213653 -2.6361969 0.24282998 0.3600112 1.4324595 0.3231281 -0.5496737 -0.16943179 0.962547 -1.0443559 0.6700555 -0.53930503 -0.1748586 -0.36864644 0.4995076
time 1.8700365 -1.7737604 0.63627905 -2.4561734 1.3427055 0.5800672 -1.9758303 -0.4802715 -0.38824522 0.30399275 -1.5753988 0.38970712 -0.7585046 0.71351904 0.7135512 0.40129995
and 1.1215166 -1.6672584 -1.1120596 -0.69433975 0.48150304 1.0195521 2.1793008 1.9815906 -0.8182663 0.7367452 -0.14320064 -0.4031631 -2.4881387 0.113303326 0.10405656 -0.18600649
offers 1.2732174 1.0176579 -1.8172959 0.44911376 -1.7324549 0.14874567 0.70369726 0.8553522 -0.046413995 0.7986121 -0.4105362 1.3222572 0.6617889 -1.0823035 -0.04635773 -0.19868435
fully 2.282981 -1.8922356 -1.2312822 -1.7601556 1.6970953 0.70296764 -0.12804063 -1.0647624 1.592506 0.8670043 -0.22659597 -0.073788635 -0.30635962 -0.1363412 -0.3887939 -0.5690722
access -0.72413075 2.731047 0.48771152 1.4948299 -1.1336707 -1.1366427 1.9769943 -1.0338701 1.8949758 0.46121576 -0.95036227 4.734173 -0.42992127 -0.6081103 -0.24248919 -0.26174298
points -11.064438 -1.000092 3.1177094 4.648645 2.3249173 1.679538 -3.3333516 0.7745076 0.19720028 3.4070165 0.16945405 -1.6096094 0.6665129 0.93993837 1.5711739 0.81419164
investment -2.64687 1.460811 -3.0731695 0.5104722 1.3936013 -1.2805177 -0.47793755 -0.54712796 -1.936861 -1.199074 -0.3370948 0.29362845 -0.3650708 0.18403275 0.94627655 0.16431595
options 0.546787 1.1427513 -1.9232204 -0.6693904 -1.4924035 -0.9020212 -0.31678936 0.005380184 1.0147816 1.8786839 -0.962724 0.36759108 0.40014237 -0.3115344 -0.73681355 -0.020796238
installations -0.93365353 4.3517575 -1.6637448 -0.89296716 -0.95381117 -1.4942008 1.0601133 1.2486529 -0.38849694 1.3778756 0.005838245 0.8758125 0.96157914 1.1949953 -0.33106962 -0.2311448
costs -1.2029175 1.934246 -2.5306246 -0.81823033 -2.0534282 -0.83776087 0.28941756 0.616026 0.1844102 2.050232 -0.1397231 0.08585975 0.18121727 -0.4612027 0.67680764 0.37815982
from 2.4771607 -1.4479266 0.20107593 2.072612 -1.0541862 1.8555644 1.6733781 0.3288639 0.28270447 0.11667916 -0.925478 -1.6185213 -1.6000743 0.016671488 0.078830674 0.8021643
who 2.8820183 -0.906072 2.857736 -0.011297503 5.335837 -1.5791656 -0.39064515 -0.06964306 0.47391507 0.017316245 -0.6543953 -1.3500414 2.941504 -1.1999743 -0.6408664 0.51014584
create 2.6779501 0.12163635 2.5592697 1.7641264 -1.6688712 -4.896285 -2.3940227 -1.4565347 1.3844754 -0.4203364 -0.7043369 1.191117 -0.01952674 0.279719 -2.975255 -0.3506653
dependable -9.675891 -5.5454364 -2.286418 2.6784801 -1.128553 -1.1877304 -0.8843857 -1.253538 -0.4768377 0.16160008 0.06370634 -0.27255645 1.2762153 0.73695564 -0.43466386 0.53846705
uagc -7.004346 -0.127433 2.825833 -0.8371697 -1.5152595 -2.224803 4.790153 -0.6150197 0.78431875 -2.7778711 2.055893 -0.4996897 3.4031627 0.3611269 -2.7075381 1.8574828
return 2.361647 -1.4068727 2.411655 2.5660634 -2.6518552 -1.7701296 -1.6409664 -0.785953 -1.4085757 -0.3496875 0.56495094 1.0640285 -0.7677289 -1.2427952 0.5798821 -0.03305389
charges 0.5495844 1.8079054 -2.4322536 -0.10241524 -1.8025578 1.4266526 0.14811946 1.0039067 -0.49793887 1.5601072 0.33017886 -0.5351117 -0.018162873 0.67966396 0.0835495 0.9071629
exists 1.6360817 -1.5004694 0.3660736 0.8672758 -2.9354203 -1.4886878 0.57313067 2.3892257 -0.0062256693 0.34035295 1.2109114 0.96217513 2.7789037 0.59142894 -0.3788119 -0.6127602
you 1.9391651 -2.0877087 1.7830833 -1.0543098 0.7392933 0.0883843 -2.0660055 1.6633673 0.17840089 -0.44390836 0.27234542 1.4856371 1.3104299 0.6377468 -1.4051709 0.85437053
come 2.0818338 -2.8245757 3.9517252 -1.1122403 0.51482964 -0.63963777 -1.222302 0.13509592 -1.3861091 0.029373229 0.028472489 1.9667253 -2.5781534 0.99445224 -0.77106243 0.37523475
own 1.3437109 -2.9075994 -0.45210135 -0.73386633 -0.6825968 1.028764 -0.52797323 0.6773429 0.19074106 1.477147 0.9761363 1.7164464 -0.36621147 0.2831368 -0.33378467 -0.10871851
initiative -3.4803758 -0.55920815 -2.761285 -0.3707329 0.7868826 0.321695 0.48635766 -1.4188619 0.036186278 -0.7867491 -3.1827378 1.3989573 0.19136271 0.3250395 0.98234224 -0.40266472
that 2.2075486 -2.052162 2.395552 -1.1604599 3.1924262 -1.9404092 -0.77697074 1.2329636 1.5757749 0.63464236 0.74072677 -2.3895152 -0.9914442 -1.6093249 -0.85695 0.46453816
state -4.9896812 0.8252754 2.0576742 0.7630921 0.90002906 2.6535687 -1.461439 0.51902694 -1.6892103 -1.822741 2.2866433 3.2851462 0.16107158 0.24800816 1.7786647 -1.2663153
doors 1.0717671 0.34324285 -0.5769705 -2.6050222 0.032485735 -1.0457681 -1.5969592 0.49326774 0.7701582 1.3896313 0.08590056 0.5589563 1.6851605 1.4141399 0.1414684 0.89674914
format -5.839025 0.4507406 0.16152786 1.3196185 -0.044951063 1.7363484 -0.37063703 0.0662121 0.051595632 -0.67206293 -1.4236449 0.5392205 -0.7158698 -1.5979086 -0.029505255 -1.5172418
sources -3.3767152 5.834141 7.182108 -0.16935866 -3.3235013 1.1890864 -0.50697523 3.3232067 3.187111 4.0816126 -1.2066665 -2.3694448 0.029667715 2.5127842 -2.105905 1.9926713
expedite -9.255042 -3.8541455 0.29468828 0.6902925 -2.0851915 -2.6482315 1.8845803 0.75344515 -0.31840453 -2.7449431 0.42971063 0.5249751 -3.308631 3.1736774 -2.115899 0.7547433
incentives 1.2937354 1.920395 -2.947634 0.30447644 -0.9357323 0.09552508 -1.2459596 0.6937357 -0.13519464 0.5320881 0.4221119 -1.9835714 0.40874836 0.43065864 -0.62769306 0.112955846
used 0.9274857 0.30875942 0.5201325 1.2716941 -1.9295139 1.1965369 0.5965562 -0.14384125 0.56355256 0.3759788 -0.7541682 0.58253044 -0.9875273 -1.7693508 -0.5905135 1.1178348
active 2.1646035 1.5954044 -0.054727558 0.44557825 -0.08352178 1.2862659 0.30917105 -1.8611678 1.7427484 -2.2669628 0.671049 0.14436983 1.2178926 0.16769747 -0.43293223 0.26502004
two 1.3673433 -0.49197382 2.3142982 -2.1603205 -0.065811135 -0.29024467 -1.1571189 -1.0157801 1.4256876 -0.8417362 1.9820582 -2.623931 -1.7366475 1.3925806 -0.9131879 0.7775173
sealing 3.3442647 0.14781901 -0.82364416 0.13141173 1.3622363 -0.84236497 -0.6979045 -1.5182704 0.70407784 0.91948205 1.315397 -0.903006 0.4525086 1.3379385 0.7528879 0.21722637
executive -0.77659726 3.5463803 -0.7063603 0.21430789 1.5501887 0.5538546 0.57320523 -0.46540833 1.0770874 -2.439362 1.1361248 0.14822465 0.7484699 0.16092783 -0.04382075 -0.2066004
world 0.8831396 0.59924626 1.8223777 -2.7425854 0.14394693 1.3538783 -2.0700476 1.0833603 -0.5317055 -2.096406 -1.5421661 1.1584958 0.27235758 1.8665241 -0.43415388 0.08300169
april 0.33670777 0.95006317 3.0196533 -2.4604025 -0.567772 1.1431018 2.1464474 -5.329397 -5.1079345 2.2738562 -0.6241046 -0.48727575 0.698409 -0.80767244 -1.1831131 -0.8340719
clients -0.3824144 1.5955244 -1.5073825 -2.1308944 -0.9235019 0.33419052 -0.7028652 0.34841785 0.8635817 0.88291526 -0.19161421 1.2267333 0.52289784 0.0033841277 -1.1624523 0.49549216
flat 3.4026542 -1.1773496 -0.42635003 1.4533623 1.1024581 0.7799632 0.6611401 -0.8760873 0.6843493 -0.49510223 1.5740622 -2.3162704 -0.44740734 0.4758881 1.4692057 0.9442003
rt 2.690419 0.039859325 1.1369405 1.2534451 0.8669221 1.0765728 3.2873394 -0.17263424 -0.0466282 -2.172724 0.32011977 0.017532947 2.502033 2.6542048 0.1077131 0.8996472
specific 2.7608073 0.3441339 -2.1657917 1.4915044 0.7755284 1.9806734 0.49413714 -0.35780472 0.16480961 -0.9980795 -0.33305165 -0.069460005 -0.48990613 -0.22114478 -1.1863698 0.30432332
good -1.7655067 -1.7215703 1.9620017 -3.2770646 0.47403738 -0.46466807 -0.52482086 0.27155375 1.3114526 -0.29948106 2.3394423 -1.4211754 -1.1300998 -0.66987073 0.5663288 -0.4817445
recommendation 0.8902533 1.129034 -2.1108606 0.282852 -0.5975484 0.9555273 0.10641508 -1.3945715 1.4900807 0.19575451 -0.8601611 -0.4866425 -0.4826047 0.22574283 1.0368779 -0.68985754
step -0.08375876 -1.7726018 0.5254014 -3.1244028 -2.165292 0.5075585 -0.4928841 -1.9808731 -0.252744 -1.5437646 -1.203256 0.14470291 -0.4867513 1.6451187 1.8487563 0.16689855
find 2.1635473 -1.8269159 3.1776142 0.9852709 -1.5712602 -2.798704 -1.7176219 -0.4811299 -0.13805513 -0.78109336 -1.070908 0.9949761 -2.1040835 0.11608632 -0.2280835 0.05804044
illustrates 4.2431874 -0.022648009 -0.58726233 2.510898 -0.38851607 0.47397473 0.99001384 -0.43561468 0.042458564 0.9196111 -0.23895624 -1.4272971 0.39174548 0.47204125 -0.61526763 -0.4568226
action 0.4293153 0.5851216 -0.83143306 -0.6082716 -1.4889243 0.7569964 -2.4589565 -0.34168527 -0.16662736 -1.3518125 -1.3038229 0.8486335 0.2636564 0.9988911 -0.190898 0.06824299
utility 2.7199817 -0.20809849 -0.8201031 2.613081 -2.485241 -2.4301019 -0.84828264 1.2028345 -2.252726 -0.3413266 0.2580618 -2.3876169 1.0442324 -0.9633186 -0.014246853 -0.6522901
well 1.0828534 -2.8697727 2.3218215 -2.763288 1.0464588 -0.43088362 0.49941614 1.0858583 0.54403585 0.31528366 -0.5064835 -0.81774014 -0.063737296 -0.1758498 -0.13858752 1.9029917
have 2.8097618 -4.3541107 0.57534826 0.5517169 -0.9576774 -0.054623403 0.48038393 1.6916711 -1.7180647 0.58102113 -0.07075507 1.555938 -1.8188643 -0.753036 0.4734885 -0.13103889
must 2.1789615 -4.3764443 2.5371802 -1.4415026 -0.57551986 -1.3558977 -0.79061085 1.7283694 -1.2433482 0.798726 -0.22465919 1.0302973 2.0586424 -1.6142702 0.2183115 -0.31255817
difficult 2.3099928 -0.59711504 -1.6600076 0.39861587 -1.2522799 1.4054666 0.29402027 -0.24596064 0.059741627 -0.48122078 0.25894272 -0.22058345 0.096039474 0.6905255 0.7311711 -0.88749754
unaware 3.823611 -1.1394591 -1.8204721 1.2744876 0.041518807 1.3779137 0.8270935 -0.07552817 -0.46169543 0.54480636 -0.029251639 0.09682732 0.58827835 0.8879141 -0.18559805 0.087076284
standing 1.5567635 0.3184492 -0.63405615 -1.7227457 0.98732406 0.62534964 -0.11792194 -1.3453848 1.3410828 -0.44457385 0.17250933 0.8503659 0.43678147 0.24853113 0.7870005 -1.0017359
be 1.7320416 -4.818026 2.160899 -0.20234896 -2.239506 -2.024085 -0.79794544 1.703756 -2.117002 -1.3924806 1.0215063 2.8484416 -0.089424886 -0.10648327 0.45211157 -0.24459998
supplier -2.8758736 5.5034614 6.4706745 3.7504537 0.5919793 -0.25769487 -1.3424096 0.90936583 3.3299496 1.7319092 -0.04212453 -2.0226092 -0.6202714 -0.810197 -0.50951654 -0.25937337
consists -1.5862926 -0.3568201 -1.0224308 1.5649492 -0.34034714 0.7619523 0.21984488 0.3472674 0.23480766 -0.6727512 0.19909473 0.047511794 -0.46907586 -2.8264809 -0.63867193 0.85445523
contracts 0.21879065 3.0091212 -2.9946434 -0.5921041 -1.4777635 0.508493 -0.20036808 1.4660801 -0.674216 1.5636524 0.85833526 0.14512329 0.76335263 0.4949366 -0.9342081 0.2455701
finance -2.6521575 5.263368 -0.36599904 -1.6954577 0.027906742 -1.5184765 -0.97844 1.310246 -3.2810621 -1.1491386 1.7427485 -1.3963487 -1.0169182 -0.001822615 0.16177411 -0.66989225
traditional -2.3585176 1.3164135 -0.5093762 -0.8694214 -0.7462877 0.9594612 0.65972686 -0.32956833 1.3378747 -1.3218101 0.9529016 2.412726 0.09960736 0.19675653 -0.5091847 -1.7709769
giving 2.947376 -2.605116 -0.083187275 -0.5460682 0.29500195 -0.6979772 -1.4848281 0.04640312 0.4012118 1.5773623 0.6054649 0.22479264 -0.97252524 1.0752534 0.39955232 0.22920497
impact 3.0865636 2.0344377 0.27479127 -0.13888893 0.9920071 -0.81812185 -0.85396135 -1.6013905 0.7718549 -1.384794 -2.9101255 -0.6476127 1.7839088 0.61948866 -0.7774628 0.8860751
unlimited 1.9242314 -0.10671856 -1.6023685 0.047670435 -0.20103233 0.14324489 1.2303863 -1.4174597 1.4954708 -0.303491 -0.5072808 1.0149552 0.2626774 -0.39775094 0.41528463 -0.9899749
no 1.8849813 -1.3873044 3.59174 -1.5263796 2.1378982 -1.8762226 0.18834777 0.3640716 1.6201191 -0.6439862 0.80754375 -0.07934256 2.539614 0.29709417 -0.05199333 0.21064986
generate 2.9845514 1.3888149 0.39471745 3.3615677 -1.4807316 -3.4150114 -1.7243316 -0.96065503 0.8259645 -0.026908662 0.6988115 -0.45908973 -0.56942296 -0.8119771 -1.3693904 0.20209998
year -6.667696 -1.5266042 3.4906027 -0.26591575 0.17803317 2.9956958 -1.5139176 -0.5982404 -2.4680054 -1.8551501 -1.0375532 -0.109211944 0.46649584 -0.54861736 1.006186 -2.4323485
current -0.22833855 3.043323 4.7529383 -0.3225345 0.5086058 2.4377325 0.9179762 -0.7175999 0.77357435 -2.1920154 1.3452891 0.60673726 1.0328832 1.1078024 -0.90325636 -2.270976
option 2.342525 0.096851155 -1.1427497 1.7038152 -0.20643455 -0.30625263 -0.4804213 -1.4945283 1.3226627 -0.2535946 -0.393974 -0.8882997 0.5457148 -0.834935 -0.7396577 0.8308487
grid -7.3838162 2.711788 4.525099 1.6804421 -1.1817217 1.0567123 -2.517799 0.79606754 1.9484277 0.3139225 -1.0720392 -1.4956771 -0.696719 -0.94220436 2.8213499 -1.3486477
contractual 1.9150803 1.3940516 -2.7228506 0.99693906 0.0949724 -0.068645895 0.8424262 -0.055047106 0.76621366 -0.27510473 1.1195043 0.05936202 1.8605958 0.711249 -0.23533101 -1.0886033
only -0.53280765 -1.335419 1.3973821 -2.8520665 -0.008026814 0.3692173 0.502716 1.3917996 2.12716 1.4408926 0.4268449 -0.11652951 -1.8424346 -0.4975592 -0.54441625 -2.1215281
cheapest -6.8807282 -1.9197685 -0.56899583 -2.3742456 -0.93074673 -2.1920831 1.0236241 -1.7271514 2.882286 0.10184571 0.8605549 -2.163041 -0.91449976 -0.69291127 0.5711055 1.0200677
leaders -1.9119898 2.6328037 1.2999517 -0.19269258 -1.0484767 2.6843126 -2.1817334 1.3054808 1.78614 0.12496754 -0.15325531 -0.967955 -0.594053 0.48802298 -0.6583285 -0.8160536
provided 0.4812631 -0.326551 2.1515148 2.158557 -3.818342 -1.9364896 2.63391 2.2035668 1.0256131 3.468915 2.604228 -1.3353176 -1.8651726 -2.6162753 1.1543951 -2.7526107
full -0.42372692 -0.91605663 -0.36383444 -2.2408528 -0.49738646 1.1388315 -0.45110142 -1.1850964 1.2124475 -0.36492565 0.45602256 -0.41816726 -0.54530764 -1.6093669 1.1317694 -0.04093651
goal -1.4043115 3.4652607 6.072786 1.1832836 -1.8193097 0.16580857 -2.4170363 -0.4218338 -0.39336956 -0.09296071 -1.1952367 -3.2181976 0.39496648 1.2188259 3.9942498 3.8477545
which 2.5811203 -1.1413599 -0.303642 0.71607375 0.99728566 0.60663366 1.7139722 1.6701622 -1.1545957 0.68391585 -0.1597167 -0.7817565 -0.5606896 -0.4977807 0.3997587 0.07852271
through 1.5203856 -2.0509286 -0.65282285 -1.3441447 0.81622624 1.3407922 0.8508529 1.0825619 -0.1218366 1.1531078 1.1224848 0.22107002 -0.9523889 1.9836482 0.7059311 -0.68695074
weatherizing -5.046555 -0.012645582 -0.13191944 -5.019906 -3.877959 -1.0652947 1.2586287 -0.40542555 0.9208355 -0.9568319 0.55710536 -0.7170891 0.6034415 -0.869623 0.8809533 0.61915886
overcome 4.4002404 -0.67686355 -1.1450976 2.3860953 -0.14956973 0.012780803 0.13890624 -0.074135415 0.0056790784 -0.9399263 0.014261167 0.31819013 1.0480316 1.1412979 -0.34508333 -0.9577289
seeks 5.364811 -1.4753991 0.07274536 2.3938584 -0.4460886 -0.22477601 1.6197298 -0.081893854 -1.7529805 0.52142096 0.038521174 0.14616744 1.3087705 1.1901138 1.1673031 0.2639427
this 2.8075101 -0.4174092 1.573567 -1.088298 1.7322385 0.7863333 -1.0624222 0.42554685 0.31979677 -0.9742766 -0.34099874 -0.09159882 -0.4233083 0.8387872 -1.6089973 -1.3715677
highlight 0.49323893 1.422433 0.2829067 0.6555352 -0.3569783 2.1142597 -1.6231925 -0.2503607 1.7547164 -0.53955 -1.2188828 -0.015717637 0.48622152 -0.37533027 0.15846545 -0.65613085
fees -6.344332 0.54637843 -1.95486 0.47242603 -1.2639283 0.07469605 -0.48224932 0.57626325 0.76301074 2.5135458 0.49426806 0.60416245 0.54600555 -0.32741752 1.13477 -0.10498412
section -0.8471006 1.5138416 -2.0258477 -0.3549571 -0.8846881 1.641191 0.117268175 -0.16437131 -0.06626078 -0.7769431 -1.3357544 -0.8992296 -1.0274924 -0.49143168 -0.5763648 -0.010513716
sections -0.64143544 2.6946018 -2.2562766 -1.0894175 -1.046887 1.2665912 0.08869712 0.89170516 0.011676076 0.932269 -1.475334 -0.21122359 -0.15866405 0.20648292 -1.1023222 -0.38520548
meter 2.366276 -0.4715152 -1.5223706 0.51085144 -0.120779164 1.6268575 0.78946906 -0.6340544 0.55741024 -1.5761727 -1.8247664 -1.3851075 -0.4205105 -0.35952115 2.0400906 0.7971962
total -7.844544 1.0469902 2.066169 2.453308 1.3113165 3.1516333 -1.9374375 0.7855844 -0.82501525 -1.1837913 0.34024885 1.5174797 -0.1769075 -1.539497 1.537862 -0.65283126
decreased 4.1083407 -0.84434426 -0.98660123 1.8956652 -0.4328033 0.28492832 1.0084234 -0.99973655 -0.078825675 -0.12359145 0.68823266 -1.6670009 0.79633844 0.7002206 1.4458846 0.47633243
coal -1.0057865 3.378685 -1.7618009 -1.1517779 0.77517825 -0.1402101 -0.2745169 -0.046069697 -0.9410265 -0.9860215 2.5993383 0.5747665 -0.1955992 -1.6477259 0.81306165 1.7111436
prior -0.5207109 0.70009696 0.15784979 1.3273994 0.5253569 2.6120987 0.89370114 -0.014879226 0.8798956 -1.7307694 1.8425945 -0.45804286 2.0053983 1.1367053 -1.0431546 -1.2325525
by 2.2890344 -2.1409798 2.0576987 1.1234453 -2.5456991 0.65415573 2.214741 1.8021543 -0.09848815 -0.68917155 -0.33763015 -0.13045377 -0.37611398 0.21243556 1.0217395 1.0005854
buying 3.9473758 -2.2082746 -0.81196207 -0.22577949 0.4392682 -0.06830036 -0.93694323 -0.3536338 -0.12692375 0.706302 0.68382806 -0.8081185 -0.43954644 1.4665935 0.47306868 0.6913656
will 1.5716553 -3.5160944 1.0079885 -1.721107 0.46289098 0.13953334 -1.0846212 0.82959664 -0.5289676 0.860779 -1.0183203 0.9887317 1.1839774 -1.655323 0.87151843 -0.07460866
are 3.0334017 -4.081643 2.6989698 0.8822512 -2.700033 -0.5120518 0.11034938 2.7341466 -2.089287 -0.95355844 -0.30011928 0.21666959 1.1136895 -2.413472 0.041680053 0.083617784
when 2.6487353 -2.407244 -0.118228376 -1.1286587 1.6957076 -0.2201122 0.3846924 0.63157123 0.5250353 1.5083201 -1.2206216 -0.5722887 -0.79875106 -0.8953651 0.14224261 -0.25668606
maintain 2.339566 1.0042094 0.49658883 3.6768615 -2.435576 -2.3184698 -1.3609375 -1.1454211 0.42502737 0.96479803 2.3682158 1.7490704 -0.15037592 -0.34309414 -0.29078048 -0.8207025
representations 0.28001696 2.3274193 -1.9109343 0.7258575 -2.2900386 -2.3061404 0.3701306 2.6462374 -3.0479453 1.0122366 -1.1722654 -2.147388 0.8628546 -0.1197769 -1.3679408 -2.2251337
customer -2.0547523 0.33844757 -0.4400421 -1.7207925 -1.2454246 -1.2314638 -0.72463715 -1.1621804 1.4562055 -0.5373111 -0.042293675 1.3565048 -0.1594845 -1.351333 -0.13210623 0.60189927
one 1.9298539 -0.7880252 1.1799064 -1.0750022 1.8343105 1.0197852 -0.8438091 -1.2825962 0.97701406 -0.7710213 2.068068 -0.7423064 -1.910543 1.6606269 -0.7606778 -0.48981544
local -0.9638214 1.5928993 0.8771622 -0.19493905 -0.6498157 1.5433558 -1.6273097 -0.17715904 1.3531228 -2.3131547 0.97139436 1.1319436 -0.07812166 -0.88878953 -0.2805277 -0.46894202
undifferentiated -9.359879 -3.6277404 1.1220422 1.6788998 1.3337473 -0.7905738 2.9501765 -1.3876034 1.2040291 -0.8882474 1.2963327 -0.1588386 0.14798285 0.21295571 -1.4116163 1.934938
various 2.0860572 0.2719271 -2.1774313 0.5035135 0.98038816 1.1435609 1.2379823 -0.16289063 -0.15005985 0.17202005 0.34992096 0.4153505 -0.19594026 -0.5932661 -0.9542684 0.7458857
electricity -3.235023 4.7455378 0.23780555 -0.6190941 2.913814 -1.5287095 0.5858082 0.7713257 -1.4846774 -0.8719655 2.821229 0.9213684 -0.58160746 -1.1953473 1.5506551 2.246449
per -0.8574129 0.07913977 1.3879102 2.752745 -0.42449704 3.0267503 1.8552748 -0.17286505 0.49320874 -0.94087994 -0.760752 -0.13956115 -0.76733756 -1.8873298 0.14453396 0.52618235
above 1.9964972 -1.4472173 0.27739552 -1.3789676 0.9444811 0.34719703 0.5269974 1.1070065 1.02785 -0.1615325 0.7238488 0.20295502 -0.60154474 0.7469847 -0.25927448 -0.6871208
expedited -6.3854003 -2.1155994 0.33152732 -1.188227 -4.0346985 -2.6933277 2.9853063 0.6147456 0.7694376 -3.428631 0.7525696 -0.452022 -3.0945446 2.2400753 -1.3291249 -0.012738575
its 3.3194835 -4.284891 2.183301 0.2586161 0.3954035 -0.21991022 1.8652322 2.0986233 -0.62505805 -0.5231399 0.87095267 0.50245875 3.739241 -0.46548063 0.36350065 1.0839456
between 3.394342 -1.0602202 -0.077210136 -1.5028981 3.780985 0.16297786 0.89850014 -0.6878803 -0.36759427 -0.050771423 0.051830467 -0.87831336 -0.16830313 1.010513 -0.090003885 -0.51360154
make 3.629837 -1.5676836 0.19414575 1.6638607 1.1353682 -1.5487095 -0.93330365 -0.93884754 -0.46524912 0.7006917 -0.4765444 0.5001607 -1.5859514 0.06660742 -0.5043334 0.5624431
style 1.8286749 -0.53751445 -1.1769799 0.1224178 -0.75725657 0.9113353 -1.3681723 -0.708652 0.3032258 -1.1718507 -1.4771998 -0.12858826 -0.52934396 0.6214856 -0.04225857 0.34746954
proposal -1.1483748 1.4342551 -2.4814684 -1.2796111 -1.8176723 0.30146816 0.51526713 -0.93583596 0.2164421 0.03902399 -1.0636586 0.9015675 -0.19296186 -0.83085537 1.1073347 -0.2769484
such 3.0449152 -3.408438 0.12913117 -0.6145049 2.677664 0.24316777 1.2050859 1.8152516 -0.43822685 1.2279294 0.5395799 1.0319132 -1.7076832 0.6048693 -0.504586 0.13337086
june -2.8851523 0.115746155 2.7284827 -3.3052526 -1.4376688 2.2555087 1.2720642 -5.077275 -4.671552 3.5777128 1.7711804 -0.12617052 0.09231195 -1.8031996 -1.7210644 -1.1035414
distributed 1.1709348 2.7341774 -1.070361 1.1296747 0.8826676 -0.75461924 -0.16017933 -0.77814996 1.5152013 -0.39452556 0.6999463 -0.39101622 -0.2622536 -1.5441831 -1.2831846 -1.2697378
some 1.275155 0.900283 -0.6582492 -0.55555284 2.3159811 0.87000006 0.47284707 -1.0837506 0.9656409 0.47065157 2.1992795 0.27061126 -0.92191595 -0.55531514 -1.5584345 0.96979606
major 2.8998225 0.78113544 0.5725576 1.5060517 0.14506441 2.019858 -0.22322293 -1.0145351 1.1014253 -2.610508 2.115173 -1.8378042 -0.00017252588 1.6356934 0.3384418 0.3402633
improvements -5.465628 2.3026419 -1.1197236 -0.9112091 -0.6332385 -1.5242375 0.22241268 0.64420146 0.103314206 2.8189666 -0.8598423 -0.57203627 -0.981222 -0.28093392 2.177145 1.1025295
purpose 2.6010842 -1.3849864 0.4414869 -0.17374125 0.53857005 -1.4010797 -1.6100755 -0.11029921 -0.25343457 0.739436 -0.79960006 -0.17196141 2.4134314 0.7081125 0.57641566 0.055993542
an 2.8698251 -2.2820501 0.12927744 0.90827936 -0.23357749 1.3867478 0.9101928 1.0531182 -0.43089488 -1.4795834 0.73506606 0.06521053 0.88035595 0.4011478 0.87810975 -0.3113332
improvement 1.2941618 2.5918267 -1.820905 1.3048028 2.1026511 -2.6099164 -0.38159722 -1.2082195 -0.8953099 0.18808304 -0.13101323 -1.2059768 -1.0475708 0.065686755 1.8962681 0.78669983
center -0.19658028 0.4413875 0.6886078 0.5799389 0.23726873 1.6340287 -0.9662826 -1.1965896 2.012797 -1.2538083 0.42212054 -1.3784659 -1.0236235 0.29526794 -0.39526796 0.11977982
adequate 0.40557167 -0.1272274 -2.302036 0.47302717 -1.7001331 0.12073133 0.47981107 0.60366505 1.7561692 0.07277651 2.2878346 -0.19256924 0.06368975 0.07777986 2.0187378 -0.876549
internal 1.3970624 1.8249211 -0.5789627 0.16341133 0.30453202 1.6029935 -0.2560222 0.11683657 1.7269818 -0.6162269 1.2668132 -0.19666849 0.4461311 0.31656376 -0.24954973 -0.6622014
may 1.3719444 0.28091413 3.153789 -1.4282613 -0.9764154 2.7778597 0.5537541 -4.3688035 -4.2766433 2.4144301 1.0817567 -0.42122293 0.5993465 -1.2889681 -2.0843866 0.06378243
solar 0.6604251 0.7816286 -1.1967549 -1.5765635 -0.080686994 0.7475968 -0.50216925 -1.2448275 1.0451903 -1.7474712 0.24057579 0.7149041 1.0080192 -1.3816128 -0.3704786 0.37819088
accomplish 1.8449761 0.5366714 1.1957202 3.255914 -2.3342714 -1.6485933 0.566415 0.17608336 -0.18453538 -0.6344286 1.6985097 -1.9898905 0.6966464 0.91672695 0.63495773 -1.8942052
country -7.9951696 -0.010504389 4.9223146 3.4581943 2.8994074 2.3519387 -1.5288606 -0.4253648 -1.9869282 -0.64049935 -0.6553197 -0.21564752 0.7089581 0.86851275 -0.8404056 -1.0001695
separate 1.3240938 -0.27714264 -1.184347 -0.3598132 -0.545833 1.1324252 -0.75277585 -0.7116019 1.0828798 -0.26203266 0.40292376 0.9708192 -0.07428494 -0.62602794 -0.4622672 -0.40986568
increase -0.82177365 0.8493048 -0.14744464 0.026099175 -0.5893523 -2.6017873 -0.5613173 -1.8180741 0.11053264 0.29274377 -0.37535432 -0.099199325 -1.681228 -0.86715466 2.909124 0.80418396
system -0.8885526 2.452439 -1.6032305 0.3084512 -0.72459877 0.29891863 -2.153169 0.58983004 1.3185028 -0.6205275 0.46615532 0.1262058 -0.2731416 -0.836076 0.5087203 0.090784915
so 0.6054008 -1.6441463 2.1595843 -2.87033 1.3775182 -1.3199054 1.157524 1.2555242 -0.2622037 1.47719 -0.8133636 -1.2083201 -3.3721018 0.7474733 0.5724133 -1.4597807
steps -2.507128 0.18976921 2.011221 -4.83147 -2.5334172 -0.46366784 0.788661 -0.3695656 -1.0758818 0.10314886 -1.5798906 0.25329763 0.26051143 2.8760426 2.6234028 1.1250001
analyze 4.011866 -0.13415512 -1.7168643 2.1178567 0.45901337 -0.25296593 -0.07038889 -0.31576428 -0.9192116 -0.52905935 -0.3301936 -1.5880322 -0.5990681 -0.016266964 0.19821507 -0.18900664
to 4.213989 -3.1204467 3.4469376 0.7122001 0.5804868 -0.69600546 1.6044147 1.5412161 -1.5018378 -0.37785962 0.42774987 1.0617782 -0.4355228 2.8049958 1.8296541 0.53234947
generation 3.2676146 -0.35608718 -1.5847939 0.30306685 0.74001944 0.89356494 -1.1432278 -0.8385309 -0.13582727 -0.2366535 -1.2114177 -0.19571479 -0.3319589 0.42185804 0.03754932 1.1435157
companies -1.4766241 3.1143057 -1.0730764 -1.5664388 -0.17963785 0.2703113 -0.06795079 2.5985906 -1.389361 0.07720348 0.9540005 -0.36031267 0.8658904 -0.15934946 -2.5189593 2.167513
efficiency 1.2162428 1.9511148 -1.9025756 0.32693705 0.56515634 -2.144979 -1.5502952 -0.7828366 -0.100557566 0.27445695 0.19031158 -1.3811883 -0.7540891 0.43394837 1.5320265 0.37228355
important 0.3692983 0.31938878 -1.7096484 -0.85029984 -0.7931963 0.8929299 0.10367745 1.189486 0.4329107 -0.9549037 -0.062388137 -0.47609818 0.066088244 0.2772507 -0.4485345 -0.27611881
saosl -4.7158437 -2.0205877 0.80949867 -2.2989597 -4.122793 -0.5240112 2.9719105 0.40264848 1.7151272 -3.1149652 -0.59395957 0.08778515 3.6573966 -1.4888831 -0.79184276 0.47510362
challenge 0.56667554 1.390888 2.4042602 0.31545484 -1.85084 -0.08518477 -2.2569478 -1.8809123 0.5105443 -1.7334844 -3.2683988 0.151631 0.26095667 0.9895375 0.7178119 0.44442707
any -0.19436865 -1.6565335 0.23780069 -0.6464826 -0.98472255 1.3142864 -0.30260533 1.1302643 0.35332486 -1.1845397 1.9758672 1.065081 1.5161122 -1.134103 -0.061662912 0.23448274
run 0.4055023 -1.138531 5.6040573 0.3712757 0.3703499 -3.36291 -1.925017 -1.4689603 0.07347633 -1.9082148 0.49190587 1.5816157 -0.89355934 0.6799805 1.1159499 -0.33094215
waste -0.047232293 0.2651592 0.087215535 -2.6022973 -0.37417287 -1.7331009 -2.5214546 -0.84011894 0.42655265 0.6338247 0.9292126 0.32057786 -0.022768416 0.31292573 0.11975574 0.99438876
timeline 1.9549607 1.0662509 -1.2865642 -0.09717101 1.2128086 1.1910462 -0.24881786 -0.86520237 0.8512311 -0.18867733 -2.3593304 0.5715248 0.53591573 0.84508747 -1.3473594 0.2646035
us 1.0501981 -0.58963615 0.6634722 -2.41878 -0.13759969 2.4784453 -0.14203155 0.9214519 -0.94130546 -0.57977194 0.28955483 2.126459 1.3526965 1.3855484 -0.54053676 1.04793
form 1.7245877 -1.5881046 -0.3056054 0.69718903 -3.3150196 -0.8617744 -1.4008423 -0.3814243 -0.8363944 -1.1761092 -0.38362893 0.07169883 -0.33971152 0.083706334 -0.6697393 -0.8740714
all 1.4751571 -2.7568703 0.9371875 -1.5080458 1.8554223 0.5659339 0.2529471 1.1765912 -0.22872789 1.1699615 1.1498722 0.48503658 -2.8847039 0.6853329 -0.14811604 0.20667799
powering -9.516 -3.820307 -2.651528 0.39998424 0.65297306 -0.43414915 -1.4544537 -1.0125569 1.1090938 0.2073531 0.7470298 -0.36501706 0.611871 -0.5353029 -0.07937939 1.6580873
associated 2.4965415 1.2822605 -1.6522104 1.851325 1.8056034 0.68453085 1.038184 -0.0060468996 1.0063901 -0.30259067 0.50736904 -1.1217698 0.68795747 -0.27739868 -1.9802715 1.1585877
need 2.09104 -1.9893998 1.6106817 -2.2388504 1.6136167 -1.887212 -2.1882987 0.14462702 0.31738156 1.4269625 -1.2690932 1.7617259 0.24669264 0.14696503 0.12723337 0.17744824
vary 2.323468 -0.028178746 -2.6191223 0.6173648 -0.08141693 1.942218 0.781981 -1.0650802 0.36105806 0.23235938 -0.23004511 0.7141961 -0.78559816 -0.3855326 -0.1464198 0.25087345
extended 2.4832711 0.13371746 -1.3260105 0.5136174 -0.31516817 0.72598827 2.1634521 -1.1039994 -0.07284102 -0.20814496 -1.2187487 -0.06203724 -0.8239385 0.6995351 0.5493986 -1.1749587
possession 2.0855498 0.4952385 -0.6928674 -0.70274997 2.4787996 -1.8693317 -1.8748513 -0.22012389 -0.286895 1.2454228 0.21800151 -0.51839256 0.40009314 1.423736 -0.32390136 -0.55253595
absence 4.911788 -0.13886847 0.29053673 2.3589633 -0.365807 0.5042451 -0.78678876 -0.43553096 -0.6697713 -0.07338499 1.935145 -1.6356686 1.1203645 1.6485437 1.1088363 -0.36531535
services -2.6946738 4.6658087 3.0349493 2.8973143 2.4687867 -2.8619287 5.1347766 0.37755734 -1.5455534 2.3002532 0.5911296 2.7525012 -0.56991464 2.497441 0.22554459 2.3399947
course 1.6661282 -2.2324088 -1.0372324 -1.7982938 0.75062937 1.493351 -0.09871006 0.20489699 1.1399921 0.14264372 -0.39778072 -1.3582997 0.40425044 -0.76441973 -0.7046914 0.1084509
partnerships 2.2371762 2.7854192 -2.3034406 0.579593 1.3429803 -1.1756426 0.21329507 -0.5487065 0.50547373 0.92115086 -0.1224099 0.36901882 1.7478368 0.99584025 -0.49040028 -1.1083069
them 1.9838166 -1.8906606 0.16355471 -2.1062648 0.030243855 1.7579 -1.0030124 1.4233153 -0.37645715 0.08420938 0.5108808 1.2020156 0.6120792 1.2313756 -0.5455763 1.7581666
their 1.6082515 -2.7220874 -0.1465284 -1.8712475 1.0541327 1.932151 0.25358632 1.1987288 0.361447 0.8545199 0.8838695 0.51941437 1.5798972 1.0513988 0.46327594 0.20512304
give 3.2634423 -2.8741024 1.9588056 0.6363356 -0.08511365 -2.1046972 -2.6206598 -0.68726224 0.22645581 0.934674 0.20611739 1.5750761 -1.8883364 0.14886612 -0.17968364 0.4767672
below 1.7704797 0.30309123 -0.30950865 0.07746565 0.45767558 1.7143703 1.0674261 0.54792017 1.179615 0.42167327 -0.18760525 -0.4273405 -1.017146 -0.47470015 -1.1851559 -0.73905426
repay 3.5274181 -1.6073985 -0.7817467 2.0240028 -1.9254293 0.19676663 1.451513 -0.28230157 -0.86000687 0.9881048 1.53559 -0.19871572 1.3138809 0.64068526 1.8710507 -0.36422697
economic -0.6606714 3.5663416 -2.147655 -0.95119894 0.2920733 -0.49542537 -0.86258614 1.256396 -2.1947048 -1.6161926 0.5539801 -1.6501572 -0.38527447 -1.0303278 0.037767526 -0.38998628
windows 0.8127269 -0.16604424 -1.0896515 -2.423389 0.06515448 0.13096245 -1.9169414 -0.14768656 0.4827718 1.1492329 -0.2594988 0.99037874 0.37412548 0.25449005 -0.22124039 0.50284535
adapted -0.6840276 5.2768826 5.918463 2.1915636 2.3106394 -0.6410685 3.1929033 0.24994507 1.2402515 -0.26585364 -1.920591 0.8179705 -1.6470354 0.4399951 -0.57227284 -1.1759529
viable 2.494356 -1.0517024 -1.9205409 -0.48027146 -0.64180565 -0.09678525 0.6220633 -1.2510078 1.2890172 0.19574285 0.8154406 -0.54097044 0.9896538 -0.2811246 0.20877287 -0.47940114
reports 0.24704175 2.8737118 -1.0468065 -0.56917876 -1.4402546 1.1379489 -1.1863081 0.6997961 0.389991 1.3259939 -0.15799926 -0.1062541 -0.08212592 -0.06734845 0.14237222 -0.11334692
representation 0.058850467 2.046592 -2.768114 0.34283766 -0.74556714 -1.2888372 -1.1914436 0.6122027 -0.8617913 -0.64298177 -0.9304562 -1.445037 0.04466931 -0.29597518 -0.8908315 -1.7517557
optimized -11.753283 -6.1551447 -3.0004077 3.5558827 2.3528118 0.119224146 -1.5055531 -1.2733337 -0.6393262 1.0190886 -0.8338516 -0.7961731 0.91148436 0.48767424 -0.5952699 0.48165965
securing 2.254599 1.2879846 -0.31269726 1.8387312 1.6091934 -1.6316025 -0.5381219 -0.3919826 0.9682869 1.291662 1.8448203 -0.73117507 -0.7974 0.5486492 0.58760154 -1.2525475
describing 3.9248486 0.09337314 -2.0151157 1.6618651 0.39666817 0.7373804 0.8433363 0.4216335 -1.1225046 1.3174993 0.37755114 -0.7104142 -0.4749599 0.8583009 -0.09460137 -0.27143735
turbines -1.1998895 3.2941096 -2.1502194 -1.2624054 0.88139576 -0.20257714 1.7991267 -0.1062971 -0.289574 0.84862036 0.125723 0.7875264 -0.43194658 -0.13179693 1.3433338 0.6936073
years -1.7895439 -0.92231697 0.5206343 -4.258391 -2.1348217 1.5742768 -0.028117782 -0.6156413 -1.6112754 0.9107269 -0.56652606 -0.6177529 0.27242008 1.0864319 0.6082496 0.28765735
whether 0.9945898 0.7013715 -0.13771668 0.659259 2.549196 -2.0529504 2.4746475 0.6429266 -0.15001641 1.3248969 1.2437271 -2.171098 1.9561265 -2.3345177 1.6469438 -1.4209428
allow 4.1964607 -2.4738412 -0.15652889 2.5843213 -1.5967634 -1.6871947 -0.6026108 -0.3695817 -0.534136 1.009965 0.3777501 1.2348512 -0.801699 -0.20744258 -0.6095434 -0.39265424
been 1.8764073 -4.397828 2.0758283 -2.0276105 0.22406574 -0.57184756 0.7033716 2.2381985 -1.6902401 -0.7918237 0.50225395 2.127316 1.7745203 0.10896174 1.5375906 0.84399897
recommendations -7.491587 0.29167724 -1.9192615 -0.59820855 -0.60820657 1.1640412 -0.21901217 -0.22955614 -0.43474546 2.1806238 -1.5762583 0.90860325 -0.50525445 0.4948807 1.7547054 -1.3480757
main 3.5601923 2.750182 3.6546926 2.168222 1.1991432 2.6339731 -0.84788173 -0.2885789 -0.06242824 -1.1312011 -0.08036113 -1.1759149 0.20187661 0.81087166 -1.1823081 0.70231754
ashr -3.777734 -3.3228507 0.6037861 -4.225928 -3.9094336 -0.26033992 1.8120551 0.21684551 1.391745 -2.526282 0.8985785 0.47155547 0.8584912 -0.6248615 0.32553703 -0.14411473
knowledge 0.7154289 0.99990094 -0.7324262 -0.04370489 2.3160813 -2.1998315 -1.8158559 0.93179756 -0.8779569 -0.35274234 -1.0276493 -0.7289302 0.11910612 1.7226498 -0.27371773 -1.3712481
lack 5.132451 -0.7724927 0.38007075 3.3368318 -1.0110536 0.5888698 0.21222511 -0.1569221 -1.3018086 0.30756745 1.1998892 -1.1809437 0.6233164 0.838571 1.0718262 0.26673368
via 0.8363159 0.49219474 1.5921484 1.8530937 -1.073391 -0.54177535 4.025135 -0.50026125 1.0460458 -1.1458559 -3.3847227 -0.34083992 0.06411548 1.7981894 1.419587 1.653271
employing 4.5979095 -1.4857227 -0.55335826 3.787123 -1.9310812 0.10323961 2.4983168 0.5888839 -1.2546271 1.2106793 1.4127841 -0.89674866 -0.046709266 0.35453522 0.50983584 0.43196657
wind -0.759794 3.2067664 1.538313 -3.585802 1.510344 -1.8604692 -0.754823 -0.6221761 -0.6922428 -0.5434953 0.78658813 0.5319268 0.07975566 0.3669087 1.1080523 0.71321726
general -2.2684882 1.8943284 0.49377164 1.1432899 0.35234687 2.1988282 -1.2748126 -0.4306059 -0.54149145 -1.7062007 2.3964148 -0.48269892 -1.1470255 0.06322111 0.07910209 -0.14554146
choose 1.8639783 -1.6413493 2.6890364 1.3228221 -1.8298209 -2.501558 -2.1712198 -1.3476368 -0.5181396 -0.015693242 -1.191745 2.1723688 -1.430495 -0.9838731 -1.9434707 -0.67839915
but -2.040447 -2.2483115 -0.11467925 -4.783734 -0.93748295 -0.063398056 0.41344205 0.94306695 1.3079846 1.6374241 -0.21065432 -0.30098113 -2.6146145 0.24502957 -0.07715804 -1.2672526
each 1.8643074 -0.6005334 -0.11038066 1.2437977 -0.1432783 1.5095862 -0.13244563 -0.4520143 -0.9677226 -0.043511935 1.3288742 -0.21779644 -0.76484436 -1.0407677 -0.6063143 -0.5883168
assignment 1.1821879 1.299106 -0.49428555 -0.24241051 -1.0086644 -0.13461936 -1.7138098 -1.1184915 0.7549057 0.13857609 -0.13752244 -0.59290177 0.12290627 0.8310808 0.06812942 -0.74551666
opportunity 1.654554 0.67589164 -1.4058588 -1.0565382 1.1030931 -1.0452883 -1.267836 -0.33068106 0.4094928 0.08219819 -1.7317357 0.37409347 0.96370345 1.1309065 -0.058532007 -0.78462386
solution 0.6525309 0.8442055 -2.3092072 0.5574388 -0.9159294 -1.5044533 -1.0261754 -0.8172208 -0.23738302 -1.4795151 -0.6022643 -1.0291455 0.23507282 -1.4861455 -0.18791653 -0.39824173
average -4.1317825 0.15510213 0.62003994 2.8251166 2.4682558 0.68314946 -0.61664575 -1.2596267 0.019441156 -1.1206826 1.5446094 -0.8084299 -0.1255801 -0.40323386 4.591067 -1.2148205
means 2.4967663 -2.8549898 3.1552744 1.7665398 -3.0901818 -1.1295228 2.0581887 2.9348187 -2.6450658 -0.02326649 -0.18736355 -2.319007 0.47888383 1.487301 2.0421915 -1.0593033
figuring 1.6986946 -1.7679032 -1.6635945 -1.3871403 -0.2682034 0.8332118 -1.1277388 -0.34005523 1.1276177 0.85314 -0.11691432 -0.69296515 -0.904509 0.42502427 0.4785506 -0.41062957
consumption -0.9172101 2.5979064 -2.4499907 -0.63095754 -0.35258162 -1.3604518 -0.38032445 0.031466328 -1.0800666 -0.25060442 -0.13664483 0.24249013 0.11254847 -0.66164327 1.6164367 1.0323287
weather -0.60009813 3.6990616 2.6838858 -2.292739 0.6206199 0.25695047 -0.32875013 -0.012045695 -1.2087226 -1.0342247 0.3781756 0.027161993 0.053604793 -1.2596452 1.2535247 0.9214519
service -1.9272023 1.3202537 -1.0429281 0.7928693 -0.12019815 1.716963 0.3015477 0.15047756 0.3360384 -0.242892 0.53220946 3.2530556 -0.05719833 -0.56220955 0.031978328 0.9731557
supply 2.379461 2.204582 -0.6334318 1.2983156 -0.7427717 0.85544777 -1.2861086 -0.47008035 0.95462155 0.8048308 1.6611745 0.8959464 -0.6794478 -0.348991 0.48230597 0.84728223
as 3.2955477 -2.0915108 -0.056388944 1.0398229 -0.2719012 3.0339134 0.7998907 2.1215417 -0.5799288 -0.46576306 -0.79037505 0.5908379 -0.42227802 0.06336158 0.06897254 1.1806958
contain 4.009495 -1.3844762 -1.3050615 2.442395 -2.0935287 0.9082818 0.10775772 -0.4137237 -0.393147 0.10286822 -0.010203767 -0.00326188 -0.04773004 -0.547999 0.18458082 0.6711686
data -5.5002675 1.5030657 -0.36443108 1.1850455 -0.07101759 1.2216207 -2.6107373 1.6769168 -0.3441605 -0.70035136 -0.7573606 0.33965987 -0.5877988 -2.3307593 -0.74138135 0.7342047
in 0.8623232 -0.5405593 0.5939729 0.18983765 0.08920611 0.93383837 2.968129 1.3562605 0.047087908 -0.6197141 -3.2695217 -1.150368 -0.5279062 -0.50558656 -0.28184542 0.11681023
paper -3.2462256 1.7630249 -1.4461163 0.1873078 0.9361533 0.8859934 -0.09992331 -0.42196578 -0.59323287 0.48097157 -0.50129753 2.043006 -0.20065756 -0.203383 1.2531383 -0.8745844
renovations -1.4403447 3.6102712 -0.9905897 -0.5424575 0.72131324 -1.2507166 1.4321642 -0.24604498 -0.11311341 1.8010323 -0.4326848 1.3446301 -0.2738845 0.049916532 1.4985099 0.079025544
formation 1.2503825 1.2639303 -1.1919377 -0.29495972 -0.30825976 0.8554251 -0.1874746 -1.314583 -1.1651754 -1.6997222 -1.4580411 -0.9001074 0.5192563 0.33235112 0.101890884 1.2076225
present -1.1273125 2.55226 3.925724 -0.37777007 -1.1035057 1.5913723 1.4312949 -1.3806615 0.27541932 -1.6777548 2.0590398 1.4021547 1.1179882 2.0466754 -0.5425579 -3.1219482
customers -1.6595508 1.3449837 -1.4790308 -2.1616173 -1.5545905 -0.10351894 0.034141485 -0.041854918 0.65375423 1.1354933 0.26042992 1.8795873 -0.19549839 -1.441991 0.12075179 1.2166454
across 0.40701148 -0.7556381 0.46165556 -1.9502426 3.8773983 -0.6209966 1.4077193 -0.8382468 1.2366282 -0.42148834 0.084289126 0.5811372 -1.8022182 0.17335626 0.894313 0.3300037
visual 2.0631902 1.424511 -1.337722 0.7632646 1.7488061 -1.2415625 0.12550019 -0.792462 0.8434628 -1.2481521 -0.3271502 -0.22314484 0.14518183 -0.0858305 -1.2538376 -0.47961342
for 1.3020709 -1.9383659 0.9431642 1.2426063 0.7441295 -0.29532245 2.3492675 1.3827854 -0.73842704 1.9659556 1.8738819 1.1030278 -2.5110984 0.45474 0.6158922 -0.9699368
residential -0.960661 2.553967 -1.1675391 -0.83433604 0.8276209 -0.83139944 0.8524125 -0.3443736 -0.113944374 -1.7774992 1.982872 0.908494 0.027430825 -0.96405345 0.19463108 1.0685364
gradually 0.41147316 -0.86974245 -0.764828 -2.2037525 -0.213526 -0.25334713 0.63798743 -1.0517112 -0.11861633 0.8156155 0.17274833 -0.99285215 -1.1940297 -0.49236125 1.0372227 -0.58804524
regulators 0.70301974 1.3275416 -2.969088 -0.863764 -0.7975354 1.9979906 0.03450637 0.16828243 0.28540814 0.52533174 0.5948799 -0.32603553 0.3066709 -0.17498226 0.11447892 0.8040929
nuclear 0.5222962 2.8098168 -1.2249942 -1.2442131 2.0731454 -0.12309285 0.85508436 -0.44200444 -0.77398074 -1.64059 1.2933685 0.47433218 -0.61679894 -0.994131 0.06032382 -0.2630574
law -3.3988383 4.382496 0.5201338 -0.81521803 2.0398386 -1.2938861 -0.09323169 2.4153905 -4.8436484 -2.255809 1.8859357 -1.357157 -1.9006108 0.043435555 -0.05751994 -0.5541254
restate -9.536307 -5.2203317 -1.9458647 2.2182472 -0.55903363 -0.23332877 -0.30833977 -1.3863418 -0.05530108 0.45798942 1.3722906 -0.22935571 -0.08176819 -0.43636638 -1.2576658 0.48106998
of 2.3325703 -1.6140566 0.077306986 0.99987483 -0.42099154 3.24278 1.7157397 1.0287175 -0.12907119 -0.27679873 -0.65781015 0.35867015 -1.2711163 0.09864782 0.8986163 1.9550682
alternatives 0.66259384 1.9093748 -1.9813268 -0.25642282 1.8692607 -1.8724314 2.119286 0.90907204 -0.06350402 0.15429564 -2.5880392 0.8216488 1.0931454 0.5047009 -1.4830151 -1.2718288
longer 0.46983355 -1.4643536 -0.7773858 -1.8438264 0.6996333 0.77098614 1.4929043 -1.2122736 -0.8234534 1.2889928 -0.1094065 -1.4408393 -0.30897215 0.860308 1.4761367 0.3500804
renovation -4.4612713 1.7353029 -1.414675 -0.1610393 1.4710237 -1.5570718 1.044897 -0.6713982 -0.92489254 0.9077152 -0.59752923 2.3631246 -0.33195734 -0.3614001 2.3820763 -0.15265375
lessening -9.794056 -5.400842 -2.9392703 2.0829697 0.038341105 -0.047711615 -1.3792887 -1.1104548 -0.49116555 1.034065 0.46322286 -0.6365586 0.5360618 0.58342445 -0.040921494 0.9622074
contracting 4.5765886 0.27384135 -1.6838243 2.403059 0.7534689 0.8054873 0.5366183 -0.80348563 -0.8616615 0.16322528 2.099391 -1.0494539 0.02858381 1.4634322 0.5340994 0.13015224
also -1.3337878 -1.23435 0.17686374 -1.1601397 0.4809356 1.6305925 2.1646736 2.1970115 -1.1170876 -1.2469409 -0.9129841 -1.0742016 -2.6058211 -3.0188031 -1.9653199 1.9579948
the 3.5411265 -1.6338363 -1.1311637 0.14524518 0.87235945 2.071027 0.5046712 0.45253006 0.40584967 -0.46745402 -0.18369775 -0.57500464 0.7063244 0.49093387 -0.58384234 0.3951275
energy 0.8652727 0.6828755 -1.675564 -1.4861528 0.70487046 -0.36612856 -1.7761524 0.40257606 -0.8126713 -0.6968775 -0.5325462 -0.10446189 -0.5072614 0.52905875 0.40185165 0.58261126
standardize -8.435344 -2.3483424 -2.4036813 1.2124267 -1.0305637 -0.98254514 0.24894287 -1.3235954 1.0753092 -0.995855 -1.0806934 -0.51406556 -0.68719494 -1.0351673 0.010282226 -1.4380807
nationwide -2.0935268 3.0041962 0.39137083 0.47603178 1.550389 1.4191122 0.48654267 0.6649457 0.11565123 -1.6379751 1.8224533 1.1768574 -0.104041725 -1.4128923 0.21062674 -1.7336223
advertise -11.160309 -5.5946274 -1.4906082 2.9863858 1.4400357 0.2636366 -0.2282752 -0.6054555 -0.88821983 0.056184478 1.1870759 1.1060605 1.2946188 0.11054047 -1.3278813 1.4428144
economically -0.12246045 3.301445 -1.914475 -0.69827247 0.6606953 -0.81862414 0.7862353 0.5063902 -0.803475 -0.5259751 1.587431 -0.711911 -0.043772276 -0.9173133 0.29681763 0.069962166
simplify -10.658885 -4.3770337 -0.590837 2.950027 0.6779416 -3.3863297 0.3773271 -1.1368155 -0.013510952 -0.45498025 0.095020115 -1.4188863 -1.9243258 0.5091577 -1.7482371 -0.06424559
clean 0.047428623 0.26016515 0.2150013 -0.66946346 1.2629169 -2.414396 -1.5573019 -0.6361822 2.0622466 0.8118265 1.9352514 -0.09744898 -1.3733801 0.13980407 -0.09090478 0.49469045
summary -8.3777075 1.8827572 2.9713328 2.2067375 0.757052 2.5557723 -2.6157923 1.0549381 0.92200124 1.2493374 0.4063996 -0.5709048 -0.35674053 -0.26847836 1.3333397 -3.2678273
can 3.506799 -2.715843 1.2915133 0.82867396 -1.807862 -0.19834392 -0.5566468 -0.009163935 -1.1201644 -1.6090342 -0.91266006 -0.08265337 0.6286997 -1.7326992 -0.4640539 0.8042742
we 1.1856633 -2.6571875 0.3775074 -2.316437 1.081049 0.47917464 0.19926198 2.1138117 -0.21444921 0.04484202 0.809393 1.4313428 0.92040247 0.5393215 -0.3224489 -0.17319913
interactive -4.9445395 0.15330172 -2.4372828 1.6960592 1.5368072 -1.6292711 1.9845568 -0.3884688 -0.33862334 -0.51738465 -1.9632869 2.6516335 0.59971386 0.2406639 -0.518018 -1.7346529
lending 3.0271845 -0.9087966 -1.8393471 0.55549777 -0.015206968 1.356934 -0.1407888 -0.5961195 -0.09566564 1.7270006 1.3100308 0.42476013 -0.1582306 0.7502195 0.1563441 -0.0547364
impossible 2.1289544 -1.293459 1.0062549 -2.0467212 2.2406626 -0.8761061 -0.40894306 0.47326133 1.203853 0.31430614 -0.59706527 -0.1837833 0.54674566 1.3278079 0.5406071 -0.9007055
dynamic 2.678996 1.7559961 -2.582682 0.888718 2.3013446 -2.193579 0.7616778 -0.9711001 -0.6952895 -2.216209 -2.0417159 -1.2646893 0.09344151 -0.096852064 -1.2944708 -1.4193609
here 2.2647843 -0.62701166 4.1765885 -1.297421 3.6799362 -1.0340658 0.8961748 -0.08639078 0.11869388 -1.7427553 -0.42676255 0.19633801 -1.936537 1.2357746 -2.6005454 -1.2947669
into 3.2647004 -2.8151298 -0.3845485 -0.88799584 1.2240055 0.41165316 0.5319699 0.64141136 -0.41921517 0.48681477 -0.4131438 0.6061291 -1.1720697 1.6384323 1.0985403 -0.33427235
they 2.6360803 -2.7992737 -0.018289162 -1.5798851 1.2832016 0.79132265 -0.80755764 0.8507108 0.7666648 0.48136926 0.28442353 -0.09444767 0.38000157 0.4450556 -0.7960153 0.60026085
institutions -2.4272003 3.2381384 -2.286823 -2.174424 -1.152188 -0.7508329 -0.20766832 2.3178823 -0.91540843 0.32123443 -0.43294558 0.11994986 1.209198 1.1694146 -1.0008234 -0.5769152
these -0.2849061 -0.10889233 0.027016202 -2.56096 -0.36090082 1.6207513 1.3762685 1.6949717 -0.22219883 -0.21687129 0.5796981 0.5633293 -1.8562475 -0.053183526 -2.155986 -1.3066853
convincing 4.6786685 -0.9677485 -1.5009189 1.2680625 1.9874905 -0.17083476 0.39955312 -0.5281165 0.6536012 0.66835904 0.5352541 -0.7498666 -0.19829659 1.2163273 0.16025135 -0.25226614
want 3.1991067 -1.7076786 3.4785647 -0.99210376 1.5063702 -2.0796533 -2.3237388 0.21386811 -0.9972861 0.9763147 -1.0724444 1.8664719 1.824542 0.24744153 0.38324255 0.6154982
at 2.1041203 -1.5660896 -0.13819183 -0.22239979 0.51218104 2.242233 1.793582 0.37192714 0.98534983 -1.0587307 -1.1251065 -0.47471067 -0.5851492 -0.75414336 0.75844735 -0.502235
partnering 3.583617 -0.17233825 -0.5126041 1.6209774 -0.99288595 1.1536726 -0.45643163 -0.037023973 0.009463774 -0.06285146 0.7182733 -0.4238957 2.0402122 1.9992912 0.4913509 -0.779634
engage 5.705326 -1.6917315 -0.084093876 1.9475926 0.780308 -1.1368524 0.063986935 -1.5647826 0.1673491 -0.8326116 -0.36255538 -0.103051014 1.2407224 1.6861706 -0.6430063 0.5654505
today -2.2487488 -0.69892675 2.4682777 -3.7194526 0.967146 0.22076549 -0.53892165 -0.34729204 1.1730996 0.8582974 -0.09118896 0.26299727 -2.257382 -0.78975403 -1.5680664 -2.5676703
better -0.49644113 -2.4643517 0.39964414 -1.9796805 0.64978147 0.54351556 0.056013465 0.20990679 0.7457374 1.0189905 0.2670033 -1.4233903 -0.39161313 0.53737473 0.6998579 -0.68023735
writing 0.7867166 2.1048267 -1.0037951 -0.58022153 1.1661683 0.098076254 -0.2031092 0.7713384 -0.45708674 0.0504688 -0.4930206 0.44615653 0.32637024 1.124995 0.19108482 -0.9984435
supplying 4.592599 1.5960044 -0.5497214 3.9787526 0.29307765 -1.1394703 0.53920484 -0.6155579 0.62611 0.8314309 2.000144 0.59211874 0.29090375 0.18000223 -0.06101159 0.56544447
utilities 1.6138166 0.09577936 -3.1490521 0.10010598 -1.2078701 0.65915656 -0.11527926 0.8509623 0.16344713 0.9814088 0.7600455 0.048456673 -0.09682128 -0.24900094 -0.11830851 0.5100958
partnership 1.3966066 1.271307 -2.415928 -0.46783075 1.0098889 -0.6283698 -0.39841458 -1.1578709 0.59840125 -0.56239456 -0.7682848 1.4455131 1.2335327 0.08932226 -0.47405258 -1.4201448
if 3.4396207 -2.9134936 1.9371605 -0.87698823 2.365139 -1.2563317 0.24666987 1.1752086 0.3534704 0.71983176 0.59408486 -0.6812695 1.0321144 -2.407851 0.9619002 -0.7521662
off 1.2677132 -1.461452 0.42308602 -0.44118416 0.93831617 1.7567724 0.0344653 -0.75616705 1.2746133 -0.020977208 0.86162376 -0.3056561 -0.9458939 -0.86454093 -0.6049304 2.0568535
due 1.736172 -1.4120265 -2.07091 -0.3866145 -0.10360544 2.438679 0.51101756 0.022458086 0.99010557 -0.22466594 -0.5248423 -0.5097823 -0.217942 -0.53622526 -0.09049814 0.32713935
use 2.1171918 -0.8380782 1.1656845 2.6951077 -2.5669506 -1.5296443 -0.5697922 -0.82650757 -1.4571972 0.690164 -1.6664672 1.6258621 -2.3065164 -2.0282228 -1.3165052 0.30585632
july -0.88420486 1.3208079 3.215046 -3.5962548 -0.5206078 1.9030907 1.3864827 -5.6549625 -3.2214196 3.3153064 0.91446954 -0.92763734 1.6178144 -0.57319444 -0.97460854 -0.2953369
conclusion -1.5171101 -0.5259461 -1.0016017 -1.3229128 -3.354894 0.40207177 -0.41334096 0.6530857 1.1515963 -0.33693823 -0.12822436 -1.6592028 0.054580167 -0.013565043 0.6023147 -2.667997
most 1.5395932 -0.56675094 -1.289805 -1.646832 2.6036348 0.8971233 -0.24355996 -0.64900386 1.3796656 0.49213895 0.65542847 -0.3695031 -1.0566341 -0.6172358 -1.1491362 0.041823808
getting 4.0045156 -2.0666418 -0.69116163 -0.26252812 1.1919413 0.46354827 -0.62346363 -0.23434636 0.023035334 0.16347897 0.47363502 -0.12092341 -0.8383735 0.8965664 0.5409164 0.2288269
is 3.2351325 -3.8233795 2.0453649 0.6827463 -1.9906415 -0.7474318 0.92250264 2.3698094 -1.5685046 -1.9237771 -1.1124394 -0.45405143 0.7805489 -2.0987418 0.67000264 0.30137205
it 2.6402617 -2.9751663 -0.0094769 -1.2814542 2.3496044 -0.18279019 -0.5866862 0.7556512 0.92170686 0.3707474 -0.54118925 -0.005796908 0.9589164 -1.2023023 -1.4077623 0.5948029
accessed -1.5220057 2.4765804 1.9651198 2.1769688 0.46529347 -2.1011934 6.920316 -0.93227303 1.7298495 1.7512693 -3.9203515 2.5414765 0.86452156 0.58115107 0.33448735 -0.5341885
sample -0.46518984 3.1161027 3.48589 0.5369098 -0.70496136 -2.8234317 -0.893891 -0.39655188 -0.21376361 -0.769937 -1.9432728 -0.43886507 -1.6149298 -2.918209 0.26451403 1.5493102
remaining 2.6758983 1.050481 0.90925115 1.3709304 -1.2698727 2.6393023 -0.25197574 -0.32826844 1.2884926 0.47342277 1.4831517 -1.3874776 0.4902194 -0.24872302 0.04124764 0.14134161
optimize -12.080347 -6.156427 -2.5242531 3.6922758 2.5976903 -0.2638382 -1.8088382 -1.2813581 -0.8134379 1.1726991 -1.0396631 -0.53675383 0.9123464 0.6373098 -0.2981897 0.5519198
appliances -0.21649864 1.7050829 -2.2298496 -2.1322107 -0.9864338 -0.1622953 -0.4656124 0.8509427 0.30001593 0.6305869 1.3106698 0.7169465 0.6097582 0.5511217 0.33982655 1.078957
products -1.9018456 2.1608756 -2.4228764 -0.6310775 -1.2648171 0.16122806 -0.81687564 2.074968 -1.4773917 0.8489761 1.2885033 0.22299233 0.13346963 -0.39598694 -1.2122976 1.4544485
base 0.32153496 1.7254564 0.70938057 -0.000696492 -1.913397 1.5215113 -1.9740359 -0.47562066 0.92453957 -1.6656345 0.6310061 -0.1129169 0.37970805 0.14515483 -0.66175354 0.695232
providing 3.130698 0.85932803 -0.824579 3.8724985 -1.7945368 -1.2036966 0.86893076 0.47600877 0.46248746 1.9981719 2.3178074 0.68262327 -1.1048285 -1.2338792 0.19519258 -1.091228
your 2.1483936 -2.2537377 0.16749863 -0.6843336 0.96991295 1.8184843 -0.5514491 0.79810697 0.6028701 0.5467344 0.52060974 0.8085011 0.9538074 0.27006993 -0.3595576 0.22145839
other 0.5210501 0.20478524 -1.3487208 -1.1041021 0.63413006 2.0098183 0.51868194 0.63713455 0.6298791 -0.5014583 0.59165996 -0.23878725 -0.5564368 -0.7684383 -1.9835433 0.9249945
ourselves 0.67498034 -2.0207524 -0.30070913 -2.4955103 -0.88950104 0.39782065 -0.83543867 1.3942957 0.19621791 1.390176 1.3064198 1.4962872 1.7219998 1.0553268 -1.8315489 -0.9786349
grant 0.73908764 1.784079 -0.50801563 0.20776975 0.17636727 1.234809 0.13952595 -0.48176092 1.2025571 0.28338647 -0.5283291 1.4528517 0.24172173 0.4920913 1.0205046 -0.8848689
following -1.1771346 -0.042033896 1.5793047 -0.60005176 -1.2995027 3.513637 0.08354198 1.7185944 0.38523382 -1.1189833 -0.40349677 -0.35523593 -0.46362358 -1.4096563 -0.6258588 -0.4623626
our -1.3024653 -2.711323 0.2087207 -2.8215854 0.6988906 1.9387765 -0.046669286 1.502458 -0.07488775 0.62025166 1.0647599 1.9672058 0.5668007 0.5411168 1.0356964 -1.1180859
repo -10.397994 -5.4116707 -2.7016227 1.7853242 0.8529109 1.856105 -1.0911357 -1.3416715 -0.63586026 -0.07570117 -0.054946475 0.45396793 1.3366578 0.8869156 -0.5901323 0.17854682
power 1.1202098 0.35827157 -0.83710855 -1.892664 1.9259489 -1.2309681 -1.782838 -0.29558614 0.382386 -0.008645973 -0.44561225 -0.3737998 -0.53832746 0.07704218 0.1646245 0.9736814
was 0.7001464 -3.6894662 2.3864083 -2.4672189 1.3065193 -1.6435004 1.1124007 2.5423508 -0.2220487 -0.0026984303 -0.63375026 -1.2290934 3.3454385 -3.7424161 1.0980585 -0.9822861
position 0.8090146 1.5226016 -0.12323378 0.16678771 -1.3831469 1.7912894 -1.7331403 -1.147726 1.7342675 -0.6750857 -0.74863464 -1.7584583 1.2946155 -0.21584938 0.6240612 -0.82465535
or 2.4180877 -1.3773417 0.75559515 -0.7419817 2.676743 -0.4926322 0.9222116 0.4308591 -0.093050055 0.9681715 -0.035913166 -1.2194903 -0.10325301 -0.04144641 0.6775849 -0.097859666
lists 0.031111427 3.0905228 -0.13869475 0.67872167 -0.84379375 2.0043883 -0.14246799 1.6115216 0.49206865 2.3865328 -1.6266448 -0.17390908 0.5129053 -0.75270146 -1.3237199 1.0041747
first -1.0020223 -1.5192178 0.46107015 -1.5544252 0.40333062 1.3472699 -1.1721761 0.65937394 0.68469095 -0.6526967 0.8531052 -1.223425 -2.492911 0.39751577 -0.54474384 -1.7314216
supplied 2.0931287 2.6240864 1.637442 3.5361419 1.8879297 -0.64441025 2.5319068 -1.0437639 1.8195546 2.231014 0.9697541 0.64799833 -0.5925689 -1.3816358 -0.7818043 0.62448025
operate 1.8680804 0.25505447 -0.11910782 1.9585506 -1.9208213 0.44948 -0.5716386 -1.2376887 1.0966588 -0.20429906 0.9063937 2.1669784 -0.46088517 -0.9005876 -0.33080268 0.71694076
procedures 1.0311722 2.257714 -2.9641907 -0.0029318824 -1.6847115 -0.20934395 -0.36755762 0.7314174 -0.00047049907 1.2993877 -0.019106308 -0.61863697 0.47032472 0.6125264 -0.3669189 -0.6424743
sole 1.7982433 -0.33293745 -1.6489042 0.41608748 -0.9601487 2.9659708 0.18043114 -0.35012516 0.1971768 -0.08237821 0.3898119 0.6439416 0.6618833 0.59959 -0.53201836 0.07663337
refrigerator -1.0963328 1.9760156 -0.1492397 -2.3135738 0.6366954 -1.1416861 -0.44964573 -1.3424929 0.1416194 -0.74857986 1.2364297 0.4134894 0.5205389 -0.76400423 2.1678753 2.6187005
dwellings -1.1095496 4.2356224 -0.19458684 -1.1348952 -0.2751492 -0.42196995 1.7577182 0.83339036 -1.1767377 1.679131 1.0058391 1.5524584 0.5943886 0.04294105 0.82039136 1.3216548
become 3.6069334 -3.291886 1.6608043 0.8355787 -1.6036916 -2.3117423 -1.0054865 0.0913102 -1.5767773 -1.8309454 0.59643835 1.2766898 0.64160484 0.7100525 -0.04811712 -0.24326105
contractors -0.71425927 3.2827601 -1.8065163 -0.032108713 0.45610696 -1.1855059 1.3340309 0.32685634 0.3301745 1.1109115 2.104218 1.1966698 0.06617295 0.09737401 0.07861831 1.302485
repaid -9.704458 -3.2636847 -0.7363693 2.1147776 0.5748902 -0.54071176 1.3014524 -0.5342281 -0.2198858 1.012979 0.9822292 0.19116409 -1.3439257 -0.047956098 1.1213138 0.2878904
allows 3.6210437 -1.312339 -1.5235779 2.1791384 -1.673477 -0.65629596 0.03823298 0.23266353 -0.19706409 0.98660207 0.39136857 -0.14273632 0.041204914 -0.4758722 -0.00094906637 -0.008175221
offer 3.1208441 -0.9443376 0.0031437718 0.7944888 -1.5819749 -0.25266406 -1.0005441 -1.5308007 0.21285805 -0.48552048 -0.81963456 1.6651089 0.38306314 -0.5837635 0.48659143 0.3115433
agreeable -7.658732 -4.712542 -0.86942655 0.03431463 -0.28623116 -1.807338 1.1193177 -0.8122036 1.2314831 -0.27701405 0.93042517 -0.92647564 0.50318164 1.1072961 0.71735173 -0.868201
describe 4.5535173 -0.7429973 -0.31383207 2.510002 -0.12031935 -0.666121 -0.48385218 -0.19136867 -1.2648728 0.47472072 -0.056117687 -0.10740655 -0.8354901 -0.26511198 -0.848968 0.17417686
solve 2.8838558 -0.9291195 1.3361379 2.4399345 -2.1765106 -2.918299 0.1654742 -0.5940811 -1.4756433 -1.7850803 -0.8133655 -1.2247572 0.35647583 -0.72969407 1.2217218 -1.8787345
problems -0.18715507 2.1990175 -2.0742974 0.24098426 -1.064734 -0.99668866 -0.5046434 2.2263517 -2.9499414 -0.17063312 -2.0867643 -2.3388686 -0.14641944 -0.75357544 0.28202707 -1.1907613
february -1.1717944 1.0744804 3.8302002 -3.9951763 -2.3230653 1.7778692 0.79553396 -4.7583036 -3.6218846 2.1968691 0.79654956 -1.1068082 0.25823095 -1.2296685 -2.023956 -1.9279785
biases -10.816839 -2.943458 -1.6559744 0.43061084 0.3243701 -1.4903086 -1.0964625 0.6121029 -0.60863787 1.6672436 -1.626696 -1.4454412 1.4308342 1.6549082 -0.35135084 -1.3055321
multimedia -8.501558 -0.93650454 -3.233813 0.96959096 2.4130964 -0.45024303 -0.15772657 0.51388544 -1.8126554 0.03687267 -0.7965211 1.1821115 1.508639 0.54703647 -0.58081573 -0.9472437
numerate -7.608984 -2.8394024 0.055231027 -0.16578484 -1.5174242 -1.1014429 2.9159455 -3.4111242 -0.49980366 -1.0274899 1.3517323 -2.5649781 0.9507543 -1.2117763 -2.4209044 3.5165348
chicago -1.4992616 2.1947367 0.16963746 -1.4766029 1.2605731 -0.4403342 0.30714828 -1.3137664 0.2691139 -0.1550385 -0.5380307 0.8240623 -0.16240415 0.15785328 0.35751125 -0.48976514
environmental -2.9042919 3.349826 -1.6552819 -1.19998 1.707399 -2.4874554 0.94286805 0.94165254 -1.1167077 -1.6627753 1.1615384 0.88171303 -0.28858668 0.23491746 0.91660607 -0.606174
ongoing 1.5975657 0.9589314 -1.2941114 -0.5532255 -0.32478237 1.0361282 2.2041957 -1.0157683 0.25418624 -0.013705302 -0.92410904 0.9206686 1.1725907 1.0781915 0.49347845 -1.9942373
platform 0.2961938 2.8083584 0.49236342 0.5828039 1.8482039 -0.54930353 1.4345714 -1.8500223 0.2649795 -1.1946737 -1.4298829 1.7240407 1.1412176 -0.21715829 1.3286211 0.9882879
pace -0.118117265 -1.5374248 0.26515123 -3.4003606 -1.3550098 0.5736151 -1.6022892 -0.7613298 1.0055069 0.5329524 -1.567237 0.89811635 -0.9642036 1.0510949 1.0539262 0.100871205
new -1.0542359 0.63918746 1.9103781 -0.24782787 -0.99482477 2.399861 -0.70759636 -0.0023878247 0.847639 -1.4421445 0.055581402 0.90654737 0.17861132 0.73484474 0.34684277 -0.16092302
enable 4.024906 -1.5011117 -1.3392291 2.439111 -1.2580146 -1.6483513 -0.83852345 -0.47070053 0.12580767 -0.02105601 -0.91725546 1.3893937 0.09322971 0.20480467 -1.2761648 -0.010198072
installation 1.0560007 2.8161578 -1.5189377 0.6494735 1.4085575 -1.7370414 1.3835611 -1.037139 0.25606966 0.2974957 -1.0463798 0.9020131 -0.14086281 0.031021288 0.24988884 -0.4031872
experienced 2.254066 0.38617575 -0.29852933 1.5027239 -0.8609517 0.46958408 0.8347596 0.45641547 1.2065243 -1.1437929 1.3999703 0.0020780845 0.95906985 1.857547 0.086817786 -1.3334942
processes -0.490771 3.4051516 -2.1967402 -1.2503889 -1.8308215 -1.0805184 -1.4174243 2.399879 -2.4324667 0.56653017 -0.5946363 -1.6598105 1.3072658 1.4694601 -2.0042863 0.37600398
information -7.430058 0.274242 -1.0346965 2.5734923 2.1059003 1.7956604 -2.946912 1.3333185 -1.2470683 0.49544075 -0.42667577 -0.23023127 -0.08862792 -0.7968604 -0.9745979 0.35980955
tackling -6.1176915 -0.45094562 1.8110147 -3.1320221 -4.127138 -3.9577546 3.6784363 -1.6555873 4.5123134 -1.4361197 0.35457978 -3.7438033 -0.67246604 2.7413049 -0.4022944 0.6337557
buy 3.4898574 -0.6474568 1.5895346 1.3531369 -1.3974255 -3.4498143 -2.448108 -1.9145606 0.7121627 0.054573063 0.15650843 0.15862033 -1.2611731 -0.012837475 -0.7462474 0.8626291
demand 3.1902907 -1.0569494 -0.65905845 -0.09744887 -1.1047595 -0.61463267 -1.5485471 -0.70462376 -0.731415 0.18912561 -1.4133161 1.1503968 -0.11351577 0.7723873 0.6107059 -0.059024937
within 2.6980321 -1.3222373 -2.0867069 -0.003853198 0.059864264 1.6758351 1.1773946 -0.16039622 0.84434974 0.81431305 -0.4220486 0.09817966 -0.66255295 -0.33301654 -0.24603486 -0.007857779
has 2.6075578 -2.800251 0.7629208 0.19027291 -0.81857467 1.2834297 0.80831474 1.5143194 -1.2530576 -1.0061911 -1.139632 1.1481543 -0.01107251 -1.5283139 0.8407859 0.4325701
headers -10.076253 -2.1018336 -1.4522151 2.6953287 -0.66766673 0.53354967 -1.2920629 0.50624293 0.45877928 0.63526875 0.71421766 -1.7896456 0.6138071 -0.17133316 -0.73130274 1.2983502
consumers 0.78239393 0.85432535 -2.9605467 -1.0626122 -0.36093283 -0.6778031 -0.6143815 0.5007409 0.38263494 0.9080234 -0.2568379 0.6014033 0.30543783 -0.5183846 -0.29791474 0.9580824
hello -1.198647 -0.35855234 2.7691994 -2.546527 -0.49119544 -0.9295513 -0.07559919 -1.25668 0.76381063 -0.31743926 -0.101997286 1.2977674 0.7088072 0.20186335 1.2466874 -1.2120187
see 2.1856637 -1.225051 0.9374912 0.9948466 -0.85488045 1.4788442 1.0977008 1.0456582 -0.8293379 0.45079264 -1.7819451 -0.5986556 -1.8800089 -0.2988069 -1.3046745 0.48882502
